0,1,2,3,4,5,6,7,8,9,10,11,12,13,14,15,16,17,18,19,20,21,22,23,24,25,26,27,28,29,30,31,32,33,34,35,36,37,38,39,40,41,42,43,44,45,46,47,48,49,50,51,52,53,54,55,56,57,58,59,60
-0.04917372,-0.0320321,0.08418305,0.047454372,-0.16158848,-0.11245282,0.09474086,0.035907894,-0.049083978,0.033957057,-0.18670109,0.01566149,0.06875623,0.033057947,0.0016013036,-0.02116694,0.0057274024,0.0017754624,-0.12131975,0.020323103,0.08372104,0.028084116,-0.07810355,-0.14596629,-0.052897353,0.03508832,0.004637098,0.05128051,0.024219802,0.047907367,-0.06485046,-0.0011602141,0.045406364,-0.027489988,-0.1336933,0.044718698,0.037157815,0.019538898,-0.7905356,-0.12753782,-0.054258112,0.0087072225,0.088249505,-0.050095737,0.0703406,0.00819981,0.008849433,0.035976637,-0.117343456,-0.08647705,0.017872587,-0.016081234,-0.045313105,0.018373027,0.03296571,-0.15128382,-0.087855496,0.05892336,0.068394385,0.012117876,0.046536736
-0.08609286,2.5025325,1.411333,-1.4862026,-1.2307589,1.0031539,-3.1473098,-2.2598112,1.883096,0.13823064,1.100431,1.4164653,-0.22560075,-0.35315353,0.02150323,1.0669811,-0.35209465,0.20783983,-2.5438755,-0.08297609,0.25256708,-2.012361,1.2975507,0.91439855,0.5997757,1.0209028,-2.812393,-0.693695,0.7403472,-0.7497226,-1.1074009,0.122995146,-0.88148177,-0.9045137,-1.6272837,0.52926254,-0.8385007,-0.18307826,-0.3182334,0.8600201,-3.474813,-3.0118942,1.8371631,-0.9231516,1.5052814,-0.31437933,-1.1441573,1.3694909,0.20822184,0.07700617,-0.70500845,0.3682657,-0.36281118,0.9611518,-1.0031487,1.056526,-0.08347916,-1.7030679,2.4940908,0.4774439,1.2001772
-0.5716125,-2.5519857,2.4739344,-0.0415436,0.3720849,-0.28853965,-2.483862,-2.0132096,2.793541,-0.6117204,-0.45284033,2.726797,-0.3975647,0.49678272,0.040484052,-0.24839027,1.5437583,-1.1368201,-1.0269738,0.02207513,0.7723352,-3.8526154,-0.80017084,0.5886935,0.72291404,-1.9349035,-7.1073794,-10.087868,0.94983447,5.515288,0.74158055,-0.1599528,-0.029868223,-0.019394709,-1.3010004,-0.024371369,-0.10572912,-0.59702295,-11.921259,-0.63973886,1.1296862,0.0698403,-0.7960109,-1.3322263,0.5131873,0.48742396,-0.8097837,0.37239143,-0.28952974,-0.63020355,-0.29038104,0.7006564,0.9723526,0.4366125,-0.43180126,2.290987,-0.49813026,-1.2375222,-0.8985529,-0.38163164,0.9517889
-0.39394256,0.6793662,0.6864533,0.11419847,0.24058184,-0.28964716,-0.472544,-0.03312836,1.1259587,0.6303542,-0.14848654,0.26581466,0.14454596,0.15858506,-0.11615453,3.1246777,2.4523244,-0.34159073,-0.5534636,-0.7453202,0.6005147,-0.11442317,0.39752907,0.7873252,-0.1879996,0.6897799,-0.37511852,-0.049301334,-0.13753095,0.39386383,-0.42618102,-1.0067307,0.06514588,0.035747945,0.9026206,-0.24409664,0.11406142,-0.613027,-2.374266,-0.55940163,-0.49444836,2.0412323,0.031100485,0.17541045,0.39908722,-0.23099904,-0.037673716,0.29182956,-0.16981938,-0.13014586,-0.023368068,0.32006845,-0.24533202,0.14590278,0.2953049,1.8733767,0.3768018,-0.2790707,0.55497134,2.4200656,0.042414483
-0.48274052,-2.7124624,2.8991246,0.1528909,3.7965338,-0.7190761,1.3415892,-0.5988441,0.6451281,-2.5778651,-0.33633336,-0.65025127,1.3104692,0.20145066,0.051179703,4.959518,2.5018084,-0.2257303,-4.6204042,-2.6437812,-0.2486749,-0.5673728,-0.5670001,0.4568848,0.7882966,0.54509497,-1.0745807,-7.3761163,-3.079963,5.9319925,-0.7151146,-2.7091618,0.19215073,1.7708533,-1.2193161,-0.043613683,-1.6308683,-0.723557,-1.3692462,-0.14782569,-0.67071515,-2.027943,1.5416113,-0.28341466,-1.1460942,0.47538552,-0.3147912,-5.08332,-4.5264072,0.9490942,0.021843819,-0.018861922,-0.16771372,-0.16270687,2.7086515,-1.4063232,-2.4674592,-1.2063493,1.9819766,0.47715288,-4.509379
-1.9186615,1.0394429,0.7999238,1.3513445,2.072772,0.9978798,-1.0177163,-0.13412374,-2.8989387,-3.0724514,-0.5864483,2.6948385,0.5382558,0.6979289,0.15190141,3.2138028,2.0686195,-2.4367378,0.22332354,1.6028644,0.12594189,0.40849715,-0.37371844,-0.6863052,-0.055452216,0.60700524,0.32013682,-0.27730894,3.5162458,-2.4614565,-0.27159968,-1.7303205,0.25486007,-1.036565,-1.6035535,0.30662763,-0.33490896,-0.5793357,0.12056382,-0.3951198,0.5934087,2.4902022,-2.553793,-0.684346,1.0012969,0.28409284,-0.16127604,3.2959409,-0.41003257,0.56490827,-0.1273869,0.045163292,3.4720278,-2.0661001,-0.13341375,1.8395457,-0.5842495,-3.285606,4.854451,-0.015612563,-0.2923572
-0.18388663,0.3300518,6.8396635,-0.36822733,-3.3598175,-0.18582872,-0.06754562,0.41055027,4.0849414,1.4227535,0.37248316,-1.1518201,-10.3010845,-0.35843968,0.038456723,2.599056,0.8398107,0.32437593,4.2195225,-2.346079,0.33170047,-2.363011,-0.37754506,1.7067877,0.029874457,0.22896725,0.1371609,-6.6003103,-6.5624795,1.7319211,0.34103447,1.0034764,-0.6346943,-1.6822042,1.0776265,2.9491963,-1.3040651,-0.73358613,-2.8981698,-0.12955347,-1.0901157,-4.2955647,-1.8343302,0.55051464,1.1417013,-0.025231536,-1.1008782,1.419749,-3.042368,1.1738578,-0.28506926,-0.24449234,1.4733953,0.73051,1.1093992,-2.9657598,-0.5480166,-0.09045839,1.2667773,-2.561413,0.3636861
0.0262705,0.1567826,-0.21062699,-0.0322538,-0.22686338,-0.0772528,0.06333914,0.0075488077,-0.1130071,-0.008238286,0.0803972,0.06509672,0.020479275,0.038135864,-0.034263253,-0.09106459,-0.057873577,0.0122216195,-0.08107848,0.052603282,0.13594258,-0.057664268,0.082210205,-0.062000923,-0.051023412,0.018588008,0.0013013347,0.049618825,-0.0629786,0.072743684,-0.044876605,-0.01618551,0.050235517,-0.036312446,-0.022372026,-0.029050777,0.1016098,0.03420279,-0.644312,0.0032855975,-0.0080052335,0.09563041,0.016251225,-0.036028072,-0.02047908,0.029173838,0.0030702443,0.030096762,-0.07624074,-0.050896395,0.041872066,0.04593524,-0.17794877,0.007102703,-0.112005465,-0.17215548,0.053387016,0.01992936,-0.07594732,0.014572366,0.053082295
0.011566795,-0.1423236,-0.054591287,-0.11731631,0.1473168,-0.19028988,0.021826323,0.07822263,7.1026897,0.08846911,0.060745418,-0.19848523,-0.13339199,-0.72155297,0.05185503,-2.2470386,0.26842952,0.4827414,-1.9813995,0.008666741,0.19147457,0.60495967,-0.17273019,-0.0785318,-0.14230071,0.6524587,-0.06217884,-0.4932444,-0.37343144,-0.12435581,0.038603127,0.012274998,-0.13231416,0.0188187,0.042295832,0.053176645,-0.4177942,-0.07571874,-8.410759,-0.3058405,-0.10632952,-0.17552394,0.33322358,0.66916394,0.109983325,0.15024547,-0.016662564,-0.16470411,-0.26853293,-0.07333309,-0.45244798,-0.39764276,0.06723238,-0.28971785,0.017751873,-2.7793064,0.061844237,0.29435956,0.3318025,-1.731802,-0.14366338
-0.04433929,-0.04141863,0.22371691,-0.035839587,-0.2913894,-0.0027160412,0.017276283,0.010591827,-0.19775005,-0.15818433,-0.16383198,-0.04493537,0.043092884,0.053746857,0.022405494,0.044058323,-0.107196055,0.0072807823,0.094194345,0.0849213,0.023865974,-0.023482738,-0.10293126,-0.051944155,-0.014320204,0.038204722,0.008881923,0.057614483,-0.09268261,-0.050335877,0.00033913294,-0.019506522,0.024801997,0.030892912,0.02455087,-0.10463716,0.023393134,0.032147095,-0.6923798,-0.13532898,-0.07293398,0.15602048,0.095304586,-0.111078374,0.085894115,0.0030379412,-0.011639121,0.013244402,0.05460069,-0.03387711,0.036111366,-0.019105451,-0.0005189342,0.026995098,0.02951424,-0.31310606,-0.016290788,0.033728067,0.054138836,0.05418491,0.05081741
0.4110523,-1.7913346,-1.6042429,0.47445622,2.2236242,-0.6098649,1.1206882,0.024143131,0.7838126,-0.1432957,0.74148774,1.6146823,0.79716474,-0.116576895,0.23862481,-2.494426,-0.19473709,0.5177989,-1.3018398,0.9634018,-1.2168608,1.1797938,0.3757733,-0.038556878,0.83371806,-0.8051648,0.6565783,-1.6413726,-2.0291991,-3.3943784,0.13560453,-0.8299586,-0.44954705,-0.4997536,1.8414532,-0.8693273,1.2927043,-1.3800664,-11.183053,0.7060933,0.59659696,-1.7844077,-0.8202369,0.30325133,0.60553575,-0.36552003,0.22061224,-1.8072734,0.29541096,0.03336834,-0.016271645,-0.92028356,0.11644811,-0.4578356,-0.65032923,3.3287373,0.14762084,-1.1456265,2.1856492,-0.9150224,-0.69647264
0.3123403,1.1463765,2.0578582,0.22290652,-0.6872979,-0.40631378,-1.0638196,0.37838745,0.02513791,-0.26384595,1.1100103,0.5761021,-0.03560679,0.9877496,-0.08244065,2.6633897,-0.77428186,0.110877894,-0.40804896,-1.6826555,0.29033393,-0.1946573,-0.30035597,-0.9271142,-0.56135225,-0.21842702,0.1735928,-0.13636632,-0.30428815,0.4471847,1.382071,-4.6944675,-0.3772517,-0.40374866,-0.04448349,-0.77920896,0.9780073,-0.6030293,-0.31372923,0.29616523,-0.0903702,1.4385692,-0.1750383,-0.7907133,-0.1490202,-1.1737679,0.22681423,1.1286126,-0.016037432,0.015034465,-0.39660496,0.5201025,-0.10869907,0.08920061,0.41797885,-0.6435036,-0.27821666,-0.88559103,-1.0601723,-0.2763354,1.0307868
0.47164294,0.94323266,5.196037,0.34858388,-1.0034148,1.1480745,1.4334337,0.124986336,2.004682,1.4615787,-1.8125696,-0.21088609,1.4407117,-0.045123454,-0.15167046,-1.143289,1.985239,-0.42568672,1.0900533,0.38302025,-0.13713214,-10.188371,-0.07051284,-0.18129386,-2.059758,-1.4625765,-1.3207431,0.30701035,-7.7515984,-2.9923823,-0.8210609,1.0254499,-0.04965635,-0.5952568,2.5700114,-3.86475,2.3255494,-1.3046308,-0.78814304,-1.3245629,-7.160583,1.2481731,1.3539768,-0.19052032,-0.3621881,-1.3225263,0.27380854,0.29439753,-0.66475517,-0.37784687,0.045991898,0.6509223,-0.02202424,1.2623748,2.2918952,2.9449797,-1.1643202,-0.7643406,2.5230372,0.75585985,-2.404142
0.045639586,0.6155379,0.76671034,0.1607631,0.28375012,-0.13135079,0.47716463,-0.036826402,-0.6127563,-0.45000142,0.14693008,0.17867751,0.23847511,-0.04435534,-0.038147595,-0.3276856,0.35866067,-0.37544522,0.34272054,0.38396356,-0.2603063,-0.29851672,0.32080436,-0.23665236,-0.11875721,-0.6584282,-0.48598245,0.19961293,-0.6241077,0.6825986,-0.13335484,0.36911464,0.012795954,0.04036847,0.30761823,0.50504607,0.3804594,-0.4192544,-9.347257,-0.88476855,-0.57400554,0.118892536,-0.44762808,0.45112965,-0.43580255,-0.07589128,0.12016017,0.35424665,0.06464228,-0.32713637,-0.06600713,-0.017823853,-0.28346863,0.118332304,0.38623375,-3.0650747,-0.22931252,0.1734164,0.8456287,-1.7745117,-0.0874995
-5.876566,2.80497,-1.7999046,-0.8024399,6.2216663,-0.17814638,-0.09652391,0.34067827,-0.18172392,2.654039,-0.172905,2.1530416,-0.30119598,-0.16815417,0.19555752,-6.896821,-6.0684648,0.22749515,3.5198922,-2.0086288,-1.6914421,-2.250352,0.009916178,2.6922243,-2.766425,-1.1487716,-0.15817216,3.1794372,-8.032917,-2.0929558,1.3549426,0.4338775,-0.24286462,-4.400116,0.9155641,4.8800864,4.062132,-2.5162125,-12.816059,0.42637196,0.89435667,4.2566786,-0.7147197,0.507592,0.9286979,0.87068623,-1.1288694,7.0371523,-1.5926657,-0.58725256,-0.41530055,-0.08676427,-2.748827,0.9746905,1.024429,-0.26040456,-2.585541,1.5401776,2.6669662,-2.8710682,3.882948
-0.5088183,-2.5699098,-1.1520518,0.08502066,3.2371078,-0.9500065,1.1734638,-0.013985358,0.22421035,1.0559852,0.3675431,0.56785375,-0.19213867,-0.37291658,0.14184526,3.5994358,-0.99054927,-1.071667,-0.41117877,0.35407823,0.039374344,1.3692973,-0.025381675,0.6716264,0.55122524,-1.1518407,-0.5667923,-0.14466755,0.5495669,-0.7232883,-0.6564367,0.10919086,0.3211568,-0.3192413,-0.18568869,-0.15725204,0.87504584,0.2928441,-13.748277,-0.1987575,-0.22992699,0.23617835,-1.0749937,0.7782457,-0.1990866,-1.1391658,0.013267694,0.9209812,-0.18396808,-0.6092236,-0.36292997,-0.21496363,0.1831092,-0.06402046,0.96854806,-2.5956287,-0.47716185,0.35385188,-0.31575984,-0.18191412,-0.37484097
0.23950635,2.3487208,-1.8471307,-0.245482,-0.16394758,-0.1306764,0.5626891,-1.0517769,3.6502202,0.24692507,-0.00042388984,1.5683826,-0.29024217,0.61024624,0.006057516,1.1500552,0.9335795,-0.56656694,1.1968606,0.6201681,-1.0879489,-0.8713747,-0.41071305,-0.73579407,-1.615485,-0.33818802,-0.8053914,-0.17959774,0.07743077,3.1516035,0.4022501,0.3038427,0.20488447,-0.21535647,0.24643227,-0.32103866,1.4602225,-0.34166765,-6.3033814,-0.06950886,-1.3023609,0.3734444,-0.19216828,-0.45550627,0.00998563,-0.3814287,-0.32541025,-0.005128882,-0.09748043,0.41869894,-0.3118943,0.20642959,-2.0756376,-0.24421795,0.07807788,-2.9201865,-0.18373059,-1.5152063,0.36097488,-0.1776131,0.09347901
-0.06667521,-1.2839208,-1.0460526,0.1929617,-1.5557688,0.47530738,1.0830672,-0.27263874,0.8415743,0.05278811,-0.18519264,-0.24125466,0.22830828,0.27029595,-0.035155278,-1.3299928,2.1010163,0.2909131,-0.4838538,-1.1993649,-0.05127058,-2.651764,-0.32450917,-0.07162724,-3.0082448,-0.002036869,0.09571067,-0.107162386,-3.0743158,-0.38781947,-0.44847298,0.41493803,-0.21316132,0.18316531,1.21662,-0.6215144,0.3050881,0.3643462,0.41299698,0.17990547,0.09218555,0.68389255,-1.154542,0.009217849,-0.026796885,-0.58705354,-0.17953733,-1.2398409,-0.047738533,0.25347483,-0.56449884,-0.05940678,-3.3765988,-0.028053353,-0.09057158,-2.3009303,-0.022737145,-0.37100366,-0.1821916,-1.5882045,0.47099784
0.49323997,-0.048842613,-1.569604,-0.085314974,0.268561,0.30622593,0.5804829,0.03464011,2.9493225,-0.22872144,0.7950119,-0.61412084,-0.08783865,0.48819572,-0.09677724,1.9714828,0.18581003,-0.56063217,-0.20155509,-2.6875546,0.7130764,0.18035291,0.02703681,0.36243707,-0.83706695,0.07449554,-0.4074214,1.1945542,-8.184368,-0.4875053,0.98752946,0.22173628,-0.3801916,0.33986574,0.16043244,0.50552875,-0.56249326,-0.058148354,-3.4448197,-0.36315793,0.54708385,-0.2615197,-0.117993414,-3.062779,0.19053881,-3.0434806,-0.64741004,0.5351992,0.4322287,-0.26284152,-0.38062203,-4.3087797,-0.082233645,-0.6210188,-0.14582378,4.7531505,-0.47951284,-0.3601391,0.0912227,-1.1098984,-0.41375145
0.25562277,-0.14588085,-0.7434398,0.13020428,0.032467093,-0.06924504,0.26895365,-0.29470974,1.9597619,0.04219039,-0.08450309,-0.22409074,0.09979888,-0.047421157,0.11380943,-0.31749755,0.5873095,-0.27192342,-0.17589499,0.29649764,-0.64479584,-0.12677677,-0.033687327,0.097491294,-0.07170103,1.4363109,-0.3482576,-0.13730408,-0.02322005,-1.4175686,0.37200335,0.28291637,-0.42193946,0.032381747,0.4931007,-0.012192725,-0.30322254,-0.29478762,-1.3304662,-0.016664954,-1.3513044,0.12093887,-0.4201386,0.36307698,-0.07487443,0.006729207,-0.11339791,0.15350899,0.0546811,-0.14690524,0.30875537,0.26359802,0.49541453,0.049357712,0.14052337,-0.6251897,-0.1033091,-0.1974933,0.24395575,-0.54933804,0.13727403
-0.71136725,-0.7574073,1.767176,0.88061476,0.93096155,-0.4721916,0.57841015,0.02089715,4.7254624,-0.1530689,0.34469852,1.1076312,0.16853517,-0.13350953,0.18299884,0.9456767,1.3425976,0.057782974,0.70862573,0.71130544,-0.3194772,0.37763917,0.048163116,-0.78127205,1.26601,-0.1464705,0.24687184,0.5458036,0.12634626,-4.0003953,0.418076,-0.2854654,-1.1659418,-0.13205151,1.1985614,-0.03244278,0.70707524,-1.1390735,-2.5110307,-0.111423746,0.8085689,-0.975306,-0.43857732,-1.6166346,-0.13866466,0.022901684,0.43545502,-1.5036376,-0.3022775,-1.1090797,0.12787217,0.04686704,-1.3300027,-2.0015254,-1.2680405,2.7642972,0.43685654,0.26013875,-0.013857609,-0.5431584,0.37451732
-0.36864075,-0.4616951,0.5253423,-0.12996583,-0.30834407,-0.26642242,-0.17437239,0.018976402,-1.7573746,0.06575366,0.24840389,-0.19050892,-1.0510919,0.121524945,-0.0043870937,2.4254658,-0.45902961,0.42882302,-0.008518322,-0.09905789,-0.25852442,1.1362809,-0.12579443,0.19156289,-0.39676893,0.24558735,-0.36332497,-0.37456894,-1.6238981,0.5729433,0.50682324,-0.09168325,0.2107744,0.47051966,0.08579413,0.032993358,-0.22116402,-0.21115878,-1.2529864,-0.9259336,-0.36391288,-0.7921613,0.68076867,-0.4492563,0.6519438,-0.6622624,0.060953986,-2.349995,-0.178806,-0.04236946,-0.30288166,0.107745774,0.9003329,-1.1866783,-1.3710266,2.138504,-0.030460965,0.4131451,0.5204994,-0.4949617,-0.26160806
-1.9593066,2.179051,4.0592365,1.5189502,2.3510292,-0.8358778,1.2186185,-0.4822594,0.64540446,0.3066732,0.21991898,2.062804,0.26201028,-0.13877541,0.21418448,0.8463976,-0.46721908,-0.79423505,1.0707959,1.3433459,0.7565465,-1.6477314,0.6951333,-1.5315351,1.6968014,-0.023613133,-0.49676797,0.46484488,1.8468592,-4.495673,-1.6971301,-1.0604984,-1.289403,-0.8994662,0.95159954,0.8623014,-0.2776875,-0.13374855,-0.23557653,-0.24831036,1.3826209,-1.8226978,0.84806514,-2.688204,-1.1293423,-0.41068527,0.62747365,-2.0310066,-0.8068863,-1.686865,-0.030165177,0.64439386,-1.1957179,-2.302522,-1.9102648,2.616004,1.2683121,0.26240063,-0.15646325,-1.197818,0.0075762086
-0.026195921,-0.02871324,-0.06378423,0.020195905,0.02995282,0.010003398,0.20677164,0.056922235,0.39275166,0.027205976,-0.010549956,-0.011514917,-0.029177878,0.5026915,0.023653196,-0.69354177,0.026679223,-0.09742959,-0.04065722,-0.0036053748,0.106252275,-0.04554394,-0.011757412,-0.035490353,-0.10735258,-0.09208868,-0.18590915,-0.14603643,0.044325776,0.6183492,-0.007165206,-0.05257025,0.8383622,0.0050732014,0.07827329,-0.0060351845,-0.03412538,-0.20447919,-0.010179604,-0.014149645,-0.0949012,0.058054164,-0.10928654,0.004115902,0.020079503,-0.0239518,-0.013401443,-0.07005322,-0.019293029,-0.020377219,-0.15380123,0.016570566,0.0052421875,0.20577572,0.007859096,7.1233644,0.009349682,-0.062221613,-0.016402185,-0.058917608,-0.004072835
0.18011625,0.6931785,0.4174282,-0.0630792,-0.009159648,0.072637655,-0.020837858,0.15278909,6.4442925,0.02082462,-0.08613529,-0.1350852,-0.008370953,0.4636617,-3.3977926,0.1376544,-0.469139,0.14536804,0.44710305,0.3173287,-0.26556966,-0.15257466,-0.014163614,-0.108830474,-0.18310764,-0.076040804,0.29785624,-0.5814751,-0.28903115,-6.8631806,-0.07427632,-0.16107097,-2.8326702,0.06541212,-0.11402337,0.20796499,0.35585362,-0.34437186,0.28466043,0.09698415,-0.004833503,-0.13573824,0.0790855,-0.123581246,0.1259545,0.09322112,0.09130844,-0.01417742,0.08317708,-0.10622519,-0.39504126,0.02586855,-0.36529586,0.57920563,-0.2587371,5.230799,-0.09502088,-0.07505961,0.09678864,-0.35760468,-0.12276482
-7.368788,-2.954504,-1.7385597,-0.52956724,1.9082358,-0.53419787,2.2257912,-1.4553341,-3.5289452,1.3301806,0.71731156,-0.11015967,-1.5543811,-0.2622835,0.1456967,2.0968874,-1.2530756,-0.3814283,2.4395423,0.5871092,-0.44619948,-2.5077364,-3.2087617,1.0691165,0.6067013,-0.35099,-0.028044144,-0.09217787,0.3337524,-5.8897176,-0.54349625,-0.18740533,-0.7913635,1.0228506,0.7763949,-1.1323255,-1.3826917,-1.0583905,-12.719695,0.20740147,1.2366318,-1.1889396,-0.13715737,-0.2363899,-1.4594339,-0.19505207,0.037198573,-2.9715881,-0.40510353,0.38903636,-0.41280988,-2.080981,-3.0407517,-0.44904357,-0.32789555,0.8334902,1.0713843,0.49593723,-1.9234514,-3.9010203,-0.56246454
-0.87594795,-0.32010224,1.236196,-0.25222158,1.2433443,-0.16015972,1.4187516,-2.2922616,11.240559,0.52769786,0.35333022,0.32322428,0.13013023,-0.22181702,0.25886303,0.15988082,-2.2604065,-0.22579366,1.7982907,0.0389967,-0.03114252,-0.35965246,-3.3856044,-5.6353498,0.10302201,-0.3052485,-0.27387965,-0.036198907,-0.39281374,-1.9297057,-0.5571612,0.26192492,0.068969056,-2.5317776,-0.62046266,-0.02282045,0.6665771,-0.27851465,-6.0577235,0.30830675,-1.1690398,0.51832277,0.50021887,-0.17103912,-0.7127508,-1.424795,-0.3109104,-0.66293824,-2.2181795,-4.272254,-0.13967767,-1.1217265,1.4591068,-0.3516437,1.1484913,1.4008812,-0.68968177,-3.3508594,-2.7981534,-1.0452714,0.9532601
0.17241296,-1.0371245,-4.1132936,0.16628243,2.6086044,-2.8486269,1.9570177,0.47447485,1.1283731,2.6902318,-0.5541754,-1.7357432,-7.880272,0.024378994,-0.2619167,0.8603214,-6.3691826,0.38521123,4.581883,1.8009421,-0.55857056,0.98921484,-0.066986285,1.2868937,0.29397386,-1.7540913,0.034151975,-1.3363491,-1.0339006,-1.9096879,-2.609145,-2.869515,-0.5350377,-1.9195658,0.5943668,-0.62128776,-1.6480316,0.10382058,0.2790228,-0.4057178,0.5204497,-2.331643,0.9117553,0.14290811,0.26677403,-0.1253692,-3.592157,0.6729207,-4.5420923,-1.0855033,0.3208095,0.08449101,3.27107,0.46379262,-2.407125,-2.647958,0.89143723,-5.2271776,1.6401407,-1.5385115,2.170657
-0.75142574,-1.7209412,-1.9606678,0.15055843,-0.46902832,0.8578899,-0.65800124,0.4814696,6.721273,-0.7516103,0.37057158,0.096274965,0.47225776,0.030358152,0.042292777,5.176446,-1.2835805,-0.8611953,1.5082983,0.44313115,-0.9648556,0.7554309,0.30024996,-0.08902703,0.8730802,1.3768431,-0.41058752,0.35726506,1.3074455,-2.8562124,1.0169791,1.2072214,-1.0359266,-0.03532177,-0.068898894,0.45764682,2.2148438,-0.8821436,-0.24964367,0.002148098,-0.3986012,1.5631107,-1.7386087,-0.4217607,0.43905103,-0.17828867,0.01180988,3.7428637,-0.055547714,-0.61662304,-0.0031673545,-0.4293521,-3.1188593,-1.4429171,-0.3716255,5.067331,-0.79323274,0.13349362,2.6559646,0.74802834,0.9711819
-0.18260825,0.4689404,0.45974687,-1.5187469,-3.6668904,0.2592381,-0.7029409,0.2991822,-1.2375433,-0.26092342,-1.8393044,-1.7971914,0.35403085,-0.36749426,-0.051958207,-0.5224829,0.22164081,0.14105152,-1.0109704,-4.6812954,-0.08080083,0.32941046,1.3115635,-0.5672501,-1.500514,1.9653283,0.1674241,0.004391203,-0.03858556,2.0931282,-3.641095,0.23173884,0.2076381,0.07429309,2.1292906,0.7064383,-1.2840343,-0.3713931,-0.61181664,-0.057710342,-2.0923512,0.25842527,0.70551044,-0.08729818,0.5169955,-0.05727758,0.10118825,-0.8763414,0.12747413,-0.111119755,0.16540879,-0.42330983,-1.4326063,0.020806694,-0.10565696,2.9619122,0.014495723,-0.07281059,-0.11119544,0.5104964,-0.35611102
-0.7268274,0.97715455,5.9123483,-0.42071766,7.23415,0.35637403,1.0604409,0.21454032,-8.666249,0.72683537,0.4243532,-0.52488196,0.3631871,-0.44196337,-0.27041918,6.5458026,-2.613714,-0.017731281,1.4926404,4.591868,-2.4711022,-1.9846288,0.454943,0.9738777,-3.364817,-1.1795428,-0.35986966,1.0515988,-1.8524219,-7.163483,1.0501575,0.58263355,-0.895874,0.7697879,1.051998,-0.34806374,0.78008485,0.12727049,0.61748755,-0.9619424,-5.864176,-2.0891201,0.12505685,-3.9659653,-0.14050125,0.87668496,-0.06929584,-6.5648026,0.5298786,-0.33934802,-0.46236682,-4.641108,1.8350499,-0.95590234,-1.2142476,6.331513,-4.2683306,0.61463684,0.29159054,-1.8827484,2.192388
-1.0066875,0.18083528,2.693035,0.5962905,2.4349499,-1.9751881,2.2952304,0.72537315,10.393188,-1.658515,0.41146424,0.64436686,-0.351639,0.32998186,0.16842408,-0.474685,-0.6146489,0.10779957,-0.45553213,0.002668037,-1.0921389,0.06888293,1.4072664,-0.7680615,0.6744916,1.8532274,0.17924733,0.6174202,0.9758691,-0.41904807,-0.71018434,-0.93993926,-1.9647534,0.8463316,-0.37698272,0.31380174,0.63555354,1.1096029,-0.066446446,-1.5298347,-0.049801875,0.54333794,0.99299896,0.27196577,0.048595518,1.9819342,-0.69897485,2.5858307,-5.0919924,0.7690102,0.07907917,-1.2501638,-6.5334053,-0.21939771,1.5204617,2.3134503,0.6016546,0.6476937,-5.66024,0.35393614,-0.048145566
0.16106558,0.9673168,-2.3132904,-0.38904056,2.5412154,0.115113966,1.8247519,-1.8061013,0.31775728,-1.530124,-0.8801356,-0.7608485,-0.8007124,0.08225309,0.104957335,3.4518235,2.3680215,-0.5272651,-4.8280587,1.6394842,-0.026933022,0.07387528,0.27018353,0.4332805,0.056253437,-0.7947389,-3.3361924,0.6373096,0.054844018,1.9617692,-1.6584514,-0.02200838,-0.5605971,-7.5144415,-0.6845313,0.5836733,-0.49044657,-0.39963147,-0.26197127,-0.21369317,0.45846084,-8.315959,0.95021844,-0.11313686,-3.6814053,-0.46187028,-0.5294172,-0.11269684,-0.0030043582,0.2554622,-0.1255972,0.037585855,0.5900256,-0.5398128,-5.1898823,7.2660003,1.3480065,0.7210987,0.19466636,0.24169837,-1.7631239
-0.91390634,-0.08808597,-0.25717628,-0.032893386,0.33487862,0.3312169,0.054833733,-0.05375898,-5.8469167,0.29529768,-0.06939944,0.061150253,0.12665473,-0.7194685,-0.23471712,0.4707116,-0.40232286,-0.673527,1.2188026,-0.20122373,-0.8546344,-0.485551,0.23697059,0.1892807,0.13793817,0.7714377,0.15258612,0.03690519,1.4663836,-0.840301,0.72655946,0.04502303,-1.6174197,0.19952075,-0.18322927,-0.25605848,0.47776514,-0.3350415,0.12884568,0.19208221,0.09578328,0.16242744,-0.38379943,0.3681587,-0.48083466,-0.041345257,0.23563801,0.64216775,0.06504881,-0.38198343,-0.4983249,0.30948257,0.4121426,-1.5438877,0.30104107,-2.388121,0.029008184,-0.13922049,0.0059296954,-0.22312386,-0.06213903
-0.013805218,0.21352725,0.1575811,0.3092796,0.21936566,0.018135643,-1.5115658,0.0011461017,1.0387341,0.19036381,0.23741814,-3.1843166,0.20467141,-0.9796333,-0.025048994,6.5658946,-2.4611056,0.8544225,-2.3881829,0.65117115,-0.34685218,1.1952195,0.0049585537,0.13403067,-3.5687795,4.913615,0.017604217,0.24188508,3.216759,15.901566,-1.5492764,0.13926074,0.078803815,0.032657806,-0.2530705,0.074696936,-1.7684332,0.5227843,-0.65559953,0.41280136,0.10603111,0.5144007,-0.114757776,0.20357847,0.03413725,0.05051637,-0.037898432,-0.14432634,-0.08867912,0.05058381,0.08329324,0.3180221,0.9179184,0.5994951,-0.060599167,1.9110271,0.037582584,-0.123195805,-0.4604763,-1.0037137,0.49494895
-0.3535692,5.0458655,-1.9271059,-0.9998129,-1.379918,-2.7128558,3.899244,-1.9128089,-1.6454215,2.0264742,-0.08285641,-0.110351406,-3.569902,-0.33569378,-2.6175833,-0.5486484,1.3513446,-0.7938359,4.1789265,0.6312122,-3.5216072,-2.7107828,0.043703377,-6.816184,-0.08533033,1.3768964,-0.4416782,0.62121797,-7.7245665,3.8930008,-2.5051842,-1.3234395,0.28369972,-0.5246646,0.20703979,-0.30768925,0.3882017,0.4525418,-1.1869179,-0.8843868,-0.49792752,-4.827215,-1.625742,0.026019085,1.1671985,1.8462777,-4.412628,-3.2282972,-1.0234137,-1.4682057,-0.028959528,-1.1623257,-2.2505329,-1.0556341,1.5659076,1.1662941,-7.512017,1.1694489,1.6118752,-1.5867019,-3.2336009
-2.0783777,-2.1210334,1.934983,-0.23832908,4.5769844,-0.7465399,-1.1745913,-0.6421769,-7.3149705,-0.716144,-0.056493346,-0.4536274,-0.20856024,-0.11924124,0.43705437,-5.3607216,-6.394696,-0.10148377,0.2643082,-0.09952075,1.1243432,0.20303747,0.74861634,1.2026517,0.32921758,-1.3590211,0.24835615,-0.074673146,0.82009226,-3.831118,-0.6421605,-1.653681,-0.37889004,1.2818675,-0.7808173,-4.711238,-2.4272032,-0.37191907,-0.64719856,0.28091645,0.8272567,-2.6335287,0.54997927,-0.49204946,-2.0676026,0.28411365,-3.2660732,-7.378435,0.1648393,1.2198187,-0.06023105,-0.34141177,0.7002215,-0.99366295,0.62451607,3.825597,0.7815616,-2.9817677,0.2574122,0.55976534,1.2589602
0.32338908,-0.183629,-0.5764153,0.1486665,1.6615682,0.35362363,1.0408716,0.99860865,-0.47463185,-0.021483403,0.10967628,-0.70739615,-0.23812093,-0.1788279,-0.061067037,0.71664864,2.1813884,0.7226767,0.23590986,-0.28906253,0.117962874,-0.13222745,-0.6116799,-0.5496878,0.32081342,-2.4055963,-0.6027346,-0.41697168,-0.3599264,1.9108181,0.34922117,0.020459644,-0.24137254,0.2533524,0.39522737,-0.4448012,-0.2610798,-0.48542625,-0.047141142,0.2697928,0.25654808,-0.4130067,-1.6372757,0.01586486,0.07758448,-0.2891599,0.60510635,-1.1126122,0.106953785,0.15260868,0.4375988,-0.33662125,2.1153002,-0.10067823,0.964246,3.8752458,-0.10281316,1.5890038,0.98223853,-0.008260523,0.43552297
0.22614464,0.6200183,-0.42508778,0.33570442,-0.5151211,0.5941079,1.3282107,0.6419414,12.890681,-5.635268,0.13323455,0.3691325,-1.6809334,0.08859125,0.047927,1.4575869,-0.38575205,-0.40481862,-2.442071,0.6472979,-0.22357033,-0.06372407,1.7020289,0.36125794,-0.79800427,-0.007760293,-0.23461911,0.33257076,-4.523163,-1.0962435,-2.3091404,-3.5749855,-0.6037042,2.209273,-0.0037403852,-2.8410223,1.7471786,0.14108343,-1.7989465,-0.9363937,-1.0343782,2.0473046,0.044540428,-2.7376168,-0.7844988,0.36162582,-2.3539555,-0.032406278,-5.2245364,0.49685308,-0.27853337,-2.3551342,1.47459,0.016472368,0.39311633,-0.3567405,0.9446572,-2.18795,1.4050009,0.73143584,-2.0900385
-0.043214355,0.007096003,0.18478781,0.036233194,-0.30346298,-0.0816748,-0.037768576,0.019368984,-0.04938229,-0.025383282,-0.11587185,-0.0034714406,0.06984392,0.048455745,0.02432891,0.042587798,-0.040782526,0.035329614,-0.025798075,0.04725624,-0.05189385,0.0016877559,-0.053140026,0.018258767,-0.048778657,0.07943738,-0.009104085,0.050251726,-0.003593084,-0.0235063,0.032257225,-0.022258483,0.030624792,0.0051283874,-0.07986498,-0.04829823,-0.017028393,0.0112358695,-0.7165663,-0.17751607,-0.045498587,0.033827372,0.16422787,-0.035374068,0.046892792,-0.036499377,0.007063218,0.0068772575,-0.063529804,-0.011521576,0.017340807,-0.062160827,0.026041364,0.037302062,-0.013115008,-0.1794052,-0.106628954,0.0051697306,-0.073642045,0.07872315,0.10305301
1.1139547,-2.472522,0.7299789,0.35406744,1.1689656,0.06539892,3.0331066,-0.36714408,-3.7024834,-0.9100788,0.35440135,-0.6639809,0.25914758,-0.2986444,-0.89984214,1.6167089,-2.59983,-0.117053755,0.35566992,-1.0156857,-0.37172645,0.38872927,-0.8453943,-0.80404633,0.5032312,1.3113822,-2.3055503,0.7408519,-0.6533656,-2.9072201,0.20108703,-0.30969596,0.0027314173,-0.24954943,-0.45054275,0.05611088,-0.17424394,0.45529145,-2.5709894,-1.7274947,1.0249016,-2.1736672,0.6247946,0.21294387,-0.588168,1.5603085,-0.5298724,0.9567963,0.016598932,-0.2875432,-0.04626471,-0.06835191,0.06550792,-0.485653,0.2466659,-0.65891796,-0.010500295,0.444037,-0.25306332,1.7371607,0.78101593
-0.05916565,-2.764046,-0.09173801,-2.305055,-1.4493626,1.2550277,-2.010727,-1.2440567,-0.002323308,0.6691102,-0.702186,-3.12313,-1.1369332,0.10968979,-0.09591703,1.7285208,1.1335524,-0.23362066,1.9319649,-2.6760375,1.2546304,0.002666552,-0.40859193,0.45984906,-4.867744,2.5350327,0.7222154,1.1036441,-2.813914,4.404752,-2.5427904,-0.092270456,-0.2632722,-0.40603608,2.2782328,0.28929007,-1.5161774,0.69773155,-1.9121727,-0.569331,-3.5475447,0.16898258,1.3540512,0.3472677,-0.7580101,0.13857637,0.2844062,0.5594049,0.12848604,-2.2257655,0.25577277,1.0693995,-2.4733677,-1.969118,-0.9296896,-1.500842,0.8041905,1.3280731,-1.8860302,1.2152194,1.0838712
-0.25851578,-1.3089477,1.8593796,-0.37045306,-2.4367535,-0.5711114,-0.19470754,0.28299302,0.41568354,-0.40571037,0.29035124,-3.4300246,-0.050411023,0.030884715,-0.062540695,1.4013189,-0.9389135,-0.5360177,4.0396247,-2.8580039,0.043535676,1.0111977,-0.08765886,-0.07880234,-1.4711871,2.3260586,1.12462,0.3554382,2.0309453,3.9607663,-0.09110871,-0.3596415,-0.5411751,0.12425066,-0.9730153,0.58617085,-1.5634587,0.28026867,-3.0635078,0.17972992,0.5852805,-0.1839854,1.1901248,-0.59739035,0.25588524,-0.34505385,0.17144354,0.33579513,0.15178964,-0.3125684,-0.447168,-0.084365256,0.09027356,0.312814,0.20534264,-3.0180163,0.09803667,0.17306608,-0.29105878,-0.693771,-1.091357
0.057472095,0.069270395,0.85129714,-0.48959222,-0.9985052,0.117181435,-0.05887973,0.082260974,0.17562008,-0.78669125,0.08204982,0.019025432,-0.09744706,-0.12041477,-0.06260008,-0.31084898,0.034189392,0.3331484,0.46622783,-0.9368523,0.0972393,0.37994158,0.1119032,-0.17309089,0.06988437,0.02590717,-0.38731727,-0.9148733,-2.5970683,0.0627275,-0.25133613,0.2675161,-0.35951,0.42647365,-0.038956176,0.44472545,-0.26935524,-0.5611666,-0.8564496,0.11573335,-0.4795788,-0.38367844,0.705362,0.02650723,0.07598767,0.29336974,0.2430805,0.18998958,0.13418274,-0.4977343,-0.4821068,-0.5623346,-0.18878837,0.50769365,0.05088413,-1.1117134,-0.25411367,0.20226666,0.40819025,0.35993442,-0.07330796
-0.7837219,0.009166949,7.980398,-1.930445,0.63756055,-0.14066373,-0.07750692,0.19424474,8.978222,2.7667756,-0.27159512,-1.9421217,-1.3065823,-0.567121,-0.3007826,6.852001,2.7459164,-0.42962238,4.1811595,-3.7171557,0.3664794,-5.7703185,0.08516262,2.3691754,-12.0385895,-1.440809,0.89585,0.81044614,-3.0646946,-1.500541,1.7673702,-1.3318409,0.033531904,-0.6759684,-2.5788422,-0.9433223,2.1764781,0.03266558,-0.50275624,-1.3511829,-0.50914794,-0.38094229,1.1425428,-1.0646476,0.6395768,0.23847373,0.15023951,-0.37135738,-0.83305496,-0.26040855,0.016376043,1.3394089,-5.440553,0.9855786,-0.13683723,-5.7078056,0.4428299,0.2893295,0.9935782,0.6253836,1.4897388
-0.045747843,0.027441533,0.0541315,-0.040841665,-0.023765432,-0.019044865,0.05527912,0.040836338,0.09670229,0.029138677,-0.2632377,0.03183486,0.01833797,-0.027133303,-0.02454163,-0.2140371,-0.064182326,-0.008946482,-0.08926167,0.0037622757,0.017051939,0.029410299,-0.075048044,-0.15582411,-0.027165076,-0.036265686,-0.03396651,0.050859556,0.01906529,-0.113616735,-0.02967437,0.023486223,0.026823746,-0.01283198,-0.11725797,-0.05827014,0.09389649,0.019558342,-0.56616396,-0.106646046,-0.07798685,-0.03694159,-0.0410336,-0.060784463,0.013797364,0.015161784,-0.01174757,0.05089088,-0.072006375,-0.10533946,0.021380078,0.03407904,-0.039734364,0.032833394,0.053607598,-0.25822884,0.14540504,0.08027738,0.018785741,-0.0071676592,-0.0022937614
-0.1832055,0.7140432,1.7823092,1.3221096,-0.9312769,-0.24173822,-2.2805955,-0.24734409,-1.753553,0.84056216,-0.23166952,-2.3795066,-0.10844672,-0.73836803,-0.13910028,0.48643997,1.4050503,0.6194741,-2.0914721,-3.0612092,-0.030023608,0.48328385,0.10067113,-0.28628013,-0.3811723,2.3300776,-0.84849423,0.07008003,-5.738652,0.2832071,0.23585312,-0.92511594,-0.9544723,-0.015000076,1.0264324,0.20520604,-4.4466267,-0.7468021,-8.925181,-0.012866399,-1.7564336,1.1713649,0.18552774,-0.08329158,0.28262502,-0.14537355,0.15254936,1.3433685,-0.48039746,0.54251647,-0.53341794,-1.2008471,3.2868032,-0.17859563,-0.09768541,-2.9252684,0.19419886,0.16309805,-5.555842,-0.24343565,0.31884795
0.828444,-3.2025795,4.4706335,0.63644326,2.8035293,-1.1384455,2.309061,-1.1018767,14.264887,0.6528906,0.060445197,0.019657465,-0.7178856,0.094323605,0.020191636,1.8577077,0.64257526,-0.12305367,0.9461587,0.43337962,0.7082711,2.1152723,-1.0588331,-5.660173,0.50041556,1.0068709,-0.95138776,0.6066917,1.146259,-0.9092456,-0.16188921,-2.2922297,-1.1838322,-1.4479805,-0.17141329,1.5629988,0.7573905,-0.3967236,-11.807575,0.5661706,-1.7659829,-3.8172812,1.1345104,-0.48294058,-2.376965,0.09834778,-0.06366635,-3.9565153,-4.4361076,-0.44742182,0.38743478,-0.89918035,3.4626782,1.4514284,1.5548583,3.0493433,-0.8246698,0.5206619,-0.35588145,0.30779496,0.10172199
-0.08041429,0.06465574,-0.049778126,-0.027467618,-0.3526716,0.029526178,-0.03700294,0.0063638766,1.563706,-0.012309211,-0.025060572,0.08027904,-0.01950912,-0.44344395,0.14923193,0.010089741,0.03832646,0.010686823,0.014464235,-0.15540579,0.20050749,0.034961965,0.0060858773,-0.0073395423,0.04148204,-0.5131636,-0.0011906838,0.31051755,-0.08614626,0.21305309,-0.23428352,-0.032617103,-0.40571925,-0.026134346,-0.003107698,-0.003240292,-0.16175699,0.4674884,-0.039234288,-0.015949039,0.01874743,0.053998318,0.10510421,0.052079443,0.030250419,0.011279704,-0.030110572,-0.14015968,-0.04201353,-0.04039637,0.41305307,0.078019686,-0.016707825,-0.58935577,-0.0019186083,-6.321362,0.004324165,0.0255777,-0.1069584,-0.023647737,0.006257386
0.4814554,0.6784057,4.8009133,0.18848453,-0.2226452,-1.7355577,0.45743364,-2.3064938,13.3492,-0.79398966,0.1419522,-0.84845936,-0.08660614,0.22314896,0.1290956,0.7534239,0.046422508,0.29441908,0.46298546,-0.42521837,-1.7633163,-0.83359474,0.2953474,0.92119193,0.3643067,-0.7597644,0.13763337,0.103406094,-0.9945707,1.8892403,-0.25445476,0.2460603,0.14402577,0.38510028,-0.75315225,0.31787893,0.4846768,0.15219663,-1.6356688,-1.6675298,-2.2539763,-2.6425781,-0.38084912,-0.70602167,0.5030216,0.38973752,-0.53233975,-0.9154893,-2.8839638,1.0216244,-0.08137672,0.2925662,-2.223081,-0.50034946,1.5362809,3.455089,-0.71245855,0.32452923,2.2620685,0.08947589,1.0648651
-0.58125985,1.4002382,-0.11529319,-1.0936782,1.3847697,-0.08553829,2.0736055,-3.0604792,2.2778583,1.0705665,-1.0460606,0.47825262,-0.17454064,0.41719547,0.27515778,-0.42692274,2.6718955,-1.6137482,6.151223,1.1908258,-0.3275304,-0.61505705,-0.097511314,1.3687522,1.4869666,-2.526363,0.98477846,-7.3909717,-8.056321,0.073283985,-3.279568,0.90736926,0.34982133,0.23777625,-4.0323896,0.6130851,-1.7752423,-0.6515807,-0.15904635,-0.22802904,-0.042910367,-0.9222724,0.8674056,0.55144876,-0.29710913,0.54275167,-0.17104013,-0.78617096,-0.40709183,0.76560974,-0.32406488,-4.1327496,-0.30750042,-2.1290407,-6.6611724,1.719241,0.72410303,0.029348161,0.74052554,0.11758814,-1.2913258
-0.08614159,-0.89972216,-1.6518309,0.16420533,0.6485578,0.015765766,0.88307476,-0.65301466,-2.8507037,0.69366246,-4.6326222,-3.765151,0.16539526,0.716261,0.12690514,8.272099,-0.6374373,0.24302298,1.4076478,-9.790743,0.87401474,1.2114573,0.21283533,0.41980588,-0.8628121,1.0090199,0.36699405,1.156313,2.8157847,2.5957613,0.55011326,-0.10774996,0.29707623,0.15507023,0.13766049,-0.33554488,-2.527569,-0.46453664,-5.356545,0.6176041,0.19117741,-0.6583234,-0.31886244,0.50160193,-0.29385063,0.11527979,-0.4729694,-0.14832586,-0.662425,0.16707224,-0.09662274,0.53117007,0.23295793,-0.91827,0.06269745,0.7811835,0.045271028,0.24429572,-1.0388912,-1.3063594,-0.3296517
-2.5194266,0.7143116,-2.192948,-0.47448397,1.8331205,-0.10589858,1.4973111,-0.08802105,5.3479905,-1.0937022,0.57386404,0.19540764,-0.18488719,0.02452377,-0.61675215,0.7765594,3.1917598,-0.04517516,-1.7404356,0.7980094,0.8073815,0.49939644,-2.9069834,-4.984235,0.30999509,1.2121633,0.4160379,-0.4663725,-3.4786856,0.5008327,-0.66045797,-1.1253339,-0.5065418,-0.6676692,0.2053843,1.5740356,-0.44416505,-1.255965,-0.88475406,-0.54217905,-0.6367923,-3.4363487,-0.32143798,-0.1765284,-1.8560513,-0.9269967,-0.36112434,-2.438798,0.2267216,0.043268606,-0.31833267,-2.0145195,-0.020843342,-0.44078282,-1.2084386,-0.50007313,2.331832,1.0997982,0.31578016,-1.8639214,-0.37094802
-4.5054708,-0.30424288,-1.9913309,-2.4910586,7.789047,-0.02284063,-0.09322828,-0.02755246,0.8260108,0.94500494,-0.5408076,-1.5754431,0.41688895,0.024792196,-0.30288044,2.5658045,-2.717915,0.064739764,1.3706965,-0.076156884,0.54480505,-0.08448063,-0.785115,0.9532903,0.17834575,-3.0770032,0.09025087,-1.5662404,-3.4250755,-6.1497173,-0.02957237,-2.1950893,-0.69827944,-0.7673029,1.6920979,-0.7211536,-5.0041866,-0.84878325,-0.44060215,-0.13042271,-3.696368,-2.3874836,1.208518,-0.98210084,-1.9018302,-0.09766298,-4.1131134,3.4578736,-0.01958079,2.2738395,-0.265671,0.53923213,1.83166,-2.5325913,-3.9327245,3.0105495,0.26653206,-11.319212,1.7492774,1.0103222,-1.195631
-0.02693726,0.0062399097,-0.13813862,-0.09622513,-0.30400085,-0.029326215,-0.014185559,0.0015719313,-0.18925415,-0.11041895,-0.110074446,-0.019290347,0.018930154,-0.002618103,-0.002634728,-0.111188665,-0.20752192,0.038699463,0.0023720944,0.0949132,0.059316147,-0.030894836,-0.0017380462,-0.058990937,-0.019143837,0.008250322,0.021517256,0.04969185,-0.036800075,0.0358199,-0.030643947,-0.005079383,0.023999779,0.03754455,0.016920796,-0.22660396,0.08114975,0.05129384,-0.7273889,-0.10193561,-0.06678854,0.16530491,-0.025646625,-0.12792216,0.005165837,0.02499865,-0.02505639,-0.0019541732,0.02412343,-0.038443882,0.028069124,0.012254743,-0.062166896,0.022432067,-0.043515313,-0.14268774,0.15135136,0.0856174,0.0881593,0.07230134,0.10544514
0.2539518,-0.12680884,-0.688697,0.8653699,-2.2249808,0.6467417,-1.393208,-0.19357419,-1.2557944,-0.28011844,0.17684835,-1.7598813,-0.39842436,0.20091972,-0.21588905,-4.4512563,-1.4592544,-0.21262968,2.165322,0.2757655,0.9259869,1.2942237,-0.28183848,0.22345479,-3.0396204,-5.8134127,0.8905344,0.1732133,-1.7219462,7.9572396,-10.316255,0.08856158,0.8112379,-0.21955186,1.3989192,-0.389948,2.4072793,-0.21903777,-0.098560184,-0.14985174,0.038942676,1.9701455,0.5105686,-1.6644742,-0.7919833,-0.2695264,-0.19102934,0.8721959,-0.090244964,0.039214954,-0.061931055,-2.583052,-0.70119494,-1.6788974,-0.28548706,1.8797818,0.2286143,0.9345677,-3.9835172,-0.9355502,0.67802435
-0.26212186,-0.338392,-0.503409,-0.8006093,-0.50820184,0.2026236,0.5115968,-0.09029229,-5.3190427,0.016426323,-0.4784621,0.37170827,-0.05618579,0.8936649,-0.24292825,2.3487651,0.27472264,-1.9065303,1.3925091,1.1766852,0.11696359,-0.34759173,-0.37848833,-1.4478009,0.38706186,0.49028146,-1.2450429,-2.5133126,1.1865684,1.4117973,-1.0211227,-0.420028,-0.19235887,-0.05172536,-0.0069536217,-0.048668858,1.5825456,-1.6533499,-0.47490343,-0.1696677,-0.12513375,-1.5881056,-0.7416088,-0.16468988,-0.34437823,-0.25730813,0.04652716,-0.75896794,0.15755391,0.23337568,-0.41433552,-0.031538706,-1.9579788,-0.55998695,-0.5162073,-6.014005,-0.025535937,0.6250676,1.3301185,1.1009464,0.015308094
