0,1,2,3,4,5,6,7,8,9,10,11,12,13,14,15,16,17,18,19,20,21,22,23,24,25,26,27,28,29,30,31,32,33,34,35,36,37,38,39,40,41,42,43,44,45,46,47,48,49,50,51,52,53,54,55,56
0.0085096,0.0017884127,-0.0371975,0.007051781,0.01619199,0.00043771407,-0.0018832888,-0.0026661644,-0.2309604,0.0021743171,0.004878924,0.08792384,-0.0042035524,0.065019116,-0.010762434,-0.016386723,-0.11645553,0.00066479354,-0.082540624,-0.10188678,-0.0028856946,0.07156982,-0.005972781,0.35178375,-0.148483,-0.01886355,-0.00049348903,0.005351698,0.014788607,-0.0015937764,-0.012444513,0.0014055092,-0.005693587,-0.10640584,0.11750518,-0.0062598186,-0.004271973,0.0044421316,0.014147465,0.006037996,0.024063585,0.006236075,0.006392341,0.15107279,-0.0010907745,0.0046408507,0.032204047,-0.013871025,-0.30246443,0.007895732,0.0036564276,0.15998505,-0.00044766988,0.005400134,-0.002720674,-0.005635586,0.11196686
-0.011902273,-0.07489705,0.13942066,0.16640007,0.16371717,-0.081788406,0.1598756,-0.00503059,0.11598478,-0.014240032,0.11014287,-0.022543622,-0.12730801,0.7771591,-0.12633422,-0.113665104,0.03095207,-0.15975921,0.083823934,0.01233799,-0.3365109,-0.022559026,0.1405229,-0.034654874,0.006913616,0.16511513,0.69438064,-0.09948864,0.1501974,0.08724884,-0.13367265,-0.092735626,0.15643719,-0.018462902,0.05154637,0.19314805,-0.13881627,0.12044846,-0.20775118,-0.010765277,-0.08955991,-0.12329951,-0.15136525,0.01363012,0.094864994,-0.004567555,-0.14301108,0.09607984,0.020137731,-0.122248024,-0.055406447,-0.018981842,-0.11429562,0.09847331,-0.006334736,0.10361067,-0.0407053
