0,1,2,3,4,5,6,7,8,9,10,11,12,13
-0.14332601,-0.29766566,-0.96456134,-1.0934433,2.725707,-4.373229,2.8150501,1.30755,-2.3869288,1.0893228,0.48973063,-0.6899374,0.06536009,0.005651386
0.46747094,1.2098787,-0.10019496,0.23084167,-0.07391933,-0.20162335,0.1734052,-0.03353469,0.4506753,0.17926663,-0.41469747,-0.08387618,0.3431226,-0.038945246
0.008676838,0.42245188,0.4595665,-2.8872082,-2.0545561,-0.7452361,-0.98048836,1.4089355,-1.0339206,-0.48761678,-1.8290192,1.4677702,0.001803709,0.040132955
0.767424,-1.5513748,-0.5407627,0.12268783,-0.2082613,1.1382178,-0.9843562,0.1392313,0.82220817,-0.018324768,0.49930218,-1.0456272,0.13298756,0.042782836
-0.14875394,-1.3643043,-2.3251274,-4.244331,1.8587929,2.8565283,-2.4445517,-1.3364768,0.22976688,1.4427308,-0.4539513,-0.32440513,0.1258475,-0.00948339
-0.38624343,-2.0936646,-5.616126,0.54506016,-2.960755,2.6466622,-0.94830465,0.68661433,-0.52851975,-0.98301345,0.23290011,0.35876337,0.4902447,-0.006249011
-3.0392091,0.0944805,-0.012953123,0.3036295,-0.07191344,-0.35487053,0.24630813,-0.05370271,-0.030319495,0.08791805,-0.12946284,0.08806048,-0.006140663,0.0006398755
-5.791712,5.489271,-0.054107968,-0.01890337,0.1602116,-0.17664114,0.07575668,-0.003497064,0.1073772,0.14249223,-0.027848428,-0.18999624,-0.011185951,-0.00031725984
-0.023829717,0.6386729,-8.25209,0.18690594,-0.21907486,-0.087723985,0.40797284,0.20052113,-0.0914107,-0.15282023,0.859391,-0.637192,0.011193624,-0.015151838
0.19113201,-0.08630124,0.007450993,0.076463215,-0.133153,0.057112694,0.04925177,-0.19715214,-0.17994976,0.29792732,-0.054905467,0.14273289,0.038285658,-3.9418628
-0.104363896,-4.6822906,-2.8852658,-1.3709564,1.5343897,0.03185194,-0.21537593,0.8959208,-0.61748457,0.15373515,0.07152414,-0.22994152,1.7046965,0.017039536
-0.5629705,-1.1821097,-3.2141824,-2.236436,1.5716882,0.18549308,0.8804821,-0.93644744,0.020824313,1.2547984,0.5296763,-0.73263204,-1.4145265,0.013928506
1.9401487,-0.37416455,0.8623817,-0.31869787,0.32522634,0.715431,0.76748556,0.5107913,1.317713,0.00019782095,1.2670339,-0.9058177,-0.072739914,0.0033719537
-1.8627673,1.8793832,-0.6940164,-1.0681701,-2.0676706,-0.057925515,2.0637019,-1.1226528,0.23483251,1.4739739,-0.35524848,-0.603195,-0.011839767,0.004067549
-0.095677234,-1.6076665,1.2185133,0.38903156,0.6371092,-0.055802163,0.70765126,1.3476573,-1.4601821,-0.6766483,-0.20899232,1.1109759,0.008469258,0.0047247834
0.1405869,0.056492742,-0.24401669,0.009694421,0.013211308,0.23244984,-0.31186527,0.2182797,0.49957642,0.34622744,-0.38185546,-0.87129587,-6.6093564,-0.01839011
0.24948806,-0.3391542,-4.638074,-0.062357865,0.54571426,-0.7651477,0.01448299,-0.6168308,0.2686341,1.6275725,-2.0564377,0.5812584,-0.2410991,-0.0144738555
0.122087814,0.38447943,0.41048637,-0.1711964,0.22206046,-1.0464127,0.5102827,1.362115,-0.33037508,-0.46709135,-0.2994287,-0.45670706,0.18598273,0.06655838
2.6936724,0.61817926,-0.25628042,-0.41645104,0.1008637,0.13656001,0.033656165,-0.16524068,0.0567576,-0.1707215,0.1897744,0.046862613,0.011633503,-0.0054101394
0.13174216,-0.8972417,0.11171681,0.050922852,0.029550033,-0.29944983,-1.8879278,-0.7841262,-1.6851112,1.4061626,0.9055003,-0.16428064,0.24017768,-0.009655197
-0.021978911,0.26830155,-0.2058277,1.5199429,-1.2835689,0.58266354,-1.5676032,-3.1800091,-1.5773858,0.47898743,0.73948836,0.4274529,-0.037449803,0.00204698
0.21950845,-0.053900357,0.12623231,0.009440875,0.019462408,-0.044622794,0.06489622,0.16024327,0.13205871,0.27643552,-0.37591067,-0.17041183,-8.008824,-0.0026839138
-0.6922162,0.9778722,-3.2634134,1.2860985,-0.8255906,2.2253191,-2.7100985,0.6559169,-1.1218085,-2.0939958,1.4617594,1.1704614,-0.0039552124,0.016947787
0.11796118,-0.2619369,-1.2880253,-0.22643791,-0.37083712,-0.13040738,0.2207623,1.3562777,-0.95427394,-0.23608464,0.0503444,-0.32486504,-4.404082,0.085103795
0.02803781,0.07064813,-3.4099634,1.0151575,-0.25858638,-3.5193942,-0.7628505,-0.30256602,-0.63114846,-0.9021909,0.8994047,0.47948536,0.044996485,-0.04149959
-0.0065616895,-0.049605295,0.045231737,-0.0066491426,0.035103388,-0.09904187,0.13336201,-0.41450682,0.9909349,0.4703483,-1.535589,0.52497965,-1.3293941,-0.038536776
-0.37657645,0.27458152,-0.01783533,-0.15833172,0.32381797,-0.19888955,-0.036876053,0.7768477,0.13186735,0.2007116,-0.17897883,-1.0634828,0.00036767824,0.59051377
0.14586352,-0.32256374,-8.243746,0.38942704,0.35465163,-0.23217554,0.56596726,-1.2165705,1.6537565,-1.2900724,0.7034926,0.18118522,0.074312314,-0.0074596438
-0.08969407,-0.05681287,-0.91756964,-2.459013,-0.29232788,3.7825756,-1.2711982,0.4053444,1.454465,-0.3108132,-1.0962788,-0.47928053,0.016142314,-0.005610218
0.15825906,-0.11833394,-0.87226045,-0.0538218,-1.6561854,0.61894345,0.50213766,-0.06860622,-0.2442135,0.10416921,-0.1491197,0.45653015,0.22231585,-1.738462
-0.31630164,-2.0366416,-1.9022353,2.3083494,-0.23634489,-2.0328023,0.28530186,3.0897706,-0.49820873,-0.115813434,-2.310227,-0.5336723,-0.009067597,0.008376555
0.19149531,-0.19743015,-0.081611924,0.10952275,0.09600861,-0.18632369,0.15367037,-0.28726777,-0.50463164,0.22401811,0.64095366,-0.07365019,-6.953277,-0.042821493
-0.3058488,0.1505245,-0.003432471,0.081001274,-0.047249563,0.050122783,0.050401237,-0.13106817,0.25743887,-0.41747794,0.18577388,0.10329243,-6.621299,-0.15026623
-1.2789164,2.0142934,0.048376612,1.0237709,-0.20903291,0.6254464,-0.61222553,1.5256839,0.32709903,-1.1269534,-0.73493,-0.4661166,0.018151741,-0.0114662
-0.08364657,-0.18020208,-2.2169096,-2.0041816,-1.7558575,-1.8315425,4.593727,1.0763417,-0.090802036,0.67041343,-0.09576362,-2.476514,0.07475969,0.038483202
-2.2029777,-4.625214,-0.07123397,0.3441614,-0.4195651,-0.28465492,0.44144496,1.0793377,0.5127721,-1.0709516,-1.0569303,0.5462858,0.8074782,0.006795438
-5.4118967,5.1300135,-0.008110555,-0.021932116,-0.85219425,1.1188426,-0.5229572,-0.14333855,0.2630717,0.03850219,0.5080305,-0.85811454,-0.06919903,0.00916533
-0.069953084,-0.029005578,0.22988251,-0.012063596,-0.14462392,0.102057934,0.4191432,-0.011452165,0.027037872,-0.1518583,0.14458448,-0.07694872,-6.8548856,0.08644589
0.22921032,0.009185281,-0.59268415,0.264353,0.0596651,-0.9975962,0.3483432,-1.2252821,1.1294557,-1.9608189,0.32876298,0.4656918,-3.5455892,-0.009126392
-3.6825705,0.786257,-0.24527365,-0.1827719,0.88518435,-0.55516917,0.14303431,-0.9665045,-0.12966993,-0.50434124,1.6478891,-0.140287,0.019995788,-0.018397605
-1.6799111,0.9317359,-0.42037728,-0.15350106,0.12194014,0.18353707,-0.18104813,1.669501,-0.8250017,-0.87579584,0.08347925,-0.42785892,-4.1664248,-0.030363172
0.14102751,-4.744785,0.033165913,1.5742065,-0.11027926,1.503268,-1.0152482,-0.7086663,0.2641933,0.130188,0.70493686,-0.03246187,0.056020126,0.0162661
0.08102031,-0.5778068,0.36311388,0.33458826,-0.019269045,0.13314807,-0.55572885,-1.2822106,0.72770983,1.2219901,-0.9153028,-0.10285917,-5.902753,0.007762839
0.39219075,-3.6206112,1.566518,0.88808465,-1.3285086,-2.5997193,3.691192,0.1506577,0.31601724,-0.09145633,0.31431386,-0.48465052,0.34695193,0.05018054
-0.17571613,0.010047881,-0.31012562,1.6118335,-3.4357553,2.4723475,-0.11564678,-0.6088636,-0.33678097,1.6095705,-0.16551922,-0.3038184,0.089171074,0.018839935
4.2914615,-0.055956095,-0.04469541,0.07770468,0.10722309,-0.08974445,0.0058195987,-0.13794266,0.025713477,0.38048893,-0.7828163,0.43390238,-0.018268371,-0.026169563
0.14321542,-4.8557477,0.16894954,0.04964202,0.10442288,-0.17107624,0.117874034,0.4941472,-0.27143744,0.24561492,-0.20077789,-0.20255537,0.1041087,-0.0073579
0.21074277,-4.586188,-0.120172985,0.24891837,-0.110803805,-0.07060843,-0.19017097,0.5719321,0.36688197,-0.9310413,-0.22508286,0.16638395,0.5309123,-0.049951855
-0.404441,1.2947232,0.05846264,-0.305942,0.09530082,0.2000239,0.09251735,-0.41078863,0.11221714,0.3431568,-0.37441972,-0.005223378,-0.5468701,0.0142443115
-1.2890402,0.33772936,-0.43666968,-1.4732846,-1.4504822,1.6553808,0.77093697,2.8330278,-0.5739688,-0.7451594,-1.417916,-0.25222877,-0.037440684,0.006676374
0.10282658,0.19352432,-0.23430921,-2.2210197,0.9405285,0.17697299,-0.22665907,2.4682744,-1.5344683,-2.7146335,-1.0115278,2.365336,-2.1279209,0.021101981
-0.54699653,0.93029076,-0.43607497,-0.5954343,0.29687858,0.5332421,-0.14896834,0.25004312,-0.5800107,0.28221086,-0.2662008,0.048393343,0.39098957,0.019310778
-0.16918597,0.39891058,-0.062458996,-0.078706495,-0.086838074,0.24926925,-0.2987173,0.52345574,0.06667367,-0.14221838,-0.2222361,-0.109915465,-7.0721226,-0.025439057
-3.0631657,1.9637951,0.028968288,-1.4580016,0.42754975,0.66597676,1.8234638,-2.5246046,0.21055539,0.8740039,2.0349507,-0.29395902,0.040672928,0.054638192
-0.2928058,-0.86614645,-0.084343016,0.24792483,0.060966466,-0.076037206,-0.042138446,-0.2515919,-0.013287502,-0.5295382,1.8732535,-1.144803,0.46396276,-0.39315492
-0.01503487,-0.051300593,-0.031193009,0.33509997,-0.50335395,0.12987207,-0.043035343,1.7572938,2.2644825,0.8874358,-0.97963023,-3.8829226,-0.061249547,0.0015457784
0.50427353,-1.9396914,0.7044862,-0.02121455,0.29853228,-0.07741572,0.40073055,0.02659644,0.6464469,-1.4710644,-0.8407377,0.37778452,0.17820472,0.051003803
-1.2322547,0.510014,0.34543157,-0.5500037,-0.43103045,2.253279,-1.4624428,-2.6635191,2.1642168,0.029526193,2.3696718,-1.9020293,0.04115747,0.023440238
-1.8451236,0.50571245,-0.1791239,-0.010679514,-0.37569705,0.6069766,-0.2748982,1.5580351,-0.41102383,-0.91653734,-0.26049837,-0.017068988,0.2560304,-3.756331
0.2670978,-1.2250218,0.3285072,-0.9219534,-0.23417737,-0.52573234,1.4840909,0.5331122,0.65814614,-0.28219858,-0.54720503,-0.36282885,0.49344915,-1.7549611
-0.2813813,0.43559557,-0.19089553,-0.0066956915,-0.019926157,0.06546339,-0.05702971,-0.059411753,0.054402336,-0.20291369,0.1484379,0.04184818,-7.9973083,0.031928312
-1.7463875,0.5921169,-0.19186848,-0.5481853,-2.3967562,-1.713204,1.3956032,1.2733055,0.47482163,0.12840393,-0.13169777,-1.8464488,-0.057932477,-0.0022443547
-0.03022375,0.121509105,0.060595516,-0.8995983,1.4715328,-0.17518167,-0.72045743,1.2956172,-1.1037668,-0.15494159,-1.9194984,-0.87595785,0.041623957,0.031869352
-1.7877388,2.3724492,0.014599798,0.63489825,-0.27336028,-0.53699726,0.32156947,-0.19791396,-0.03579787,0.8075958,0.512014,-0.85837126,0.056655105,0.04862435
