0,1,2,3,4,5,6,7,8,9,10,11,12,13,14,15,16,17,18,19,20,21,22,23,24,25,26,27,28,29,30,31,32,33,34,35,36,37,38,39,40,41,42,43,44,45,46,47,48,49,50,51,52,53,54,55,56,57,58,59,60,61,62,63
-0.30213386,0.44090882,0.37920144,-0.49104726,-0.432165,0.3994457,-11.98867,-0.7007066,-0.6680949,0.064655475,-0.5277117,-1.1604811,-0.21931688,0.6836282,0.36863893,1.580507,-0.8852223,-0.6542826,-2.0944538,0.6323668,0.09699622,0.52999544,-0.44254747,-0.11493553,-1.2797726,-0.87313545,0.16513976,1.4688071,-0.1618143,-0.17107145,0.5565391,1.1407984,-1.1114,-1.649976,0.25833356,6.5646334,-2.228665,-0.0801456,-0.27318436,11.105578,-0.68283427,-0.14489941,-0.59764004,0.02122189,-0.040814593,-0.5881348,0.5160721,0.5466808,-0.21977746,-1.2042506,0.07711793,-0.2917773,0.7949768,0.49994117,0.37437794,-0.63903135,-0.11522907,-1.2624205,0.4865454,-0.28048173,-0.87045515,3.1080616,-0.024559533,-0.5015029
0.35586572,-2.391888,-0.5476807,-0.87918544,0.34807348,0.15391545,3.1153414,1.1466721,0.11719015,-0.16941428,0.488476,0.85426354,1.5937375,-0.27429387,-0.40908757,0.09305617,-1.4108257,1.793874,6.883273,-0.17017055,0.16453743,-0.00864478,-0.35810453,-0.07683148,0.62733364,4.767274,0.37168202,-1.5929244,0.24826159,0.24513881,-0.65939564,-0.14433521,0.49338713,0.055302758,-0.101752445,0.8948683,-0.2557804,-1.0988576,0.020513248,1.8335823,0.32296315,1.2329605,0.28871286,-2.0945725,0.59268516,2.310819,0.12650158,-2.1263058,-1.5856905,0.5134188,0.05402113,-0.65957487,-1.5510626,0.29561782,0.11726624,3.306755,-0.048360843,0.36724567,0.62076414,-0.5655707,0.35264102,1.2553334,0.05682443,-1.0569773
-0.6876878,-0.84739,-2.680813,-1.1411397,0.08580897,0.33815354,-0.22419935,0.7080472,1.4692073,-0.21513692,0.9852196,0.8126621,-2.5144632,-0.76352435,-2.3039079,1.4023124,1.2229959,-0.5843152,7.0518193,-2.2921653,-0.013079977,-0.08246727,0.47584972,0.44209793,3.552631,2.8459466,-0.33781508,1.0043386,0.36516264,0.34956017,-2.0118845,-0.36571407,-1.4330027,-1.8535262,-0.96857154,0.22278306,-1.2988396,-1.0593675,0.59199363,0.3743095,0.05936827,-4.1719856,-0.54289407,0.71138424,1.2306796,-7.5532837,-0.5897317,0.6651706,0.6794508,2.4280536,0.3933038,0.5217498,1.0446911,-0.9590735,0.076492414,2.9453378,1.3636448,0.08336127,0.32815534,-0.2520654,0.7769164,0.28890318,-1.1930063,-0.4864632
0.4103307,0.010993541,-0.29651082,0.6861587,-1.6246399,0.4966662,0.9524959,-0.4008741,-2.3146842,0.05204336,-0.42828393,-1.301535,-0.956976,-1.024678,-0.24616343,0.85613453,-1.935574,-1.6273056,1.4757066,-1.6795837,0.4710436,3.0416286,0.2288514,0.48372713,3.039637,1.385872,0.37349862,0.3928852,-0.38389382,-0.6897071,-0.24833891,1.2953428,-0.169506,-3.381691,-0.31146547,-0.3313046,1.590325,0.05610144,1.4949241,-2.1225822,-2.2251027,-0.49945283,0.24108209,0.47356325,0.47357327,-0.2823744,-0.5457629,-0.8347365,0.66679204,-1.2184578,-0.2545649,0.907623,-2.4325066,0.99118793,0.7895721,0.5891633,0.093043365,-0.7562839,-0.3533106,0.070521116,1.0533556,0.72659475,-0.02653417,-1.2631135
0.8860496,-1.0037031,-0.15226981,0.7059635,1.1596278,-0.6182988,-0.4472283,-2.9352357,1.372052,-0.013373697,0.22540864,0.6859853,-0.15737462,0.6601078,-2.7731056,1.0954856,0.14830409,0.16577694,0.5864703,-1.4501873,-0.869466,2.7072754,-2.2420554,-0.47166762,-1.3846841,2.5877435,0.3691503,1.7927979,-0.13750756,0.074600324,-0.8410005,-1.089908,0.32571167,2.975692,-0.16416435,0.35371974,0.4616944,-0.25313285,-0.793295,-1.4763784,-0.28870237,-1.1326703,0.1948428,0.17354357,-1.272451,-0.7952677,0.0021229372,0.6014799,-0.3945252,1.4893332,-0.7372821,-2.0478907,1.8635701,4.0875955,0.2338191,1.6664611,0.6655704,1.0280869,0.1283811,0.16955675,1.3962564,0.5503033,-0.9163013,0.13475971
-1.0811082,0.61120135,-2.5699215,0.30097666,-3.8055587,0.24497452,0.7825818,0.29000774,-1.4607863,-0.07911608,-2.5798252,1.641174,-0.4078034,-1.1863294,-0.8835956,0.09662645,-0.2890527,-0.26031202,0.4008312,-0.5249563,-5.9942546,0.317106,1.4855063,1.2114693,2.9016247,0.9981748,0.44485295,-0.872276,0.051449798,-0.093228936,2.323461,-0.51214397,1.0735277,0.8539626,-0.4846412,0.5930068,-0.6975886,-0.14904667,-1.2714758,-3.3087955,-0.19306545,-0.68833226,0.802121,0.8992598,0.061304376,0.05791866,1.3041445,-1.5006195,0.5885934,-1.8060977,-4.022164,0.58838594,-2.001161,-1.8069216,0.22139414,2.0484,0.08431687,-2.3156567,-0.31427547,-0.022180399,-0.79714996,2.540062,2.7482576,0.09798646
0.61638945,-0.7861978,-0.24161969,-2.9545069,-1.3150879,0.79524136,1.387922,-0.8421496,0.61129475,0.17681433,2.0238144,0.03153934,0.66668123,-1.0598505,0.2162944,1.4324623,0.4668868,0.6289981,-0.46423844,-3.2887518,-0.9704396,1.0806495,0.9954023,-0.6111456,-0.9699037,2.3594794,-0.32157296,-0.68307805,-1.2052752,-0.22159246,0.44939688,-0.69723076,-1.4021693,-1.7211648,0.49470368,-4.7937503,-1.1863511,-1.0430425,-0.54850143,1.0816592,-1.0120829,-0.67143625,-0.88752323,1.6904514,0.20588566,-0.3143818,-2.130218,0.7476155,0.8504808,0.17038697,0.5581064,-0.7454845,1.9804823,0.27288756,-0.47836685,0.39819232,0.16039604,-0.14756484,-0.09725629,-0.10091329,0.603808,0.8043183,0.004200491,-0.8333512
-0.19946599,-0.2466615,1.581074,0.45689544,0.980139,0.84095025,-0.105421536,0.40511233,-2.1843936,0.102422595,2.0205224,1.752925,-0.110036984,0.30478397,0.014356594,-0.47544342,0.06279336,-0.24882777,-0.03882901,0.4962712,1.7683474,0.9611395,-1.1018454,0.18633327,0.3863112,0.12702726,-0.058115788,0.44555262,-1.1601722,0.20186584,-0.40267175,-0.29921103,-0.013161529,0.0036775148,-1.2282723,-0.98073155,-0.6244193,-1.3806871,-0.3610652,0.68502504,-0.3315946,-0.21816121,-1.2163188,0.104695186,-0.8719216,0.0037271173,-1.0215052,0.2366693,-0.24514173,-0.072722025,-0.21363333,-0.20403554,1.1859025,-0.64506495,-0.07399123,-0.014484517,0.23490435,0.6482105,0.3160724,-0.54883236,0.8352774,0.60863405,-0.24932161,0.41471583
-0.36242503,-1.3349653,0.06572865,-1.1080921,0.12721145,-0.3008983,-0.118881024,0.43716472,0.34280536,0.108211696,0.64048636,0.23784095,-0.8502058,0.34427917,0.77186227,2.017655,-0.41299397,0.44794548,3.6007812,-0.2704022,-0.057619285,-1.0990754,-0.0941591,-1.1945666,0.0044555035,2.598671,-0.08257052,-0.66534734,-0.8153737,0.46859416,0.1307455,-0.7720314,0.06125887,0.009787772,0.061179623,-4.4905014,-0.5882071,0.6626563,0.40340874,-1.0252936,-0.18062449,-0.6331597,0.009706169,0.6724181,-0.39385557,-0.8753172,-1.7942548,4.212284,0.14695795,-0.043371826,-0.04616985,0.61619955,0.022745755,0.2385647,0.47808903,-1.5814849,-0.69357187,-0.18267147,0.024470571,-0.09663033,-0.2752108,0.28644875,0.2585683,0.24186164
-0.13699546,-1.0545819,-0.41686592,-2.699966,-0.38236195,1.5006185,-0.7067325,0.8448069,-0.26676196,0.059188034,-0.7449919,-0.34522745,-2.2619116,0.48508966,1.0611789,-0.1332396,-1.4976951,0.22586617,6.5213513,0.37532616,0.004594061,-0.32354534,0.3461414,1.1851532,1.0232869,1.84181,-0.21213631,-0.14913692,-1.037951,0.36224702,0.10710949,0.22515643,-0.40137613,-0.30270568,-0.21691345,-0.4787144,-1.045276,-0.8842541,0.33924434,-0.11537148,0.35007674,0.19527747,0.1971759,-0.18626909,-0.39641953,-7.8243175,0.43299603,0.62562394,-0.15214923,-0.4824571,0.5504105,0.33493656,-0.568982,-0.9460965,-0.067958884,-0.62312216,0.34356835,0.033463053,0.09419751,-0.5227879,0.5053987,-1.8829159,-0.9927887,0.053033702
-0.061609317,-0.122568145,0.26211426,0.07479825,0.5883263,1.7728938,-0.46069178,1.105294,0.17461453,0.6020852,-0.1983224,-0.019008571,-0.20514382,-0.12652647,-0.32687145,-0.4933926,-1.9432057,-1.8062612,-1.5744319,-0.5956469,-0.54816324,0.429734,0.38626942,1.1022462,0.36481768,2.0953567,0.1251846,0.31144175,0.37651283,0.357269,0.6011921,-1.6145197,-1.7188271,2.2983046,-0.25401276,1.2283138,-1.0668737,1.2032906,1.0126307,-1.9296076,-0.022330496,1.5812173,-0.6603665,-0.47566026,-1.3420905,0.34170267,0.6465908,-2.2892337,0.089744836,-0.680035,-1.0345374,0.5748756,0.23047648,-2.7253819,-0.14256993,2.924611,-1.2543192,-0.278693,0.9670566,0.034419384,-0.7615509,-0.3032681,0.66015774,-1.4800389
0.14684561,-0.9159826,-0.40088642,-0.26626566,0.76774484,-0.57902837,-0.18428603,-0.38661116,-0.046718642,0.09935483,0.103208035,0.057490025,-0.41700435,-0.17964244,0.23307255,0.90943533,-0.29607588,-0.86147934,0.3161887,0.20579252,0.023655895,5.232638,0.3025025,0.3278868,-0.30312875,2.0190969,-0.21548039,-0.38455015,0.088637106,0.05843233,0.14040978,2.4624803,0.41395786,0.104949616,-0.35401508,-2.1447527,-2.5854247,0.43712673,-0.24245773,-0.10066506,0.022993717,-0.064059325,-0.23471308,0.11633597,-0.15403645,-0.7975821,-0.35817784,-0.22336192,-0.14713705,0.32893538,0.0817083,-0.40728477,0.67807287,-0.26977542,-0.07505535,0.32438082,0.18076374,0.18132415,-0.085456565,0.056819897,4.951123,-0.41400582,-0.80050844,0.093190104
1.1105685,-0.09931764,-4.156641,-1.7474123,2.4545207,-0.22810818,0.37847945,0.1526173,-2.1817627,0.0683314,0.06616017,0.13346078,-2.8504243,-0.052919712,-1.1914629,0.60259384,0.19325438,1.5706604,0.80920446,1.1151297,2.5297935,-0.9939777,0.9015178,0.2896982,-0.34557968,1.9179114,0.01442657,-0.91214395,-0.7122633,0.070126146,0.4989352,0.024789141,-0.15327178,-0.9668948,-1.1378394,0.9475504,0.846282,0.40212607,-0.3997362,-0.6329816,0.26174912,-0.60457474,0.93260354,-0.4738289,-3.2100987,-0.02610193,0.18872528,-0.030853609,0.3227743,-0.6194481,0.014087892,0.3615687,-1.4050492,-0.2482808,0.038008496,-2.2675626,-0.3875681,0.39255995,0.26947033,-0.9434401,0.34284934,0.9510612,1.3938649,-1.2534648
0.16095246,-0.05914111,0.2378096,-0.19254172,-0.19537026,-0.11208672,-0.10830863,0.024333928,0.0170454,1.5703493,0.23427501,-0.15512015,-0.013472394,-0.0062590702,0.23078069,0.024553118,-1.2142816,-0.5826907,-0.08105964,0.62062246,-0.22008511,0.0993614,-0.03893212,-0.54899555,-0.5664233,-0.72447544,-1.1857934,-0.17044625,0.06937009,-0.11453084,0.18185157,-0.64925843,-1.1138939,-0.10643711,0.19838376,0.6446744,0.1898355,0.008444913,-0.25667214,-0.346813,0.5871909,0.12393262,0.12811632,0.110513985,0.060992904,0.04249241,-0.63024133,-0.28229952,0.24805199,-0.23275495,-0.022790216,-0.35600162,0.9492409,0.038983516,-0.83567804,0.5466486,0.032854088,-0.16238046,0.0025055916,-0.23939914,-0.26587602,0.00802703,0.10391066,-0.41673073
0.20914894,1.0190392,0.47678706,-0.5330948,0.8255613,-0.3942954,1.0187371,-1.0601051,0.21024643,0.30610955,0.87411904,-1.4086103,-0.0024758887,-0.5597841,0.35760236,-0.6818283,-0.90376014,-1.205851,-1.7878166,-0.8670257,-0.9593177,-0.2999629,0.44730645,-0.39308646,-0.13121212,1.4487442,-0.65805626,0.5021205,-0.045646716,-0.029864894,0.87891984,0.26819277,-1.8054788,-1.1183424,-0.3496472,5.673089,1.1378924,1.7428802,0.19434913,1.0506847,0.60545677,-0.2088871,-0.5081078,-0.4708047,-0.5093078,-0.1791493,-22.930876,7.505043,0.08819652,1.45847,0.34618032,-1.131165,2.5075653,-0.21325985,0.19540252,0.9937936,-0.18230695,0.14025602,1.1529083,-0.10314402,-0.2981709,-0.5937529,0.8322015,0.6647295
0.07597282,-0.30546305,-0.5653398,0.2759885,0.20289743,-0.8306501,-2.8765218,-0.027940448,0.21913336,0.24080801,0.17761523,0.2530525,-0.5538984,0.10024647,0.030265639,1.435121,-0.58182085,0.113686875,0.03841948,-0.3231555,-0.19816361,4.0804863,-0.10954284,1.0929255,1.4280028,3.7548335,-0.38405594,-0.33530453,0.06958195,0.05140171,0.20337774,2.3285797,1.2969555,-0.29071462,-0.20572105,0.96940464,0.25280732,1.3361992,-0.4267153,1.1784573,-0.025680078,-0.20557398,-0.18063486,0.160725,0.08472678,0.013630181,0.44560698,-0.607745,-0.8107448,-0.41094977,-0.2675453,0.32141605,1.6258112,0.17010744,0.7231739,1.6487778,0.13168366,-0.7931288,1.6808164,0.14137767,4.761216,-0.5351151,0.37046087,-0.5305225
0.74587125,-0.7238443,0.19943208,0.77425534,0.88563406,0.33253717,-11.193576,-3.16714,-0.34527397,0.08736378,0.8274792,-0.7932413,0.3396948,3.2809515,0.11343315,0.461655,0.49809393,0.19782978,-5.090626,0.5019053,0.82429856,1.3743743,-0.70637184,0.4395612,0.5900979,1.3854942,-0.26944056,0.54649305,0.57772195,0.14319775,-0.37754008,0.15077695,0.3939657,0.56287825,0.08766512,-4.38433,0.1946485,1.1380416,-0.8233692,7.195418,2.6916893,0.12696283,-0.32504818,0.39728478,0.4320667,-1.2561119,1.2321295,0.57651013,-0.43453938,-0.6718232,0.7664556,-2.062975,0.8536555,2.7336397,-0.29648155,3.2849581,-0.18144837,-2.1016307,0.267402,0.16603334,-1.0527856,0.70539606,0.03517849,-1.1861502
0.24825351,-0.48614997,0.016992064,-0.6151499,-0.6461319,-0.80870074,-0.13170896,0.7438097,0.48774955,0.9818044,-0.40109807,0.45315284,-0.050091714,-0.105373815,0.1527637,0.21560466,-0.09204352,-0.42099696,-0.19884126,0.5763396,0.027426168,3.9545534,0.25335196,-0.75523055,-0.8726054,1.0878619,-0.7145464,-0.57904,0.12629995,-0.72736406,0.04891512,-0.7238138,-0.87064344,-0.20856006,-0.10595215,-1.9414569,-1.0636709,1.5152916,-0.17920962,-0.52405816,0.279339,0.16159238,0.33781484,0.6983376,-0.1535205,-0.13436526,-0.8884873,1.6799608,0.963141,-0.039740916,0.8533205,-1.0666331,0.79291916,0.14890195,-0.9965446,2.200109,-0.08798176,0.2913892,-0.4611647,0.027923929,4.380154,-0.2958623,-0.14527883,-0.11593488
-0.8831122,-0.45873648,1.0374906,-0.76358587,-0.6933227,-1.537585,0.14952163,0.5494848,-0.14666443,0.16328903,-0.36633316,0.070288956,0.123794354,0.54175013,0.27812788,-0.5114648,0.97528607,-0.8293724,0.09331867,-0.5480872,0.25857443,2.3110344,-0.9620342,-2.2126138,-1.6251663,4.054546,0.20684107,1.02076,-0.012851223,-0.19577949,-0.11387925,-0.10180588,0.9015697,0.05369751,0.5220104,-0.9667864,-0.86771405,0.28242925,-0.370759,-0.5799741,0.32280576,0.21147177,-1.3761357,0.063010745,-0.0051757353,-0.10371378,-0.08885488,-1.059778,-0.07505364,-0.5719089,0.24763319,-0.13394588,1.6637954,-0.38627827,-0.47620144,0.67676973,0.052387048,-1.7141367,-0.18415083,-0.25143692,2.41846,-0.13119328,-0.5304787,0.0710396
0.026357705,-0.8934286,-1.5900986,-1.006053,-1.0035086,-0.31220627,-0.76377803,0.3504138,0.7387925,0.16909648,-1.4799495,-1.1157666,-0.08174485,0.16892794,0.20759633,0.57421345,0.41868585,-0.78691095,0.25021958,-1.4203527,-0.0930951,5.718002,-0.03578345,0.7087574,1.5892904,2.1435218,0.13964657,-1.6679854,0.10466025,-0.40026748,-0.4269525,2.7471316,0.58729964,0.63426644,-0.2547869,-3.4213498,-0.55919415,0.4691502,0.2229035,0.30295306,0.026224297,0.77711535,1.2820559,0.28937438,0.17720984,-0.085704625,-0.33993962,-0.38108414,0.80639344,0.2014229,-0.22754447,-0.88411945,-0.11454964,-0.8464083,-0.4285857,2.6225185,-0.53002465,0.09071354,-0.45320544,0.16241722,5.4918857,1.4428651,-0.029943652,-0.3929573
-0.6637891,-1.3263016,-0.33806664,-0.63556296,-0.4411791,-0.84786797,0.24176775,0.44861415,-0.30002514,0.14490147,-1.7228284,0.10119389,-1.084872,-0.37894416,-0.44380066,-1.3145053,2.2673461,-0.4971969,0.41165715,0.305733,-0.7374533,2.2431862,-0.5320196,-0.06798027,1.9209108,-0.08546652,-0.18751794,1.2542086,-0.9093491,-0.5606305,0.343496,-1.3723029,-1.5426502,-0.26544467,0.10897208,-0.34047872,-0.17197715,-1.06771,-0.050783593,0.70141155,0.8435681,-0.33751127,-0.48302346,-1.3358878,0.95458597,-1.345228,-1.6184721,-0.20556109,0.9858763,0.6306142,-0.38928723,-2.0281878,4.0844073,-0.27461895,0.6595485,0.43505508,0.21520758,0.44744265,0.3833044,-0.044448152,0.4420437,-0.20094231,0.7854573,-0.18588443
-0.28356144,-1.5555153,0.30760056,-0.13127811,-0.015852986,0.8655721,1.2549644,1.1968249,0.45512688,-0.07721212,1.2314228,0.02816622,1.6190948,-0.48576325,-0.0098802885,-0.40642458,-0.26426002,-0.9617352,10.761772,-1.2319957,-1.370762,-0.60085756,0.3460107,-0.0043138587,0.016936153,3.4124568,-0.37091732,-1.0508661,0.19242822,0.26219052,-0.01669134,-1.1333623,0.2619351,-0.12861523,-0.5454864,1.8301986,-0.6865065,-0.008871724,-0.3019824,0.8292029,-0.07698218,-0.12589593,-0.6545072,-0.08551141,0.16604486,-4.9985847,0.30466846,0.0659514,-0.6373347,0.80040234,0.90299046,0.4931151,-0.59185505,0.015131002,0.05182358,4.2475514,-0.8459381,-0.31140208,0.35368443,-0.093149096,0.9721574,-0.15211838,1.3765593,-0.16143936
0.30496964,-0.5594626,-0.24003506,-0.96001345,0.99865705,-2.9940145,-0.9915776,1.5150748,-1.1858933,-0.10347976,1.5402176,0.3915984,-1.3118507,1.1244982,-0.14577162,0.49543178,0.14913015,1.5941235,-0.32656437,-0.7697648,0.16950506,-1.0613339,-5.179901,-0.00626905,-1.0217433,2.5988972,-0.13553664,1.1254451,0.4187645,-0.29182485,1.8625112,-0.15520902,1.3248818,0.3865854,-1.058091,-2.3954852,-5.855336,0.46189496,0.84861195,1.1946508,-0.96569103,0.12753977,0.47136056,0.6987463,-6.102129,0.8254787,0.47955933,1.0665216,0.9452774,-2.8960197,0.027164266,1.0400624,-1.7678515,2.1272757,-0.37361658,2.7530394,0.41151565,-1.9887246,0.0008248591,0.33076087,-0.09620914,-0.60206246,0.35575584,-1.401548
-3.105951,0.10449014,-9.233575,-0.5928145,-1.8952984,-3.4773972,-0.45343933,0.16119003,-0.89153075,0.027678642,-0.23025265,0.37323308,-6.118142,0.20157395,0.1700629,0.88680565,-0.6083817,-0.7586593,1.6949141,0.012757614,2.199645,-2.617423,-0.33753026,-0.53940743,-3.0523243,2.792507,-0.1513503,-0.9355791,0.23711464,-0.14043085,1.2417858,1.4998926,-0.41354695,-1.430952,0.07365228,-3.7248108,-0.443077,-1.2247438,0.45815754,-1.8590084,-1.2798917,-0.32759637,-0.19848672,-0.048731074,-0.3707938,-0.96638775,0.29208595,-0.94691193,0.8721008,-2.8890884,-1.1044927,0.7833913,-0.45881748,-0.37177113,0.2965139,3.1499436,0.3442425,1.535233,0.02459071,-0.32411185,2.4092746,4.379422,0.14502938,0.81258136
-0.31619227,-0.59786963,0.074028604,0.34410685,-1.0259988,-0.22783892,0.11477665,-0.13357672,-0.5073934,0.07410599,-0.4558762,0.098617084,0.22884952,-0.24473403,-0.02111525,1.4135361,-0.046713967,-0.089738406,1.0146627,0.21968453,-0.24556598,7.2258205,-0.122585826,0.31511593,0.098393016,2.3167636,0.036047444,0.021704447,0.018314084,0.054194197,0.020669572,2.7578979,2.2986927,0.104648754,0.4016162,-0.7744149,0.20599823,1.6451329,0.32585046,-0.39053485,1.1606979,0.15331243,0.792677,0.2411084,-0.11133881,-0.087386675,-0.23477599,0.35130382,-0.788265,0.00446011,0.19931783,-0.7426136,3.595587,-0.29648364,0.09112901,3.2661855,-0.3661518,-0.07714465,0.10604752,0.055426374,7.792522,-0.020474244,0.5259338,-0.5246588
-0.011660413,-0.5278478,-0.13466318,-0.22304307,1.0584425,-0.07406972,0.0015698106,0.90039885,-0.5991799,-0.024455167,0.33891982,1.0533853,0.37879753,-0.35866272,-0.29235825,1.2133155,-0.2624751,-0.36185688,-0.31636745,0.12984993,0.29629067,4.0161085,0.21101603,0.13378297,-0.96391517,2.8376994,0.18297035,0.19344734,-0.19715407,-0.08094357,-0.44789517,1.5204462,-0.08111564,-0.3804845,-0.54955727,-1.8140869,-1.0638564,0.056359973,0.45057482,-0.8096753,-0.06312595,-0.26963538,0.23206179,0.3371547,-0.22509679,0.009903096,0.81932163,-0.5655612,0.5012784,0.41428652,0.029329732,-1.0267454,0.53306913,-0.24055065,0.5917565,0.09321352,0.26471967,-0.14144132,-0.024306994,0.32300627,2.738591,-0.5450147,-0.74831325,-0.13686647
0.9896978,-2.2158825,-1.4283881,0.17281932,0.32545817,0.7303222,0.52740896,-0.80849874,-0.1493319,0.072532065,2.018525,-0.28390834,0.029843025,0.725172,0.6321759,-0.21357755,-0.12212925,-0.6008816,3.1068203,0.7178035,0.1580551,-0.7090258,0.31868473,0.23165914,0.15932386,1.3117427,0.2801361,0.9790382,-0.31905082,0.0844759,-0.51003414,0.7105609,-0.42903236,0.75041765,0.5144494,-1.2561296,-1.3097273,-0.630573,-0.33272648,0.47615257,0.51963454,1.26407,-0.16879879,1.3411725,-0.24505286,-0.071018204,2.7174797,1.8891377,-2.347883,-0.3778026,0.12971972,-1.6929456,-2.154005,1.8548534,0.25821012,2.080621,-1.3007153,-0.043582458,-0.21459448,0.27299583,0.11381669,0.6884212,0.6596567,0.47457123
0.09871907,-2.1983602,0.80001676,0.05225761,0.6014242,0.45440352,0.3007363,-0.5085427,-0.47425964,-0.029258791,2.3014534,0.008709191,-0.18330076,-1.1197535,0.12078461,0.44058183,0.030981757,0.6255254,3.5510569,-0.7340321,-0.85831654,1.0803635,0.17164883,0.54851454,0.32591733,1.1899668,0.14412756,-1.6619719,0.1223828,0.15441605,0.7689331,1.1176237,0.10805903,-3.088501,0.31485948,0.6643475,-1.3624068,0.14566055,-1.417542,0.07845581,-0.7527364,0.8298906,-0.31177238,0.6545902,-0.010962004,0.033743322,2.055504,1.7000793,-1.5728374,0.6727639,0.8481888,0.19780204,1.2654489,0.062291116,-0.0021222204,1.1111314,-0.26961157,0.043777596,-0.044875644,-0.045624144,-0.76805526,-0.4557748,0.80313426,-0.91742724
-0.20187885,-0.7721255,0.36422908,0.49561772,-0.8193511,-0.7469454,-1.0015875,0.32599518,0.72468716,0.27691916,-1.7455654,0.0636639,0.07522462,-0.51430184,0.38093302,1.4402497,0.660101,-1.3920796,-0.021232704,0.64589113,-0.023991507,7.0867023,0.18231152,-0.18691051,-0.8832732,5.265383,-0.04459926,-0.6131311,-0.121079095,-0.41250217,0.1381778,2.307893,1.7331827,-0.40024066,-0.13508819,-4.1099186,-0.5401954,1.9209077,0.4604036,1.0135348,0.528812,0.07457989,0.41875905,0.49653912,-0.087275036,-0.58088964,-1.6375881,0.25238484,0.5743969,-0.6154046,1.0844392,-1.2669041,2.221526,-0.41069,-0.39055708,2.4961834,-1.1103472,0.7022248,0.479787,-0.13943464,5.865197,0.8988845,0.9901534,-0.6888566
-0.025208026,-2.110763,-0.0028711502,0.515886,0.2211316,0.27164516,0.68150485,-0.4273038,-0.59542835,-0.4509397,-0.43732095,0.24992463,-1.1205819,-0.00071562105,-0.45184514,1.9690801,0.031396393,0.36726597,4.479847,-0.13948166,-0.551702,1.7956889,0.2537903,0.5017117,-0.20332852,3.7418272,0.68836594,0.102882266,0.31328425,0.14449541,0.13086446,2.6264105,1.6242205,-0.60608375,-0.1662142,-0.6810157,0.28685397,1.5193894,-0.24954823,-0.37281394,-0.38966155,-0.062956065,0.447224,0.13834278,0.08334304,-0.023532048,0.74672467,0.42160213,-2.3520765,0.764944,0.19879338,0.7609277,2.0991318,0.031009167,0.26710296,2.8781953,-0.11991038,-0.087638676,-0.21431163,-0.0052711545,1.4089682,-0.5543164,0.26074338,1.0803062
0.06320705,-1.3162694,-1.162733,-1.4658298,-0.15110496,-1.5147133,-0.43879756,0.39599347,1.2433885,0.10555954,-2.0465388,-1.9227093,0.112545386,-0.07151401,0.5321448,2.3448358,0.16312547,0.2922446,-1.2373552,-0.020927638,-0.70929176,3.990267,0.3114508,0.78415513,1.7844535,3.5378044,-0.086422436,-1.9003422,-0.38983843,-0.06503496,-0.09292703,2.8744302,1.9240286,0.4216556,-0.5129413,-1.3210062,-1.3866942,0.82201564,0.48318937,-0.9911463,0.41009095,0.019474735,1.1583127,0.64124006,0.17151164,-0.69691664,0.06338075,0.30763078,0.6084476,0.09742197,0.033520434,-1.8810905,3.5124745,-0.68061244,0.15965751,1.5413703,0.7508378,0.55526686,1.2091274,-0.12765217,6.536314,0.06284418,-0.0023160633,-1.016521
-0.74220324,0.5857756,-1.6435646,0.30963877,-0.8016243,-0.6086949,0.30204,-1.4330181,1.4782588,-0.0127300825,1.0433189,0.079634495,1.1783166,-1.3141991,-0.12331984,-0.5284938,0.69957644,1.5285223,0.18541999,-1.5662793,0.037786916,-0.24592407,0.7342193,0.801656,0.9045989,1.2294495,0.13541692,-0.4430818,-1.6979177,0.1339819,-0.40796942,-0.11192894,0.63110375,1.6761099,-2.0837142,-1.6116314,0.54972583,0.026209507,0.8913121,-0.9196687,-0.7407566,0.8106008,-0.92028195,0.52985287,0.00047971713,-0.34516367,-0.68778735,1.3713335,-0.8056524,1.0486922,-0.83234537,-1.1243079,-0.3017866,-1.6353134,-0.32771045,0.9636014,-2.6150002,-1.1990772,0.19061635,0.2638737,0.05837529,-2.115101,-2.940832,-1.1923157
0.05771168,0.67504126,0.020281399,-0.36494702,0.03135222,-0.16671892,-0.22168136,0.29342985,0.08785567,0.041443113,-0.099054575,-0.14424294,-0.012065734,0.034326512,0.08361795,-0.06835499,-0.13017449,0.10477637,-0.010829913,-0.15785733,-0.023773482,-0.058088176,0.058788586,0.64796513,0.14975743,3.578507,0.10790219,-0.22326893,-0.0047595394,0.0037936426,-0.045986984,-0.057282496,1.3301618,0.06638817,0.037001777,0.6084664,-0.64229834,-0.012831026,0.16358882,-0.015204256,0.012674259,0.1538389,0.28527063,-0.025856132,-0.03485955,-0.0037617725,-1.1566591,2.4858675,0.20130448,-0.09550264,0.09105979,0.30037183,0.19711058,-0.024579613,-0.34690627,0.6490667,-0.056600925,0.011382509,-0.13904451,-0.04569369,-0.66277325,-0.032514773,0.074009486,0.18581782
-0.09125227,-0.1478932,-3.069183,-1.1160475,0.6674329,1.6518428,-0.5440922,-0.16545615,-9.250044,0.024896938,-0.8678,1.2141068,0.5472767,0.24596255,1.0998598,-0.048706453,-1.1881851,1.4671967,-3.893209,-1.5342811,0.5632779,-0.33165744,-0.19656263,0.7577908,-0.9084906,0.7353429,-0.19124527,-2.8260908,-0.034595035,-0.12323274,-0.5786409,-0.3537144,0.9824038,0.5022225,-0.9864052,-0.40466303,-1.5642833,0.17305277,0.18121488,-0.9136057,-0.50781643,0.7564882,0.6819653,-0.12583907,0.07213919,-0.11048886,0.5528401,0.50557536,-0.14977798,1.2536395,-0.50551033,-0.12694073,-2.0523717,-0.6121688,0.0739267,-1.3270004,0.7870893,0.4102337,-0.21792133,0.0004639437,0.10495132,1.312659,-0.30164075,0.59834945
-0.8308436,-0.37339956,-0.29705867,0.9768099,0.94632643,-0.4271994,0.7307587,-3.2577894,-0.1763445,0.035785332,-0.3257754,-0.123379424,0.06553958,-0.7938502,-0.4311011,0.8872685,-0.24696322,0.0477114,3.6079984,0.11793742,-0.38211033,1.998621,0.8052389,0.30291578,-0.16825548,1.5450841,-0.06651061,0.45028993,0.09542724,0.009779313,0.9335137,1.3535509,0.183565,0.75227964,-1.0994627,-0.19207667,-1.3408589,-0.032482646,-0.06210698,0.1636706,-0.4583516,-0.64357823,-0.9266698,-0.8781277,-0.6487181,-0.8273378,-1.0366333,-0.9537763,-0.31331,0.49354663,-0.14694312,-2.1753705,-0.50281036,-1.5666294,0.34659767,-0.103757024,0.97283274,0.6538144,0.34726351,0.47316748,0.062883474,-1.8271483,-3.278586,-1.4380776
0.40412715,-0.2438139,-1.3056163,-2.0936863,-1.1982238,0.39959502,-0.12342597,1.5716997,-0.4926716,-0.09064732,-0.19353835,-1.3421869,2.2326229,-0.06417505,0.15601264,0.8897894,0.93983436,0.17003116,-0.30158982,-1.7565745,0.0058995285,-0.85645473,-0.07210604,0.423939,2.3720095,2.6463323,0.07577439,0.08255771,-3.033426,0.36024526,0.9288273,0.57323825,-0.29784107,-0.4433722,-0.12584133,1.2309654,-1.2015345,0.13094342,-0.16002607,-1.9931161,0.072863795,-1.5660429,1.0059425,-0.20087625,-0.80367416,-1.9171093,-1.9552853,-0.8585688,-0.41044948,-1.1674896,0.08891967,-0.5901614,-1.5285034,-0.297982,-0.1316056,3.0585685,-1.8311687,0.54368746,0.34877038,-0.41951057,0.058340527,-4.780066,-0.69962627,-0.059701473
-0.12573153,-0.056565274,0.49326372,0.021560708,0.09845518,-0.40203634,-0.9561346,-0.5957248,0.17964938,0.24893117,-1.3964744,0.21173808,0.16093406,-0.18613435,-0.12963596,0.21559864,-0.6429815,-0.2936094,-0.56068647,1.1553866,0.19630694,4.962183,-0.46453893,-0.81777644,-1.5605531,2.8043916,0.14273398,0.2964101,0.034230873,-0.108198576,0.27420887,1.1166128,0.9155959,-0.3160882,0.41086236,-1.6928811,0.2883173,0.64728683,-0.07257538,0.295689,1.1449109,0.1354759,-0.088244215,-0.4415762,-0.046740696,0.018193655,0.35920194,-1.6468978,-0.94258165,-0.04334162,0.29449385,0.08058922,1.3373137,-0.48905814,-0.18578163,1.3643299,-0.47961497,-0.007326976,-0.18452752,0.119103745,3.5531242,1.1738288,0.16902855,0.38256556
0.05173826,0.22789401,-0.16414002,0.41165227,-0.1015555,-0.27665862,0.11363238,-1.8793827,0.5220616,0.28876868,-0.38323498,-0.12183407,0.122950636,-0.11979635,0.08627824,0.2596678,-0.18523616,-0.5752591,-2.143412,0.12939242,-0.38553056,-0.52779585,-0.16547038,0.5661971,0.24165905,-0.21751954,-0.1205669,0.10893275,0.30598453,0.13086872,0.13339826,-0.04487725,-0.39866593,-0.061237648,-0.37592125,-1.8276104,2.9292,0.24943721,-0.18380421,-0.72509646,0.49220717,0.15386367,0.061931603,0.014222232,0.3205153,-0.117435664,0.890278,-0.7331012,-0.6601602,0.036716614,0.08295179,-0.37386394,-1.0402124,-0.6211217,0.20222574,0.2979014,-0.30539834,0.69751644,-0.33390617,0.23014657,-0.3055548,-1.2883978,0.16809228,-1.3522482
-0.21591163,-0.2641636,0.2216417,-0.042191487,0.12616818,0.26551133,-0.09379936,6.7511263,0.11034141,0.06655324,0.28321657,0.16999303,0.1221685,0.034174174,0.015783811,0.42739528,-0.20055781,0.4044452,0.27789408,-0.64041406,0.36354312,-0.5655608,0.12054576,-0.40027264,0.06358752,3.0500734,-0.103509225,0.11146107,-0.11347188,-0.13263598,0.38282618,-0.8684825,-0.12158591,-0.20283093,-0.02750547,0.38748154,-7.2875543,0.175332,0.57869554,0.6814545,-0.05198798,-0.15460429,-0.92749375,0.4496804,-0.067395926,-0.07507373,-1.0683247,0.23241955,0.29868102,0.1368447,0.072298214,0.27348322,0.030537814,-0.00982954,0.06620532,3.1221085,-0.45698497,0.210575,0.2086482,-0.18117963,0.7623623,-0.27294496,-0.26106966,0.61485326
0.2976195,-1.980338,0.41909197,0.17760815,-0.13178144,-0.36611766,1.1748798,1.3935821,-2.4159043,-0.54973495,0.8878139,-1.3554692,1.0134392,-1.5841197,0.22122395,0.35534307,-1.4905301,1.7188902,-3.434957,-1.6813962,-1.0376408,-0.74311876,0.23295224,0.4772353,0.26494205,1.7290859,0.4334268,-2.127458,0.038626738,-0.12468209,0.9517268,-1.1727551,-0.7342556,-2.6245413,0.4566171,-0.9461622,-0.06783683,1.2492495,0.35829318,-0.18047364,-0.21229853,-0.3921515,-0.8769836,0.5638392,-2.4971957,-0.44896737,0.50720125,0.55776465,-1.0733871,0.0055390885,0.85360605,-0.08413134,0.5343752,0.9077221,0.6485794,1.2515324,0.4617629,-1.3360902,-0.39211112,-0.043675445,0.08416625,0.11863472,1.3881568,-1.7020007
0.31087646,-0.13523489,0.103422254,0.6586913,0.3396698,0.9476457,1.885768,-2.6464849,0.36028734,0.1144187,0.8137659,1.6389351,0.22909851,0.21718882,-0.7485485,-0.5315758,0.045006506,0.32275033,2.2226408,-0.8907719,-0.73471344,-0.8158817,0.31647593,0.34179702,0.77936155,2.82921,-0.16977215,0.07537601,-0.14165336,-0.010604415,0.4599657,0.51358515,-1.3286085,1.8726413,-0.22561736,7.612425,0.040417638,1.2738503,0.76973194,1.96615,-0.7089738,-0.07126052,-0.87266517,0.2922447,0.12920557,3.1253607,-0.21420923,-0.042594127,-0.05024779,0.09812083,-0.50349754,-0.5515922,-0.420328,2.8824456,1.0323222,4.555513,-0.0053021805,1.5880865,0.03203234,0.37506807,-0.8426892,1.3111829,0.031752367,-0.6781555
1.1386471,-0.3192539,-2.4663439,-0.36304212,0.49975,-0.6882372,0.65312946,-1.2996125,2.6321855,-0.10457515,0.15291974,0.1292582,-0.80979943,0.26197934,-1.0655622,-0.74053013,-0.3564918,1.0023808,1.2856086,-0.9597495,-4.2324867,-0.03586308,-1.7492551,1.1089658,1.2006515,2.226031,0.06275442,0.8535747,0.8907388,0.32253763,-0.042221203,-1.0299013,0.26491362,4.023794,-2.369916,-1.9098462,2.570994,-0.4285739,0.89714116,-1.6846724,-0.54572266,-0.06713157,-0.06802911,0.5400252,-0.70320797,-0.63480604,0.33909124,-0.10838183,-0.64435154,0.64876705,-1.1647974,-0.14881496,0.017411593,-4.5206323,0.30665848,2.0494113,-0.5025801,-1.0251565,0.4522606,0.42787537,0.28041643,-0.22626986,-1.0301762,-2.3797183
0.8601329,-0.1777666,-0.79330856,-2.979269,0.7257116,-1.1128619,-0.150133,-0.7178062,-1.0205221,0.08500214,-0.09463911,0.11382579,0.13513876,-0.6463087,-0.14416188,1.1019299,-0.061088216,-0.47505763,-2.9334023,-0.54993236,1.0966235,0.71895295,-0.2639645,-0.7017049,0.9453453,0.58912563,-0.038297538,-1.6096005,0.3804218,0.06564858,-0.37864783,-1.4710953,-1.4467956,-0.7808752,-0.00078327884,0.07044875,1.0827874,-2.1352117,1.0818903,-0.30042386,-0.0539292,0.31959087,-0.2496176,0.6594092,0.7067949,-0.09502692,1.2153137,1.0783724,0.3356262,0.7359395,1.0740228,-0.36288992,2.255875,0.58583325,0.2500353,0.21319121,0.6237524,-1.363796,0.57712585,0.110692486,0.8715957,-0.7222225,-0.15474327,-0.6394612
0.5991307,-0.55466866,0.25509202,-4.202971,-0.19491984,-0.63015616,0.452387,0.32866094,0.5648235,0.06309706,3.2712946,-1.3970711,0.077107474,0.22144897,0.44046664,-0.3599779,1.8182749,-0.049613703,1.8439293,-1.533305,0.76075804,-1.5366939,-0.46372506,0.09281242,-3.233049,2.480657,-0.06727349,-1.4118437,0.19795784,0.08785649,-2.9300804,-2.2263243,0.88772637,3.4432971,-0.4961389,-1.0153949,-1.9419099,-0.57619905,-1.1149589,0.45829093,0.48006457,2.1262174,0.060978986,1.6759872,-0.06340588,-3.6010087,-5.0964575,1.8887746,0.18694896,0.7123186,0.07244746,0.5214916,3.2733161,0.16151567,-0.39364865,2.5634477,0.010988382,-0.20254935,-0.4014419,-0.11646835,4.251492,2.0853481,-0.058286823,0.0418207
-0.36820313,0.1572686,-0.20363522,0.43923262,3.1661148,-1.0965041,1.5483111,-2.7711089,0.56098676,-0.11520948,0.74211645,-0.564275,-0.31045932,-2.9657989,-0.31741652,-0.5104987,-1.1521646,-0.29191753,-1.3985356,-0.6352214,-1.619533,-0.25296205,0.7393038,-1.3565993,0.3304549,0.6154504,0.4574389,0.1165586,-0.25719365,-0.36288172,-0.30881736,1.5176679,0.25477996,-7.166823,-0.13756056,-5.8329587,0.39707935,0.7354961,0.0062308386,1.723289,1.3553919,0.7108724,-0.023987884,-0.37564954,-0.4200067,0.83202064,0.05562217,0.15207267,0.44547978,0.34659368,0.5149359,0.84676635,-0.48183244,0.41859788,0.57635874,3.016681,0.570871,-1.6652797,0.19056058,-0.07461854,-1.1332848,-1.8056163,0.5639168,-1.6884187
1.2276745,-0.41590828,-1.3196732,-1.415023,0.69392645,0.1928974,0.15685476,0.38935035,2.5080261,-0.12878461,-0.14461768,-0.579337,-0.56568867,-0.47859773,-2.3580608,-1.3388858,1.0321021,-0.22415312,-1.5336134,-0.21752605,1.2013935,-0.3465815,1.1648939,0.5523989,-1.1752834,1.6857663,-0.4005137,1.8114765,0.42948073,0.2589399,-1.8092097,0.9265559,-0.7042608,0.277853,-0.040340494,0.551175,0.47772956,-1.310336,0.06013901,-0.60569465,0.099059634,-1.9049914,0.10584376,1.3205992,-0.28207296,0.48201498,-0.73721015,-0.60363936,-0.4028231,-1.1181881,0.15945788,-0.27793607,0.5372573,-5.8752503,0.042057507,5.622634,0.29130182,-0.59072524,0.69453,-0.47991353,1.5054967,0.49979195,1.7603496,-0.41644752
0.6669597,-0.09489316,-1.5270954,-0.21885438,-2.3281496,0.64336956,0.1976183,-0.78351533,2.2773483,-0.019996269,-0.77388364,0.8251666,-0.89218,0.6489814,-0.82029825,0.39066306,2.3305516,0.70122194,-0.087950304,-1.1824108,-4.740753,0.26017764,0.05665115,-0.15515025,2.3256521,0.9129633,0.45652583,0.4262463,1.1877179,-0.41284445,0.0028872308,-1.3532138,0.5473649,0.10318575,0.46163315,-1.245638,0.31649482,-0.04751467,-1.2601665,-0.50050724,0.12612194,0.56357306,0.8326547,-0.5767639,0.14916457,-0.27451283,0.69390464,0.6885467,0.10816059,0.64421356,-0.2057146,-0.05865999,0.010158814,-0.15275685,0.66000366,0.97604984,0.03964507,-0.026701165,0.46380383,-0.70819646,-0.04684274,0.1561668,1.4434339,0.34435004
-0.13866705,-0.39558798,-0.7034812,0.96691227,-0.37564084,-0.10712816,-9.95664,1.5019026,0.91430414,-0.08499059,0.7644905,0.29409957,-0.22397393,-2.3708272,-1.0790316,0.73008645,1.5604208,-0.43747613,-2.5501125,-0.8486144,-0.563882,0.6914969,-0.2911736,0.44255224,1.0744787,1.2381779,0.31382605,0.45479715,0.6031266,0.24944586,0.22622122,-0.66519314,-0.9505518,-6.1493087,-0.05697564,4.555479,0.33949727,-1.4985127,-1.9354391,3.3129392,0.8944779,-0.85108465,0.75294137,0.16568655,0.7215252,-1.269698,-0.56315964,-0.36076486,-2.0546703,-0.4660714,1.212467,-2.4970398,0.772138,1.7388793,0.16589956,0.7257828,0.31831995,-3.1314976,-0.3093128,-0.103294335,0.11813037,2.1649806,-0.09895411,-0.86615294
0.14880359,-0.5543846,-1.0275248,-0.20011547,-0.81534183,0.50375223,-2.5564241,-0.12353481,0.36182904,0.09352928,-0.4457709,-0.57680535,-0.008053892,-2.284035,0.8795947,1.4673713,-1.8734705,0.29108217,6.7693787,-0.6125394,0.3164327,-0.62518567,0.687795,0.9581594,1.437066,2.2048066,-0.06595075,-0.33336866,-0.37529674,-0.5019704,-0.19238701,-0.090389796,0.5242045,-2.1590495,0.18711396,-0.6895771,0.05768162,-0.3517781,0.35003215,-1.9224542,-0.13777061,0.084679,-0.42602468,-0.15403879,-0.15080307,-12.815203,0.16726853,-1.2287956,0.5417176,-1.362575,-0.47690892,0.872539,-2.343586,1.2575588,0.33134148,2.9717858,0.427446,0.91813624,-0.07195373,-0.027189141,0.91842353,-5.288469,-1.4494814,-0.0053834724
0.3630742,-0.68361735,0.03555811,0.13041683,0.941051,-0.5552538,-0.77927226,0.750202,0.61577094,-0.108485356,-0.4502777,0.23218827,-0.31429178,0.3705642,-0.35103697,-0.42434835,-0.7735702,1.3074421,0.2818955,-0.97947603,-0.113163576,-0.5045232,-0.70502204,1.1150708,-1.9169847,0.6652701,0.3045365,0.46253982,0.64974076,-0.08590699,-0.5867885,0.6380306,0.2048434,1.8818629,-0.5416678,1.1381284,-1.7384171,-1.0772296,0.059331093,0.10046205,0.42298973,0.2869221,0.21184212,0.66331005,0.7965303,0.10638764,-0.9562694,2.1949024,0.51201874,-0.18878432,-0.044593733,0.9561946,-0.12842868,-0.28315926,0.49943522,-1.8397409,0.25961658,-0.004034462,-0.3190861,0.11834191,-0.3021568,1.9277598,0.2553006,-0.9203341
-0.015160447,0.050141636,0.1909545,-0.5148573,0.017696183,-0.46697772,-0.0723299,0.88143873,-0.16524643,-1.8007259,-0.64673305,-0.25247252,-0.11235356,0.23234418,0.24629965,-0.8015301,-0.8679294,-0.21532784,0.021253774,0.35958427,0.015083066,-0.22539343,0.10318242,0.64816266,-0.34603605,-1.2922909,1.1647897,-0.27795672,-0.08733431,-0.16773793,0.046294723,-0.32843,-0.36874163,0.22303204,0.20013943,0.17535512,-1.5902873,0.0042454395,0.38508937,0.06536012,-0.0678538,0.05316328,0.17836003,0.06917719,0.100547455,0.21640521,0.23318127,0.99542886,0.6952084,-0.16888915,-0.08654114,0.18248864,-1.3740189,-0.017766856,-1.0998505,0.6231485,0.376862,0.16108254,-0.48554522,0.12904862,0.7797457,0.18901527,-0.09206646,0.47175193
-0.178878,-0.6765367,-1.0887136,-0.25039756,-0.6699839,-1.23255,1.2083384,-0.10167483,0.55052316,-0.036828175,-1.739991,-0.77100736,-0.104224145,-0.8865281,-0.56589293,2.1825178,0.4056498,-0.5999437,-1.2210389,0.45021024,0.66765386,4.2588496,-0.8001762,0.042591196,-1.6800201,2.709877,0.43435556,0.02514812,0.23392166,-0.01124467,-0.6883245,3.6180565,3.2500226,-0.32578444,-0.26198605,-4.556755,-0.26319414,1.3404948,0.47144106,2.0338285,-0.17174698,0.022160707,1.9570938,0.36874768,0.23089097,0.26464584,-1.4515394,-0.4693727,0.17811297,1.061341,1.0163902,-0.6750912,3.555492,0.09408594,-0.49846593,1.6725838,0.098550916,-0.6605762,-0.064006574,0.14796682,5.2826953,2.249498,-0.603849,-0.34797958
0.876288,-0.6704017,-1.0224218,-0.07938163,-0.95770246,1.1785095,-2.7461817,-1.2156713,-0.16673003,0.04930188,-0.031891927,-0.49592614,0.5987589,-0.07669888,-0.52946043,-0.18706568,0.7998023,0.013788982,-3.5778186,0.2596176,0.1139099,-0.15066087,1.0401858,0.30385628,1.3987026,0.77887493,-0.3484142,-1.2741525,-0.33263204,0.28265443,-0.55209255,0.021922713,-0.33154726,2.875291,-0.41485298,1.2963152,2.569916,-0.21216097,-0.04571919,4.876579,-1.8185911,0.013983731,0.87371683,-0.07531542,-0.004528051,-0.9565544,0.024147356,-0.37767422,-1.806192,-2.4068618,-0.22875422,-1.1139266,1.0551995,-2.850479,-0.4528884,2.786764,0.15691346,-3.0000813,-0.52685523,0.4477774,0.89250624,1.955933,0.06872596,-2.340342
-0.16246603,0.45144534,-0.23313417,0.37274495,-0.48309878,-0.1408975,0.4124406,-0.56407267,-0.08018759,-0.10887049,-0.52879155,-0.24115962,-0.07814477,-0.03308608,0.08904599,0.8601929,0.32866502,0.15821014,0.20865633,0.07243527,0.05183602,-1.8936222,0.08445406,0.714577,-0.14352997,1.2458249,0.0135831665,0.08006915,-0.048058674,-0.13304116,0.30419528,0.8253654,-0.006726796,0.39994273,-0.026273612,-0.85553855,0.046697557,0.61936665,0.22704159,0.56529784,0.6184274,-0.59017867,0.09357611,-0.041287042,0.04632244,0.18264678,-0.90362674,-0.10800468,-0.19126803,-0.22281785,-0.47104374,-0.5419396,-0.06884593,0.11979737,0.07424693,0.11834266,0.022166347,-0.4936909,0.2311102,0.19659115,-0.15138322,-0.6855148,-0.2108766,-0.87160575
-2.1864004,0.6095913,-6.9015985,-0.8230629,1.731331,-2.2112076,0.51137346,0.13518128,1.1483487,0.059778575,2.4431345,1.2142959,0.68920636,-3.2812183,0.95720464,0.004097202,1.3737918,2.0628114,-3.836486,0.22690545,-2.6544847,0.7913236,0.10827031,0.54106915,1.8303785,2.3092806,0.1326583,-0.31887442,0.8416657,-0.037085325,-1.5445254,-0.40147558,-0.69321585,-2.7685149,-7.9277773,0.14171524,0.5080751,-1.2188056,-0.7858705,-0.6840034,-0.34286782,2.0593574,-0.8832662,0.106903866,-0.35525784,-0.88084865,-0.5675477,-3.940932,0.49425238,-3.301585,-0.30509296,-0.10716347,1.0507188,-0.24863744,0.4691773,3.1956387,0.1998589,0.33394963,-0.0716894,-0.14922614,0.6715456,-2.769492,-7.017706,-0.42433953
-0.12476597,-1.9219619,-0.4177785,-0.18126382,-0.11740109,0.12194519,0.4178703,-0.28521731,0.07372849,0.0928883,0.20853192,0.40787524,0.16381596,-0.10074345,-0.18846776,-0.2825352,0.4977626,0.50207424,3.5225232,-0.054935448,0.19588193,0.38277397,0.024250675,-0.22489199,-0.10412783,0.33205646,-0.24093464,0.19827628,-0.2140505,0.04857503,-0.17281348,-0.81704444,-0.2656086,0.21193062,0.02676021,-0.20358585,1.157254,-0.5281448,0.34948564,0.61235195,0.10140374,-0.18560411,-0.0074975914,0.15478027,-0.20797662,0.17661518,0.30418387,2.57322,-0.7813432,-0.1450122,-0.52387446,-0.9549627,-1.1923128,0.4081598,0.3174815,1.0689412,-0.21973336,-0.5275984,0.33971757,-0.07378374,0.5447761,0.18737696,-0.10469676,-0.7161462
0.45178178,-0.18098025,-4.087146,1.0685415,2.1701078,1.7766273,-0.71114594,-0.23589525,2.7308497,-0.12238486,0.25178567,0.5395782,-0.5360743,-1.5546254,-0.420794,-0.41108468,1.5009907,-0.20704035,-1.6281277,-1.0645225,-4.7080727,0.32283235,0.60783845,2.8712444,0.1448851,1.804213,-0.46534705,2.9727128,-0.910657,0.64150804,-0.36450666,-0.6592379,0.045517623,-1.8084829,-5.2250404,-1.0471942,0.70087045,-0.80215305,-2.0171828,-2.6093686,0.037065513,0.95731324,0.76957446,-1.8120565,0.580697,0.26311553,-0.34380555,-0.048799984,0.2692845,1.1369201,0.20473349,0.057809524,-0.14424972,0.46804973,-0.083281666,2.4265249,-0.85557854,-1.9803066,0.8667793,-0.2027705,0.5969476,1.6873308,-1.3452147,0.29108936
0.05703946,-0.878459,-1.7714947,-1.3958552,-1.3283827,0.07921102,0.49406934,-3.9875753,-0.1696034,0.31344092,1.7398554,-0.30227974,-0.11420926,-3.1616368,-0.008024322,0.63730085,-0.09563853,0.5970784,-0.99412376,-0.61994,0.27596986,-0.112066135,-0.609196,-0.42814282,-1.9713169,1.7869923,0.6228636,0.29437247,0.24529143,-0.8563657,1.2725612,-1.2417173,-0.011154864,2.4514253,-0.47503138,2.7098856,3.4374132,0.53119767,0.40630427,3.0781,0.44697836,0.13752511,-0.09066672,-0.8015271,-1.3477856,0.78279036,1.4030104,0.53352743,-0.5249998,0.18535355,-0.104002304,-0.58045375,0.96826696,3.2721062,0.30803028,4.0947847,0.9936579,-2.397064,-0.28900784,-0.045143627,0.3990867,2.1481354,1.1629053,-3.6044843
-1.6482475,-1.8798146,-0.0071974597,-0.33557937,-2.7375948,-1.7389839,1.2423085,-2.7586792,-0.19071747,0.15915121,-1.7113835,1.0015365,0.73357886,-3.6568747,-0.62648576,1.5950971,-0.18680476,2.5987144,5.554796,1.0420562,1.4230217,-2.2435553,-0.093272895,1.3854932,3.2529652,3.3957057,0.069268204,1.3437237,1.6628513,-0.3306052,-0.34364378,-1.6218326,0.071109876,3.3506162,-6.480882,-0.31598487,2.257323,-1.2911167,1.2158263,0.04305335,-0.08170159,0.33291948,0.76671207,-1.583571,-3.4163342,-3.0637448,-0.00074706774,0.95536107,0.039018758,-8.243864,-3.5354009,1.3094943,-0.4950566,-1.4940989,0.3530571,-0.34589785,1.1122009,0.52851933,0.113846414,-0.22627705,1.5348831,5.741519,-2.533243,-2.4925334
0.029972007,0.1729045,0.09119177,0.074332915,0.1707616,-0.117890514,0.14682816,3.2453282,-0.110409304,0.32466567,-0.19476934,-0.101125605,0.011616282,0.08049506,0.17973846,0.17102452,0.030694677,0.05666073,0.090463266,-0.2663138,-0.14711855,-0.08217518,0.29399174,-0.10925238,0.13906464,0.25980577,-0.075358674,-0.05113504,0.12851018,-0.10541189,-0.27596378,-0.37519524,-0.29230145,0.44597945,0.14939287,0.02316203,-3.5687444,0.15089265,0.16373329,0.28174236,0.07811484,0.44456038,0.05408354,-0.09010222,-0.14613011,-0.022701273,-0.3195337,-0.23195878,0.0018816596,-0.20325997,-0.07172915,-0.075891286,0.42073518,-0.09159536,-0.07994763,0.9432594,-0.260972,0.039000988,-0.074013464,-0.031407945,0.0380192,0.14820324,0.06182274,0.0048362
0.17296645,0.09872803,-0.32526034,0.94957304,-1.7607459,1.292462,0.12644674,0.45556605,-0.9811453,-0.0693562,0.8520997,1.4588977,0.45321786,-0.020784939,-1.1607195,2.1179597,1.1164773,0.4916284,10.696158,0.47715175,-3.1549654,-0.562982,-0.9597833,0.8609861,0.68375456,0.5316411,-0.22088295,1.1812286,-2.3944862,-0.14439076,0.034126744,-0.7740544,0.79014456,0.624016,-0.5353849,-1.4149696,-1.1175753,0.49321917,-0.76829857,-1.6628278,-0.0928928,-0.9835618,-0.2969058,-1.8098656,-3.4669225,-5.1737432,-0.12193902,1.7536256,0.9374442,1.2708498,0.49075654,1.1509472,-1.2530329,-0.9112352,-0.06669129,0.11278583,1.0990239,-0.32518658,-0.009688703,0.12752877,-0.20319265,-4.581883,1.8520536,0.35878837
