0,1,2,3,4,5,6,7,8,9,10,11,12,13,14,15,16,17,18,19,20,21,22,23,24,25,26,27,28,29,30,31,32,33,34,35,36,37,38,39,40,41,42,43,44,45,46,47,48,49,50,51,52
0.053556047,-0.34235325,-0.106582746,-0.1028251,-0.32402095,-0.03517538,-0.08175536,-0.7012325,0.16130364,0.14936498,-0.47383615,-1.0604416,0.10102195,0.15395984,0.321435,-0.043814447,-0.26418188,0.1847509,0.10646318,-0.17755006,0.0978932,0.07809226,-0.42877743,-1.0718027,-0.039320562,0.16087735,0.46989876,-0.14321326,0.5708846,-0.062095072,-0.09546281,-0.30986974,0.09846977,0.13110726,-0.18928652,0.5274285,0.21210581,-0.47601855,-0.117100246,-0.94420224,-0.051164538,0.5437192,-0.3751457,0.1733347,-0.20217824,0.0900318,0.0480279,0.26790252,0.053870063,0.15548551,-0.31742617,0.21021126,0.35265544
-0.055834044,-0.095989734,-0.73309374,1.8870643,-1.2609249,1.8088405,0.4417732,1.0453992,-0.024705477,0.08314872,-0.29334387,-2.4594643,0.50746095,-0.6753292,0.44366926,-1.0638235,-0.93477064,-0.36710885,-0.27889636,0.5885959,1.5424858,-0.06083344,0.61909485,0.700579,-0.49279436,1.2430449,-1.5365444,-3.5792263,-0.25586158,0.53940576,0.71815974,-1.4110755,-0.6030626,-3.6694994,-0.2215393,0.41872662,-1.4825907,1.1971508,-0.3924871,0.28283,-0.1288686,-1.3642324,0.52946746,-0.16336454,1.0260956,1.1353639,-0.46270892,-0.1236951,-0.24008861,-0.031405177,-0.96929044,0.080573425,-0.019029588
-0.20116651,-0.2867358,0.06970977,-0.20761144,-0.41813233,0.54405314,-0.019982353,-0.29606575,0.54653233,0.5403349,0.41510102,-0.26264402,0.025494657,-0.66527617,0.13613215,-0.16862434,-0.17128249,-0.26655063,0.21872936,-0.14350411,0.0914989,-0.15337674,0.2746114,0.8456159,-0.13626987,0.11518666,0.33658865,0.045032166,0.94164884,-0.1045735,0.41458085,-0.8497743,-0.17113334,0.012504839,-0.4379699,-0.0010105943,0.44045192,0.8376366,-0.080306865,-0.052883018,-0.13108158,-2.1304958,-0.03685162,0.19683473,0.19716907,0.4909032,-0.7893295,0.06681379,-0.24330069,-0.028790466,-0.37266156,0.11015689,-0.5315816
0.40733323,0.33505756,-0.50085735,0.19113262,0.9093339,0.52077204,0.17193763,1.6975175,-0.27478197,-0.66596127,0.028928647,0.55461746,-0.8730608,-0.07787545,0.118534915,-0.08626561,0.9677463,0.061402705,0.013848119,-0.13648167,-0.56952125,0.22293627,-0.22708209,1.379352,-0.0053171893,-0.057288904,-1.2762402,0.5032758,0.20059432,0.099594586,-3.1113033,0.8663326,-3.366449,-0.101775765,0.9494196,-0.33795422,-0.8881653,-0.52531683,0.061796233,-0.20037599,0.25155297,2.2633677,-1.4910866,1.9002934,0.79970676,-1.6384693,0.5201302,0.19493441,-0.23704532,-0.51515067,-0.67405957,-0.1734035,-1.0659847
-1.6964328,-0.40753943,-2.5874636,1.8242123,-0.9206068,-0.3368549,-2.6485798,2.7208374,-2.17507,-2.785119,0.7347165,0.1835723,-0.63858855,-0.14717174,0.18427949,-4.4970465,0.5754135,-0.18506181,0.6707819,-0.41450435,-0.57120425,-3.2424412,-0.01891218,0.5574792,-3.1744316,1.1394081,0.53547454,-4.787259,-0.27383506,-0.74486053,1.7792742,-0.2713915,-3.3066857,-3.116915,-0.029718395,0.45617852,0.27866268,-0.06702975,-2.5895367,-0.34062645,-0.28569326,-0.08027439,0.12578249,0.10433974,0.36352453,-6.805008,-0.32454515,0.00963443,0.23466676,0.82409227,-0.7412577,0.5988706,-0.044607535
1.777395,0.038464766,0.87319714,-0.63288105,0.17420162,-2.525093,-1.2300732,0.7145523,-0.47962758,-1.1826985,0.30258787,0.39376554,1.4433786,1.7102662,0.4440484,-1.2736429,-0.753837,-0.3609538,0.81062466,-0.58285457,0.520965,-10.139665,0.3952685,-2.1056962,-0.02530682,-0.05189711,1.6802692,0.9221851,-0.88526595,0.23311721,-1.9828244,0.7608046,-0.530144,-0.47928482,-5.341589,-2.1880286,-1.7253611,1.8161932,-0.28475964,1.9284182,-0.12681167,-6.620757,0.8770568,0.7098588,-2.0234575,-2.672351,-4.417859,-0.45029172,0.16460457,-0.35398033,-4.022964,0.18864952,-1.2513727
-0.8780224,-0.3828959,0.60143805,0.33877602,-0.34260705,0.79541844,0.38425332,0.12566964,0.3785575,-0.45453346,0.6896539,0.27255177,-0.6797427,-2.2336252,-0.53871024,-0.6653223,-0.093480654,-0.47137716,-0.52529997,-2.0961802,0.21879756,1.6693339,1.1376,-2.7614174,0.12122676,-0.1602152,1.7260695,0.93745244,1.1802096,-0.3509008,1.488719,1.7189935,-0.59469104,-0.32895932,0.18053813,0.043921407,0.030585106,1.6351606,0.35980526,1.177456,0.8948985,-4.7933917,-0.012909704,2.8428988,-0.5182098,-0.111438915,-3.8395698,-0.39738905,-0.55392903,-0.09009262,0.2607582,0.08895239,0.1908853
0.5225357,-0.0051942114,0.9402392,2.1206982,0.21090071,-1.003733,-0.57320696,0.54162765,1.4406325,0.058573827,0.40224838,-1.3391776,-0.16994081,0.62947387,0.32365397,0.9894726,-0.9413051,0.05566316,-0.55147,0.4293903,-0.21258579,-1.1148422,-2.370125,1.6140114,-0.59555113,-0.7239107,0.9041966,-0.18958902,-0.09438637,0.24773544,1.9798872,0.28849828,-5.807923,-0.19888708,0.30730528,-1.1647141,-4.9976554,-0.89922714,0.8192928,-0.31651306,-0.15034768,1.470833,0.27487203,-0.37685442,4.0137563,2.5170357,0.0155085055,-0.5632,-0.4425793,0.49594292,1.8504004,-0.13000585,0.054804396
-0.07060314,0.109838106,-0.116719134,-0.07719925,-0.13259077,-0.00930497,-0.045230724,0.05356345,0.13081938,-0.5754753,1.0531299,-0.0598083,-0.06087646,-1.1836156,-0.0097602755,0.06585684,0.18846652,-0.06085109,0.18922114,-0.31902826,0.011285448,-0.44285116,0.058847502,-0.28968835,-0.10203833,0.06390907,0.1970517,-0.07243073,-0.17090258,0.04960059,-0.15789036,0.23279522,-1.20662,0.07055958,0.25248253,0.07392917,0.08039032,0.4457344,0.04732954,0.25122884,-0.12723257,-0.5978401,0.50778866,-0.33663017,0.11937798,0.098898046,0.36261842,0.7574899,-0.11513823,0.056768134,-0.3371626,-0.008697517,-0.42785797
-0.530457,-0.10777309,-0.14337616,0.3714957,-0.24096453,-1.6396737,-0.19557913,-0.7998178,0.14433275,-1.3862854,0.09823333,-0.13715424,0.5098811,0.74900675,0.14811128,-0.15387908,-0.2813152,0.17050974,-1.6103231,0.13290931,-0.19237463,0.6644069,0.48769683,1.5811592,-0.24031557,0.46969208,-1.1514343,0.2578618,1.416113,-0.12405485,0.1171291,0.46978095,0.14397998,0.12476116,-0.70180035,0.1519161,-0.76841956,0.32996413,-0.11784069,-0.7297011,-0.10322469,-1.0495784,0.44161415,1.1123999,2.3141606,-2.204283,-1.5799998,0.05462465,0.098689295,-0.44863632,1.1193751,-0.15948439,0.17876258
1.5950087,-1.2112429,0.872821,-0.1392068,0.36375996,1.9562826,0.5108152,-0.47698802,-0.18702894,0.1156457,0.41557404,0.9283503,0.11633727,0.7966473,0.7167831,-1.1765003,-0.116559416,-0.38690326,-0.22741333,0.8485954,0.16537426,0.8801959,-0.011305127,1.9415029,0.052362118,-0.36295325,0.23978958,-0.40855238,0.12287769,0.73847705,-1.8104317,0.58699536,-2.3705025,-0.5759753,1.1902527,-0.90565145,-0.68442035,0.7184246,-0.17942405,0.027845241,-1.7253457,0.48368564,-0.81045276,1.6804017,0.79853046,-1.0677733,1.5462401,-0.072953865,-0.7026277,-1.012728,0.52677214,-0.22825535,-0.41295913
0.09735633,0.1678856,-0.52658623,0.825796,0.23813675,1.311395,-0.46792528,0.106163755,-0.722927,0.29968974,0.2046085,-1.4100951,0.0346232,0.8203362,-0.5855796,0.037449945,0.09716099,0.14602889,-0.5943762,-1.1982918,0.20523143,0.74733734,0.4863797,2.5887146,-0.08857747,-0.19154094,0.03370603,0.06366381,-0.5511102,-0.32752272,0.32120234,0.36708912,-2.5622752,-0.68963355,-1.1079923,0.60537827,0.44235027,-1.1174902,0.44207016,0.5553386,0.18271706,-4.044244,-0.14224316,0.64786196,0.74552345,0.058661602,-5.993459,0.04030677,-0.2698889,-0.69529337,1.1066611,-0.31446564,-0.22348279
0.26746106,0.050551817,-0.0763478,-0.12673905,-0.5803102,-0.33951712,-0.28362054,1.2697116,0.112105936,0.30083886,-0.5602773,-0.21810319,0.4791055,0.17402224,-0.6114631,-0.13358146,0.38211814,-0.59783685,-0.081682414,-0.35389617,-0.5794913,0.16265792,0.30616224,-1.3985482,-0.23159307,-0.250604,0.06289242,0.24721718,-0.65997714,-0.31219622,-0.18877222,-0.011050409,-7.127787,-0.36444968,-0.183975,0.4348933,-0.29708207,-0.25245616,0.33078244,0.28004193,-0.1305453,0.46751657,0.7411364,0.42922297,0.04971007,0.19373314,0.26794863,-0.24327978,-0.19256046,0.07635317,0.22043741,0.34981403,0.13232341
-1.847461,-0.6696403,-3.339538,2.3153148,1.440382,-0.21373816,-2.7400312,-4.6188617,-3.1691375,-1.5210669,0.081413016,0.32824606,0.47839898,0.7280691,0.26809356,-5.1286616,0.6534073,-0.5530328,0.99300313,-0.18027817,-0.69483685,1.3940264,0.30533022,2.5611978,-2.025408,2.1385744,0.42504746,-5.0873976,0.74044645,-0.89382356,1.1762187,0.63917524,-0.085478514,0.6180268,-1.546143,-0.03780694,-0.75279623,0.15227237,-3.9905717,0.09045911,-0.3547135,-0.49564993,0.23438542,1.0385848,0.2578306,-2.8538704,-3.4260879,-0.1525801,-0.04075571,0.8124624,-0.7753528,0.6737352,-0.12164002
0.021748446,1.0281609,-0.020194678,0.06786359,0.02424195,-0.13925028,-0.028052976,-0.056763373,-0.15626156,0.14108364,-0.043765396,-0.01961526,0.06943207,-0.26193327,-0.030413084,0.02959362,-0.07595884,-0.10764968,-0.15348072,-0.106315956,0.007535709,0.055686846,0.08716374,1.8457423,0.005199532,-0.12293223,-0.015303976,0.0502349,0.15736273,0.013503872,-0.07254618,-0.14410858,-0.03558548,0.0019956913,-0.19896238,0.06849906,-0.1618212,0.17399709,0.002028456,-0.079885095,0.12899263,0.34729025,-0.76136774,0.016875984,0.00870451,-0.4966907,0.14914627,0.95009375,0.006591679,-0.016525934,-0.117772155,0.016070586,-1.5869683
1.1546036,0.085377336,-0.091883816,0.22506931,0.39547557,0.10185379,0.1804347,-0.62780625,0.00067870313,-0.15516125,-0.43393555,0.049900677,-0.10465489,-0.006828081,0.46967766,-0.34836733,0.04390321,0.28070283,-0.40454555,0.8593874,-0.18456899,-0.83687925,-0.66763884,2.1765294,-0.17710797,0.0071565825,0.15922351,0.23944718,-0.44578832,0.07429583,-0.31910518,0.6269831,0.2829196,-0.05322084,0.22539078,-0.76226217,-1.3348819,-0.5460447,-0.040116914,-0.58377606,0.08446201,-1.1107008,1.4436475,2.3990989,1.0503759,0.29822183,-0.69187844,1.2398764,0.031273216,-0.13931416,-1.017742,-20.789696,1.147511
0.47938868,0.11911002,-0.5071737,1.7269725,1.699021,2.3997877,0.35904017,-7.2521796,0.7301124,-1.89163,0.12156051,-0.64524055,-0.09510834,-0.43679306,-2.9553778,1.3847413,-0.37100932,0.13225092,-0.4823887,0.14113249,0.8436762,-0.45006293,1.8900003,2.9049435,-0.80359846,0.77710336,-7.564315,0.121604204,0.40070063,-0.7014858,2.116261,1.1540707,0.10474036,-0.28520465,-3.469272,-0.3842832,2.1517818,1.8862259,-0.99865264,-0.7866272,0.011343776,-4.740264,0.19201052,-0.66943055,-2.9270544,0.9385811,-0.00019781612,0.0146325985,-0.031879198,-3.0591285,1.683586,-0.2492972,0.96679246
1.9476937,-1.0041082,-0.5119194,0.49920693,-1.5704852,1.96882,-0.81564975,-0.38945028,-0.78952223,1.108707,-4.5659776,-0.6540491,1.457155,0.7792964,-2.120602,-0.10159977,-0.43894467,-0.5968525,2.8751373,0.018355262,-0.59135026,0.7219112,-2.3443193,-1.0821097,0.21691778,-1.4134991,-1.7349569,-0.90388006,1.0204558,-0.68930554,-3.289351,-1.0920444,-4.049826,-0.02127473,-3.9688394,-0.28139314,0.7576156,-0.7176871,-1.9165132,0.99934626,-2.269179,4.972727,0.37049854,0.8757819,0.44919786,-0.29714435,0.4076386,0.97817516,-2.4555676,1.280824,0.15681392,-1.5613128,-0.016365273
2.788651,-1.1712375,0.3105485,1.1203998,-0.03822404,-0.25607225,0.406499,0.589593,0.18696472,-0.92459923,-0.74251133,-0.22769037,0.9106063,0.9850401,0.11536849,-1.9353696,-0.17081374,-0.14399682,-0.5019337,0.6787173,0.8836683,0.5351239,-1.2497177,-2.3222222,0.22594808,-1.8378307,-0.07670267,-0.4649619,-1.5396101,0.3300628,-1.1087044,0.52011275,-0.7128426,-0.3030001,1.602373,-0.7218473,1.4706489,0.58163524,-0.8326787,0.92760897,-0.9799674,2.3097136,-0.4665217,-0.7262113,0.9446243,-1.8761551,1.9406441,-0.17156497,-2.491688,-2.709591,-0.28737837,-0.23323782,0.040856782
-0.57823735,-0.19359441,-0.10997128,-0.40928745,0.30277678,0.34575358,0.30784893,-0.20251624,0.5931983,-0.21900614,-0.10021632,-1.014526,-0.7451119,1.2041014,-0.7836776,-0.39254236,0.3749584,-0.6939486,0.15234888,-0.87997365,0.18153854,1.223039,-0.18510345,-2.9667742,-0.07771331,-0.277333,0.20637557,-0.25115556,-0.02913042,-0.43266135,0.1403757,0.7182747,0.062444605,-0.011823821,-0.28727657,0.31053165,0.24549982,-1.8952323,0.12269848,-1.9650649,0.27678546,0.15245005,-0.608402,-0.55694526,0.37769255,0.19458939,0.7093901,0.84218,0.11009806,0.120539024,-2.0748966,0.3763641,-0.12549716
1.2325255,-0.029753564,0.053677104,0.15785089,-0.17267229,0.020349601,0.1492773,-0.38825357,0.39774647,0.5907686,0.7600497,-0.23991941,0.5220924,-0.72011334,0.22845934,-0.4219653,-0.39811066,0.0050678304,0.07768646,0.31865793,0.03151787,0.46768656,-0.25781903,1.1809164,-0.093931474,0.59670025,0.53886783,-0.28866082,-0.018637797,-0.05982991,0.8153757,-0.79555714,-2.4817846,-0.0625452,0.118606426,-0.5861874,-0.18572062,1.2021276,0.16429187,0.18328041,0.3162031,0.027724799,-0.49107796,0.44937286,0.14992982,0.4171006,1.1095904,0.5412887,-0.2707228,0.046815284,-1.1801718,-0.06768726,0.19958687
0.5907314,-0.6308397,-1.7776448,0.8098811,0.64334124,-3.7571647,0.70407385,3.5041652,-1.262085,-1.0226647,-2.672641,-1.0638574,0.25871378,1.6880976,-0.72784895,0.6817023,0.16145818,0.15323634,-0.51987934,1.7976977,2.249658,0.35345775,-1.1059122,-2.8034384,-0.0926062,-2.9626532,-0.71271497,-0.024427872,1.9183106,1.0574862,1.3951634,1.6627815,0.93385357,-2.6692038,1.0902841,-0.7585987,1.9626337,1.0138359,0.13202013,1.6587977,-3.4634416,3.024132,-0.17242968,-1.355848,0.7796219,2.8591027,0.66446465,-0.18814632,-1.8697077,-3.0037181,-0.86591595,-0.17208733,0.47678813
2.220671,-0.58483565,-0.25684988,2.1475086,1.421747,-2.479468,0.06195454,2.9638371,0.07951662,-0.14998648,-0.11211482,0.16830938,0.117615804,0.5206682,0.19033316,-0.5722669,-0.0050362907,-0.015440844,-1.2438833,0.9429825,0.76085246,0.64859885,-7.083024,1.2369874,-0.92885655,-3.60642,-0.17558987,0.2051244,5.0653486,0.15768366,1.2114197,0.6365013,0.1306784,-0.11954845,0.9685279,-2.131327,1.2772634,-0.21067643,0.39079553,0.7649492,0.24055874,2.4289963,-0.38887063,-2.1990836,-0.57939553,2.2644005,3.4250543,-0.48873165,-0.27629942,-0.001758612,-0.38491455,-0.25155392,-0.09324215
2.1801343,-0.3087605,1.244498,1.498148,2.1385875,-0.20997003,0.3778284,0.9665424,0.9941375,-0.14127815,-0.76600933,0.075000234,0.3747515,0.32942292,0.19780682,-1.1988368,0.2992781,-0.3935451,0.2139878,0.9088262,-1.1906338,0.39104775,-3.0058498,-2.0212126,0.036243554,-1.3458505,-1.8337626,-0.93058085,0.36658147,0.2617854,-1.2912319,1.4930478,0.16749941,0.8142489,0.9858026,-0.68783355,0.9173538,-1.2492371,-0.24739374,-1.7651664,0.44387993,2.3197536,-0.0781716,-1.8932635,-0.40353012,-2.7489939,3.5705123,-0.58701384,-0.9395043,-0.40580538,0.8621304,0.10658843,-0.7634757
-0.6511682,0.5360492,-2.40702,-0.65803444,2.376026,1.7686698,-0.3951628,2.7973077,-1.065106,0.37991792,-0.022122549,-3.5317001,-2.151179,0.37115124,-5.3081374,0.13225964,3.0937538,0.22790739,0.49426934,-0.15692379,-6.733503,-0.35864183,0.8312203,1.5689353,-1.0844433,0.80092347,0.6365034,-0.60454315,-2.392757,0.8041435,-2.5523267,2.3290105,-2.4425075,-1.6960378,1.1460123,0.6367574,-1.7123543,0.91974336,-4.0005956,1.1170079,-0.5955987,-0.029705942,0.8265311,1.4314417,0.5183092,-2.5303135,-0.46616468,-0.7684942,-2.6210241,-1.709959,-0.30351132,-0.44964156,0.41849503
0.6499186,-1.1110964,-2.2676187,3.411762,1.1733217,2.5544667,0.099736325,-0.63616496,2.047962,-0.51799005,-1.6983172,0.67474395,-0.21901685,0.15733059,-1.6114223,0.54216385,-0.83615965,-0.18964767,-1.4627296,-0.649322,2.7733855,-0.5042578,-1.651952,-0.35063612,0.4149298,0.8300443,0.96140987,0.41949195,-0.42510015,-0.0366113,-1.0350204,2.5079064,-5.1740007,-1.0409789,-3.0762908,0.1376445,-1.3871474,0.050271768,-0.009150148,0.10504346,0.47804222,-2.2919364,0.087956235,0.56131893,9.997389,0.17854296,1.1300843,-0.32132238,-2.0496807,-1.5607979,-0.1988134,-0.53771514,0.21521886
1.1405013,-0.81888294,0.18382706,-0.32055506,2.1313493,3.287636,0.7765639,0.4235216,-0.2533941,1.6396607,-0.13893726,-1.4577712,-0.63502055,-0.10462334,0.16854107,0.5269706,1.3740519,-0.29336575,2.209864,0.48689958,-2.3744574,0.5182043,-1.2264516,-1.0331696,-0.113350846,0.64058775,-4.8207517,-1.3660868,0.7146395,0.12678866,-0.82395524,2.4424407,0.12699023,0.6055526,1.8688312,-0.9174457,0.18020087,-1.5551971,0.5783643,-3.5215023,-0.06919074,4.2917724,-0.12514488,0.30019388,0.5092454,-0.0210242,2.8990884,-0.022914436,-1.5218669,1.6848696,-0.32332155,-0.2358971,0.07424966
-0.40773618,0.19237138,-2.1084876,0.25887012,-0.76140845,0.36505902,-0.14361739,0.22106251,-0.31138864,0.7614183,1.6554099,-0.088015854,-0.34478158,-2.1028063,-0.99120784,0.21924333,0.24112247,-0.24220996,0.23772684,-1.079375,0.11179593,-0.4400663,0.3547992,1.132894,-0.11029348,0.076811746,-0.40180513,0.13528661,-0.56433195,-0.059318915,0.9202956,-0.20596147,-3.9589815,-0.20697266,-0.52911776,-0.36184064,0.2636772,2.9697454,0.26111674,0.5538768,-0.72271633,-7.9503293,-0.28408805,-0.09931652,-0.12681435,-0.19469713,-0.7491279,0.24737807,0.028626326,0.08540182,-0.9654264,-0.37356794,-0.13420518
-2.3480413,-0.826126,1.279259,-0.29578686,3.1409202,0.97254705,-0.51270735,0.58308405,-0.57183963,1.1974305,-1.8144791,-1.0095494,0.30274943,1.1749068,-0.6066433,-0.19228072,0.41463044,-0.5844666,0.16920514,-0.37692773,0.28469422,0.18490116,1.275233,2.1329105,-3.403447,1.1126591,1.1074383,-2.4440863,0.6823284,0.5612518,1.0853487,0.891289,1.1140946,-1.5306762,-2.201936,-0.8994037,-5.2096167,-0.7030283,-0.036791243,-0.046663966,1.1500559,-0.7118928,-0.6631696,-0.7084542,-1.7218066,1.4981643,0.17561412,-0.1750797,-1.2261844,0.22122277,-0.35847574,0.58602655,-0.63014114
-0.175468,-0.06777836,0.03418099,0.26700634,-0.24489836,-1.5202014,-0.40187246,0.91596067,0.015312153,0.009819377,-0.03972251,-0.1401196,0.36910227,-1.5761461,0.2015084,0.39170355,-0.1769781,0.29153866,-0.0054249032,-0.37008592,-0.12777346,4.260886e-05,0.6654635,2.6079383,0.24443805,-0.04733564,-0.41338575,0.000766291,-0.44457155,0.36608884,0.024554498,-0.5278544,-0.010239484,-0.10171831,1.4590107,0.105786875,-0.8139043,1.0889819,0.14431302,0.8003545,-0.22428656,-0.79657006,-1.3073016,0.25903982,-0.18929079,-2.2468462,-0.857088,-0.3279277,-0.11632304,0.037225295,-0.2686768,-0.28471547,-0.16177052
-0.6760244,-0.42234626,-0.34597874,0.50274104,1.2085658,0.77911276,0.18946023,1.08898,-1.3742623,-1.8271422,-0.124536015,0.36355644,0.059942186,-0.40925702,0.1962595,-1.5975631,-0.18285161,-0.8459759,0.34044442,0.21553978,-1.3881376,-1.1717429,-0.8801453,6.129752,-0.8085005,0.0833925,-1.0025777,-1.0697793,0.017759396,-0.02217629,-0.14223184,-0.17964621,-0.1274881,0.17706268,-0.27230892,-0.024581585,-0.13025878,0.410369,0.013586193,0.21420227,0.14607729,-0.63170815,0.1358005,-1.4203643,0.123217516,2.753443,-0.05141898,-0.20244321,0.20722345,0.08338084,-0.3819916,0.4774171,-0.002466783
-0.06377785,-0.8416537,0.023055725,-0.052924186,-0.119831525,0.14668788,0.02986306,-0.030043298,-0.08890073,0.29575917,0.04071498,-0.036729112,-0.06493113,-0.05622944,-0.033653777,-0.15200362,0.03938737,0.07937924,-0.007516778,0.08748975,0.056724276,-0.027001413,0.013404398,0.20493437,-0.023695808,0.046029013,0.013462665,0.02478443,-0.40600953,-0.020601973,0.16647916,-0.05447286,0.04446724,0.0037688182,0.10404935,-0.22866625,-0.008051564,0.28506482,0.073455445,0.19364676,-0.31180257,-0.39191937,0.4456323,-0.22024034,-0.0644861,-0.11192736,0.085783534,-0.41885725,0.08016006,-0.066715434,0.16260909,0.0059827277,0.22225101
0.67008686,-1.066041,1.2328212,0.35376292,-2.074336,-0.32958373,0.4101518,2.2023048,-0.27573195,-0.043055907,-2.2647688,0.0017036174,0.35769773,2.6874535,0.2756067,-0.41769075,-0.81470114,-0.742284,0.12130963,0.9331987,0.19392797,1.7542478,0.8168064,-1.3005979,-0.503601,-3.1732476,0.96521467,0.12853368,0.66589147,1.8081983,-1.9712955,2.4751694,-3.7812192,-2.1556425,-0.5452008,-0.574719,-1.8468301,1.3741559,-0.04503486,1.1451453,-3.4651272,0.57655597,0.065178074,1.6491073,-0.7937624,-1.1550832,1.3225914,-0.26321062,-0.35248554,-1.6229267,0.98332965,0.14530057,-0.48685798
-0.38154548,0.12771492,-0.43479452,-0.67204183,0.12698653,0.95280856,1.0892723,-2.1964402,0.1504562,-1.5773097,-0.019621253,0.3543926,0.43848175,0.41674474,0.45190617,0.17442186,0.43211523,-0.1745434,-1.8402498,2.035318,-1.0263722,-0.16940184,-0.11114221,-0.5091682,0.03636264,0.4864926,-1.6463096,0.14946485,2.0012288,0.79453737,-0.9794404,-0.711315,-0.12580903,-2.1899025,-0.2405696,-1.2828436,2.9662616,-0.12121724,0.30927154,-1.233257,-2.5352473,-0.47848347,0.5985289,-6.181346,0.79907274,0.42229167,2.7857494,-0.13151595,0.10442604,-2.2404335,-0.13129354,0.27400687,-1.1348662
