0,1,2,3,4,5,6,7,8,9,10,11,12,13,14,15,16,17,18,19,20,21,22,23,24,25,26,27,28,29,30,31,32,33,34,35,36,37,38,39,40,41,42,43,44
-1.1559255,-1.0946383,-0.11963265,-0.2920359,-0.64949656,1.3176459,-2.7293034,-0.74611664,-0.6516141,-0.08959639,0.57583845,-1.1790951,-0.6343421,-1.338641,-0.57766163,3.9666557,0.53284955,-0.77921003,-0.32021907,0.46928772,0.6693649,2.5422225,0.15513031,2.074421,1.3493836,0.7298668,-0.6570931,-0.3961564,-0.5113866,-2.5734138,-0.123532936,-0.16989875,2.6125906,-0.91653484,0.37837434,-0.43415862,0.3852871,-0.26575676,3.0432231,0.8082153,3.1917596,-0.49240392,5.0988836,0.012717366,0.27784133
-0.03402777,-0.10781831,-0.004784167,0.13456054,-1.1187568,0.048282124,0.027637932,-0.02374692,0.008766365,0.32795298,-0.12142946,0.10229508,0.014987159,-0.11259879,0.28504065,-0.37217593,-0.011220202,0.0740482,0.14163579,-0.24784727,0.17986545,-0.17319046,-0.009096288,-0.03296199,0.044854008,0.2532966,0.8399819,-0.33597216,-0.044743232,0.086823836,0.007996512,-0.053924102,0.5595467,-0.07797217,-0.08190907,-0.21434397,0.01338966,0.10246044,-1.0102158,0.23814823,0.44983643,-0.03893936,2.9318225,-0.12794665,-0.06576591
-0.48043403,1.7019235,0.015464985,0.20978601,0.4554523,1.3253576,0.3901064,3.002644,-0.18515454,0.13417417,-0.5657775,-0.041764535,-0.60100514,-0.16772282,0.1427876,-0.8559243,-0.6197617,0.41284463,-0.81127125,0.5159618,0.015549936,1.1114616,0.39036536,0.7319885,0.16025546,-2.147649,-0.32711732,-0.23806463,-0.022506667,1.1869304,0.17792775,-0.05699486,0.28308517,0.418478,0.6523447,-0.5229479,-0.52204245,1.5423957,0.3659462,2.6565814,0.24828443,1.8763788,1.9173152,0.16464376,-0.6737596
-0.22823018,-0.45056117,-1.9045681,-0.4826611,2.1543639,0.80394626,1.1675301,-1.3847688,-5.374409,0.1260581,0.62011886,0.06210173,1.2623333,-0.31890267,0.3136846,0.09025657,0.68417126,1.3810105,0.30907336,-0.8724926,-0.32623407,-0.26325807,-1.0122831,1.3055629,-1.2070763,-0.27647537,0.51906765,-0.811037,-0.6161498,-1.1758947,0.29584253,0.19650827,0.54205227,-0.4650735,0.73451513,0.44591066,-0.26458952,0.98589295,-0.21581069,-0.59727776,-0.22458225,0.18406424,-0.0358561,-0.11518029,-2.626644
-0.1953021,0.7868407,0.013307387,-0.78933406,-1.1538024,0.38790008,-0.87511164,0.14260085,0.21941127,-0.17083766,-1.548926,-0.069378324,-0.056957535,0.80078304,-0.5211025,-0.6052979,0.49229494,-0.696253,-1.1353909,0.1811671,-0.7939005,-0.5771858,-0.04325604,0.21171255,-1.4770565,-0.10802773,0.3716605,-0.50801367,-0.8578889,-0.38174143,-0.95984143,-0.4975988,0.6623117,0.13088313,-0.8516378,-0.7228802,-0.028447483,0.7020282,-0.025038585,0.108822376,1.1510277,-0.5398428,1.8461807,0.18231423,0.5473559
-0.45843995,-0.75947154,0.27791345,0.21619892,-0.020526549,0.3487745,-0.7628878,-0.4763504,0.06418124,0.23161006,-0.2490951,1.291827,0.05095571,0.30166566,-0.4516158,-0.59810334,0.3368574,-0.818301,-0.5593829,-0.398326,-0.32435513,-0.48979038,1.2520317,0.47284585,-0.3930777,-0.4629558,-0.026502436,-2.6701677,-0.43115893,-0.5701969,-0.8986686,-0.6907344,0.39785433,-0.8234623,0.100867465,-0.65165097,0.55568707,-0.5682872,0.39505643,1.0442152,0.03096265,-0.10505786,0.5624503,-0.15982218,0.21473394
-0.02924187,0.062843524,-1.2775987,0.38693202,-0.7048206,-1.6691045,-0.84326285,1.5786518,1.986568,0.0534752,0.97192776,-0.03244911,1.2262934,0.6097559,-0.052800007,-0.7517767,-1.9265546,-0.82807034,-2.5486095,-2.2308135,0.7275215,-0.7434701,2.169749,0.2481674,0.89590657,1.2277465,-1.2851619,0.74271786,0.53006214,-0.8350923,-2.6232297,0.45220876,0.93886113,-0.25708264,0.5744073,-0.3307639,1.1403801,0.7653541,-0.5987733,-0.19386159,1.1452129,-0.3304377,-0.5496683,-0.2698806,0.2126606
1.4217304,-0.7579078,-1.7178562,-0.8866297,-2.1135623,0.94880337,-1.088934,-0.8433034,-1.606144,0.30056322,-0.17321908,0.8731714,-0.8157707,1.0653709,-0.568999,0.6851722,0.18128394,-0.8990929,-1.568529,0.2610433,-1.4379185,-0.7083255,-0.6835623,-1.6698822,0.021798154,-3.059878,-1.004695,0.007708699,0.31375608,-0.078605786,0.66249114,-1.2853415,0.22364245,-0.5845218,-0.8872842,1.6309052,-0.053711917,0.97265,0.62745553,0.15280156,0.26764116,0.24265316,3.430342,0.31088802,1.3527061
0.16516504,1.2954949,-0.51234186,-0.15397824,0.99165267,1.0362787,1.7398809,2.4371827,-1.7920337,-0.14787562,0.16644917,-0.2917352,-0.7550472,-0.03935063,-0.19225264,-0.3148413,-0.97384226,1.7697188,0.7258456,-0.090554684,0.18272585,0.17996322,0.8010386,0.09096903,0.35192513,0.24942411,-1.0833523,0.5461879,0.49293697,-0.15661094,0.102379054,0.046533152,0.6436235,-0.3367726,1.0810747,0.3363542,0.572951,-0.18413505,-0.27666557,-0.65586466,-0.42926377,2.3763993,1.696894,0.280485,0.6687289
0.0026556633,-0.41635355,-0.09940859,-0.063621,0.8124228,0.054406006,-0.6456159,-0.04420207,0.7616206,0.30282998,0.16228016,-0.2086168,0.19897674,0.06905434,0.1081568,-0.03878296,0.4499878,0.55768156,-0.26534438,0.5051246,-0.39967528,-2.257578,-0.35539284,-0.16958107,-0.49818116,1.0581597,-0.70071757,0.5435056,-0.58937055,0.77820176,-0.57996655,0.11392243,0.549911,-0.72375995,0.029193165,-0.05414807,-0.27674377,-0.4374239,0.30499145,-1.0788659,0.75560766,-0.28688842,-0.68404514,0.026201898,-0.001311158
0.45095098,-0.047821876,-0.43139735,-1.101371,-2.968118,0.4703985,0.31973028,1.4677675,0.526021,1.1850224,-0.55804175,-0.13735472,1.2903025,0.21792904,0.3005106,-1.368832,-0.30369446,-0.43994045,0.102404684,-0.24252056,-0.751402,-1.6154616,0.4658153,-0.15415671,0.18348454,0.58742464,-0.37793693,0.3004124,-1.7042342,1.5061303,-0.6816627,-0.23608841,0.39657855,0.42782524,0.33091193,-0.43756816,0.042884238,0.41809618,0.73905,-0.20997895,-0.07699206,-0.05916442,0.7764241,0.15894832,0.53523964
-0.04233168,0.15729211,-0.73764396,-0.2046172,-0.0704647,1.5448676,0.4422096,0.7400657,-0.4479002,-0.55940014,-1.1906706,0.34069684,-0.88528275,0.32020557,-0.2601684,-0.5282174,-0.1957949,0.15984137,-0.15504804,-0.811942,-0.6936089,1.0323178,-0.31218132,0.4114386,0.53602517,0.13332893,0.31408125,0.66025907,0.035820175,0.4019811,1.4920182,-0.45851713,-0.13211061,0.51415974,0.5601107,-0.10642607,-0.16739956,0.24375986,0.40750432,-0.5045912,-0.41191614,1.1082091,0.11859364,-0.035511926,0.11724647
1.3496548,0.19824871,1.9849705,-0.0413767,0.3490855,-0.09712397,-4.680153,0.46697795,1.3694273,-0.1685612,0.08411687,-1.4732741,1.0307968,-1.480586,0.71015984,-0.18997177,0.55235034,-0.8221544,0.07603908,-0.41950923,-0.4557292,-0.8609308,3.8960636,0.4828276,-0.13277091,1.4904386,-0.39403564,1.5719968,2.4873366,-0.901817,0.03233278,-1.4627416,-2.4336011,-1.6184192,-0.10186459,-1.1529782,0.8550811,-0.5883258,0.24578705,-0.6445305,1.6852005,0.1972093,-0.96113896,-0.118739344,0.20887718
-0.32086664,-0.18937695,0.14472887,-0.11351778,-0.119607426,0.45680532,-0.22535628,-1.1454256,-0.16014047,-0.53590333,0.45842785,0.9508791,-0.32655212,-0.70520467,0.0900073,2.1916935,-0.14502934,-0.20762472,-0.056461316,-0.15974948,-0.06406498,1.8989744,-0.94722664,0.2825734,0.16499494,1.550133,-0.3316174,0.028216314,-0.14268008,-0.27352145,-0.9021623,-0.6146861,1.0421079,0.84481114,0.14749172,0.2037954,0.32941535,-0.40218088,1.3108804,-1.2368791,1.086814,-0.040673845,2.7302275,1.2813876,-0.0023537888
-0.4553704,-0.013850814,1.6302186,-0.4050101,-0.32344317,0.6080582,0.32797953,-0.076562665,-2.5170934,-0.16678767,-1.8978629,0.32868862,-0.070301235,0.4592369,0.17896228,-1.05847,-1.2624266,0.2980693,-0.028298508,0.2592068,-1.1241994,0.9614017,-2.2488172,1.2182772,1.353245,-2.1645856,-0.07095485,1.0687137,0.56038165,0.14250296,1.4506612,1.4727373,-0.27589095,-0.03513373,0.02182173,-1.4316049,0.29805717,-0.527572,0.7657443,-0.79789275,1.8980085,-0.40168193,0.3767851,-0.038454138,0.68679464
1.3052455,-2.344884,-0.9789088,-0.2762503,0.07644485,0.06375334,-4.4213257,-1.2867197,-0.48042196,-0.13017428,-0.049712803,-0.15753287,-0.3585099,-1.6625422,-0.8824641,-0.9185607,0.9525764,-1.7280773,-0.8090562,0.70817536,-0.07366406,0.91258353,0.18883331,0.35466817,0.222423,1.122913,-0.35337165,-0.5652058,0.25052696,-2.0449579,-0.9080412,-0.27069545,1.2737085,-0.784027,-0.18399459,0.2581542,0.4634039,-0.0857445,-0.56105185,-1.1534073,-1.026389,-1.1213069,0.28113234,0.23118581,-0.05578119
0.8308188,-0.14358842,0.8193467,0.105173714,-1.1605519,-0.5735344,-0.5761331,-0.7252351,0.78127515,-0.13584068,0.69571406,-1.3108698,-0.86532605,-0.1061861,0.36880594,-0.5806067,-0.6033955,-0.7596747,-1.4934918,-0.42711282,-0.32183743,-0.036560018,0.22126147,1.2604518,-1.467746,0.32993534,-0.11792231,1.6047007,0.84096855,0.6541732,0.45504236,-0.010044049,-0.5861743,0.09484802,-1.1001884,0.4974081,-0.619396,0.05641097,0.23669575,2.1562722,-0.48184264,0.5508434,-0.973626,0.06667265,0.5678101
0.15688826,-0.13282792,0.10539168,-0.17257546,0.054398466,0.07659425,0.5500825,0.11061803,0.2765378,-2.5276942,-0.023085864,1.1294011,0.56415796,-0.5020324,0.42055425,0.40040112,0.32724816,0.27338767,0.48423287,0.16632684,0.09649038,-0.07471038,0.40911674,-0.09997087,0.3187091,1.5938138,0.014694525,-1.3106991,-0.2854866,-1.0465934,0.36420962,-0.49667534,0.2273652,0.51831865,0.05334077,-0.51495785,0.4471778,-0.3324284,-0.35264483,1.3728093,-1.353136,0.30560645,-1.0339259,0.2741137,0.013503358
0.010945753,-0.11358951,-1.0407323,-0.029376106,1.7237446,-1.4312278,-0.439752,-0.1657589,-1.200695,-0.18052877,-0.74964046,0.2947755,-0.36772078,0.38493317,-0.34695244,0.011000528,-0.58204365,0.010819062,0.16722146,-0.8470864,0.4144967,-0.05070922,1.9673713,-0.48122093,0.7775092,-1.7214744,-0.18366773,-1.2642928,0.38159734,-0.5373595,0.4192189,-0.576717,0.19201013,0.094245985,-0.76584905,0.081991225,0.38647354,-0.21047091,-0.29929373,-0.5179481,0.048730243,0.824942,3.2438543,0.11643779,0.7317865
0.3121018,0.097265236,-0.4477121,-0.22526218,-0.2680227,0.056798164,-0.5107988,0.18606332,-0.5408884,0.4179706,-0.49356312,-0.24505742,0.67065006,0.07326445,-0.19238198,3.6289177,0.31519943,-0.63000345,-0.3272844,0.23145276,0.41417655,1.7084507,-0.9111993,0.019120684,-0.07518808,2.2253697,-0.5204178,-0.8822525,0.31389037,-0.32121143,-0.31789026,0.47390324,-0.01920542,0.40621936,-0.25670433,0.28642735,0.0072936993,0.11762451,3.267456,-0.23634633,3.1439571,-0.24053976,1.0798869,-0.43584463,-0.16514271
-0.11435085,1.0923849,-0.6088746,0.12324481,1.0542178,0.80945677,-0.12549332,0.5678597,0.9884072,-0.083516076,-1.028824,-0.10319324,0.13488999,-0.04462075,-0.32305828,-0.08435762,0.25039303,-0.6408161,0.8980187,-1.1539309,-0.24234669,0.5459826,-0.39868894,3.6043336,-2.8297315,0.41439483,-0.3662588,1.2033784,0.19779165,0.25559637,-0.32973385,-0.12716937,0.5515651,-0.89870685,-1.5599374,-2.101543,0.24301378,-0.001017948,-0.07576137,1.4743313,-1.2996856,-0.7237626,1.6377052,-0.04900087,0.088450566
-0.22704424,-0.50211346,1.3311236,-1.3278663,-1.1880871,0.24007693,-2.4027905,0.37664682,-0.0061508953,-0.10649476,-0.4052275,1.2059304,-0.052154984,-0.55556476,0.80563724,5.4383707,0.0860702,0.14416248,0.4739583,-0.78281343,-0.33764175,4.208532,-0.3188963,-0.7691671,0.30846018,4.3387284,-0.91829586,0.89700377,0.37943277,0.051164392,0.5616359,0.9131452,1.3311299,-0.3773003,-0.6587615,0.099233456,-0.5142763,-0.40284392,4.1531916,0.019717336,3.3873508,-0.3162601,4.384114,-0.15819839,-0.107128024
-0.8282533,-0.5401099,1.4176527,0.2562245,0.6793894,0.8576873,1.1246829,0.21588853,-0.5615144,0.015657399,-1.8315351,-0.90987504,-0.8253632,0.405226,0.23383284,0.78576136,-2.4722323,-2.8565505,1.5016577,0.107393675,-0.49877617,2.041228,1.2937244,-2.8090997,-0.21929121,-2.1698265,-0.20220254,-0.6559702,-0.15081757,-0.77786356,-0.72872055,-0.894109,-1.03386,-0.092158906,-0.3798361,-2.699245,0.4171709,1.8503245,0.8612734,0.60308254,-0.44465148,-0.6634113,0.72683907,0.43788493,0.7165868
-1.031335,1.4943997,0.49452102,-0.4561527,1.521741,-0.42962912,-2.052984,-0.07966278,-0.9248676,0.21976319,0.0076542012,-0.20262681,-0.3041484,-1.1949228,1.3184844,2.4640255,0.12045475,0.033453085,-0.13377222,-0.24040717,-0.5752123,2.6027408,0.8998057,0.56523937,0.036213778,1.4018916,-1.6998767,0.40890694,0.34085968,-1.807568,-0.12984,1.607458,-0.01887533,0.08126845,0.15313524,0.21891288,-0.50968325,1.0167371,2.589284,0.63042754,2.733482,-2.4846404,2.2885752,-0.80324095,0.06613282
-0.40548185,-1.8606004,1.2682594,-0.23839627,-0.5286971,-0.36785218,-1.032773,-0.3022548,0.618893,-0.15838,0.82534105,2.193379,0.2538994,0.48168442,1.0562577,0.32715604,-0.19450733,0.060851645,1.5776652,0.6584168,-0.673587,-0.054558553,0.37786978,-1.8505963,-0.20080839,-1.1405163,0.3609042,-1.1727897,-0.6206052,-0.51897,-0.21542963,-0.32879958,0.3523001,0.07679821,0.26945388,0.6821541,0.44203794,-0.4475629,-0.30888763,-0.39367396,0.11473401,-2.1270633,0.30930847,-0.050634224,0.30067584
-0.14470233,-0.1694703,-0.6143135,-0.29645884,-1.2945386,-0.49925566,-0.7256657,-0.9366184,-0.113630466,-0.22735882,-0.36127418,-0.08110943,0.028951462,-0.24265857,-0.5469916,-0.39075086,0.09610189,-0.6258189,-0.65913963,-1.0786777,0.46831852,1.0417745,-1.2705157,0.85284644,0.5656531,0.40998957,0.33474654,-0.79506195,0.35286835,0.24902566,1.220565,0.29474273,0.12731239,-0.03601271,-0.23566222,0.41093457,-0.40984467,0.7536148,-0.7402295,0.249751,-1.157012,-0.781109,1.0715349,0.07586922,-0.7489257
1.0033212,1.0732863,0.13898043,-0.101773724,-1.8865498,0.81430364,-2.346162,-0.24238496,-0.26720268,0.053444557,0.21578194,1.0487192,-0.72147095,-0.4515775,-0.14806652,0.16869816,-0.27938843,-0.9261911,-0.32229668,-0.05864398,-0.009325114,0.04774631,1.0641657,-0.9118482,-0.4206424,-3.4695733,-0.71904856,-0.6401109,0.064850025,-0.38678297,-0.30055276,-0.20992877,0.7401716,0.4329105,-0.036639012,0.17042713,0.028718594,-1.5268745,0.41569445,-0.82631814,0.28020355,-2.3946848,3.9175186,0.10326458,0.5899869
-0.18001203,-0.8823414,0.007375066,-0.2899216,-0.030214477,0.76442385,-4.545548,-1.6639409,-0.4024167,0.27824637,0.4218569,-1.1662481,0.39787713,-0.25172925,-0.44200438,-0.05817576,-0.15102218,0.21282937,0.43680346,-0.9295476,0.3886944,-0.12947585,-0.64811057,1.0998609,1.2281657,-0.33041102,-0.011005611,1.8598111,-0.32750282,-0.1399899,0.5201313,-0.05104978,-0.07809833,-0.84358835,0.045640983,0.16049643,-0.5539491,0.8748776,0.395596,0.51625186,0.16639666,-1.3788983,-0.13195635,-0.07135392,-0.45269284
0.41724834,0.34831148,-0.5785356,-0.21734275,-0.2862412,-0.2808269,1.0408391,-0.07675051,0.10532181,-0.10026109,-0.3794941,0.86049867,0.34513763,-0.6414739,-0.3925258,0.8490773,0.17998241,0.5692138,-0.12489809,-1.3765011,0.69748026,0.77018535,0.08534115,-2.7558897,-0.95578355,1.5248431,0.19361857,-0.541828,0.39985296,-1.4178209,-0.19304779,0.60376585,-2.1390243,-1.1134353,-0.26987904,-0.4184682,0.01449835,0.24376243,0.054170102,0.087412305,0.9667414,-0.74572814,-0.5017821,-0.19486523,-0.047002897
0.7699556,0.4898755,-0.99095356,-0.15712766,-0.23256837,0.26287204,-0.1003483,-0.26932803,1.7337539,-0.71656424,0.6842159,0.20279409,-1.0536106,0.2387955,1.8462181,0.04136003,-1.5789652,-0.64319885,1.643388,0.14857067,1.2917755,-0.5883863,-0.13766125,-4.1792474,0.026426679,1.825363,-0.9583667,-1.031121,-0.57396525,0.5428683,-1.3199269,-0.34199557,-0.0401799,0.37342644,-0.29418316,0.12594262,1.4509568,1.011359,-1.5400602,0.0020429876,1.2267712,-0.06875824,-1.2735516,-0.031160159,-0.74545145
-0.24330579,-0.11740847,-0.35099256,0.08926491,1.0254176,-0.54988295,1.4807068,-0.2757267,-0.84610116,0.0040089907,-0.5452095,-0.40924564,-0.6014009,-0.69868946,-1.4370831,0.40954763,0.13377847,-0.1420118,0.4452107,0.31571293,0.21198706,-1.9612845,0.36916673,-0.62660986,-0.19639951,1.3569877,-1.7871152,0.19340631,0.14316256,2.0906315,-0.23579851,-0.09108645,1.111445,-0.5203096,-0.6984234,1.3721511,0.19314036,-1.2572042,-0.62432265,-0.22633238,-0.9671658,1.7960114,3.0185654,0.03307691,-1.319561
-0.50704366,-0.03593279,1.1814771,-0.121701516,1.1763451,-0.024547152,-0.6578516,-1.3917863,0.10554005,0.2564219,-0.49152535,-1.1417873,0.7360242,-0.19529209,0.403854,1.912887,0.009951843,0.8282486,0.53479755,-0.77116024,0.12859449,0.31954786,0.6208772,-0.36123693,-0.051323023,1.203807,-0.23387091,-0.77226484,0.7416996,-0.16318282,-0.47387052,-0.7056026,-0.43231654,-0.07182323,-0.24288733,0.26939985,0.63855314,-0.31429628,1.3068626,0.11581115,2.2639897,0.56305933,-0.9470608,-0.12923966,0.13868953
0.073662736,0.16748686,-0.21543525,-0.87082845,-0.8691678,0.64042455,0.09668297,0.17539144,-0.0054250467,0.016024971,-0.05651277,-0.024717763,0.9613032,0.8335485,-0.37828034,0.30030212,-0.189764,0.43385395,-0.2208373,0.09460766,0.029556353,0.34188795,0.048555754,0.024393974,-0.1420235,0.27203107,-0.029948909,0.12098171,-1.0445684,1.8575692,-0.19888951,-0.3054785,0.98078257,1.9552548,0.03675254,-0.17102079,0.24732068,-0.37565112,0.02414295,-0.24122536,-1.6223495,-0.019550977,0.4390289,0.2356388,0.35582566
1.9118465,1.022383,-0.010343853,-0.3575623,-0.86765754,0.35470703,-2.2963862,0.042398665,0.4781441,-0.16342579,-0.9172041,0.6890179,1.1698934,0.48190558,-1.0021284,-0.56232464,1.060501,-1.2394457,-0.425198,-0.7479509,0.18355468,-0.48682585,-1.2431763,1.7707292,0.5130493,1.5968187,-1.0903152,-1.489742,0.5460892,-0.005203922,-0.3738952,-0.4146968,0.7035682,-0.14937252,-0.2174093,-0.30557534,0.15608275,0.49137118,-0.18121263,1.2216451,0.27471203,-0.12793611,1.2780117,-0.030408043,0.36370185
1.5067683,-0.62861085,1.1210426,0.009447749,1.8830066,0.8445118,-2.2602246,0.23550786,2.1301167,-0.022675563,1.6180315,1.0615019,-0.6772885,-1.620253,1.8279517,0.1850825,-0.38483655,-0.03278875,0.07413688,-2.746557,-0.40953574,0.17839423,-0.24377683,2.1554408,-1.0318642,-0.042502686,-2.1851542,3.1543763,1.8010837,0.36750472,0.63665485,-0.12183347,-1.3558632,-0.081102535,-0.6638289,0.85551286,-1.306514,0.6161543,-0.18834867,-1.2226241,-1.3332536,0.5645793,4.061078,-0.3034694,-2.1398723
-0.80780977,0.02433343,-0.12938279,0.56930125,1.169525,-0.19756135,0.08609297,0.5729949,-0.1899716,0.03854526,0.3778665,0.3614453,-0.66039985,-1.322474,0.011278006,-1.2792891,-0.3041392,-0.88524085,0.7153304,-0.1556724,0.7069103,-0.22562207,-1.2406379,-0.5039096,0.37092793,-0.67110056,-0.47688043,0.1235263,-0.12433352,1.0804946,-0.17332964,0.6989012,-0.68258286,-0.6788785,-0.32039008,-0.16144586,0.7203098,0.6602671,-0.2588354,0.2645387,0.035295203,-0.57151294,0.8528532,0.07932757,-1.280453
-0.47105572,-1.7471501,0.84691435,-0.14439753,-2.3107133,1.1046699,3.1492448,-0.8433456,0.15501899,0.07683073,0.9489224,0.27033177,-1.8479106,-5.3582773,-1.4774661,-0.8774134,-1.1033616,-3.8327603,0.7585647,-2.2524297,-0.113911,1.3736427,-0.18513794,-0.90190816,1.0266649,2.5918279,-1.0548995,1.8698524,0.8723204,0.5050519,0.414082,-1.268588,-0.12761338,0.3746983,-0.6089351,-1.1292571,-1.7217193,-0.11328669,-0.083340205,-0.07313281,0.34319717,-2.9832494,-0.8627258,0.03220425,0.2652476
0.08690126,-0.29368272,0.41474915,0.25268954,0.35762358,0.2635181,0.7955109,-0.45637292,-0.2325449,-0.04002535,0.34121606,0.3716047,-0.11858391,-0.6914696,-0.03400125,1.9206288,-0.05576365,-0.07832276,0.34724617,0.23920278,-0.7380637,2.0651653,-0.6112201,0.15813491,-0.12725724,-0.7633559,-0.49937645,0.016380327,-0.8141404,0.21376279,-0.8351868,0.76822335,0.39757073,-0.14054443,0.44620657,0.10056662,0.37908298,-0.04622026,1.7645245,-0.09759015,1.4099895,-0.4293489,2.2950492,0.13459887,-0.4140403
0.53692275,-0.7019372,0.49248654,0.21907932,-1.4161475,-1.8779953,0.5485041,-0.901236,-0.93698263,-0.040221494,-0.3452639,-2.766716,0.14997306,-0.22888216,0.2539653,-0.9204296,0.89484274,0.90033776,2.002833,1.0790143,-0.62195826,-0.8104669,-0.49843827,-1.15144,-1.2497617,1.9461272,-0.78697807,-3.750913,1.396832,-0.06815188,1.4527417,-0.033495933,0.40864372,-0.039273836,0.6033481,-1.5861949,1.2475569,0.25668478,-0.23411737,0.59132093,1.0386417,-0.095344245,0.33746797,-0.15310876,0.5729319
-0.24606952,-0.16567439,-0.21798843,-0.7020584,-1.8039566,-0.76804376,-0.80522454,0.066140555,0.08867666,0.34293693,-0.22650538,-0.7409108,-0.15880218,-0.097830124,-0.39950114,1.7351315,0.37557605,-2.0989914,-0.8869955,-2.196465,0.23450407,1.7841183,-0.95718586,0.65854865,-0.042335235,2.9353797,-0.20700143,0.25767174,0.5667737,0.4519602,0.1543732,0.7394951,0.6772434,-0.8067231,-0.43019384,0.56672364,-0.144194,-0.05067654,1.9801177,-0.4142538,2.805976,0.32226953,1.257308,-0.20514019,0.14959921
0.43706888,-0.6001427,-0.501816,-0.17348677,-0.43272525,-0.63128775,0.029033374,-0.35092983,0.03995555,-0.037258502,0.17909658,0.47523457,0.6198647,0.34832993,-1.1905164,-0.742556,0.21542516,-0.82905376,-0.23708592,-0.07468122,0.25256473,-1.6179842,0.1974427,0.28081018,0.110550486,1.1307911,0.2275213,0.629993,-0.13192876,-0.31974578,0.3551861,1.1511853,-0.7064746,-0.049610946,0.08820345,0.29661763,0.077718966,-0.62393767,-0.95721316,-0.3096571,-0.016201803,0.43392834,0.5983308,0.04767865,0.040829476
-0.5989286,0.06940903,0.5868827,-0.6626042,-1.0945626,-0.0075795804,-0.4603485,-0.10902346,-0.22587925,0.06880678,-0.24264705,0.2747384,-0.14941844,0.022897381,-0.06934361,4.6310296,-0.31060392,-2.877538,0.12657891,-0.8525666,0.14973031,3.8275938,0.33612716,-0.2805419,0.019481689,1.2346997,-0.61279446,0.23459926,-0.7466508,0.51458406,0.022938263,0.583689,0.23136662,-0.48682326,-0.2132934,-0.5229203,0.16508535,0.4145834,4.0378423,0.25095376,4.2559104,-0.017604265,4.0200644,-0.09097216,-0.2903401
0.32227835,-0.17427115,-0.29798955,0.1634864,0.92854834,-0.10809249,-0.010678437,-0.3413083,0.22258681,1.3969378,-0.15874407,0.15302499,-0.3852725,-0.88813055,-0.13279037,-0.27943367,0.22815338,-0.8728401,-0.20893309,0.21314631,0.16250847,-0.41245577,-0.46424943,0.10002458,0.095973246,1.1689012,-0.37797776,0.024201863,0.44794795,-0.7567594,0.4472109,-0.12277833,1.4234759,-0.32853055,0.21505627,0.2913568,0.3012904,-0.0550686,-0.60722333,-0.47034514,-0.5709846,0.1619943,0.31497338,0.030435937,-0.15281643
-0.40270773,-0.13037315,-2.003841,0.6367961,3.501382,0.50362605,0.48314494,0.2144127,-0.93853,0.22069772,0.046321914,-0.21262315,-0.51009893,-0.38857082,2.1878433,0.40398988,-0.81847996,1.2596941,-0.37212953,0.7734985,-0.6195118,-1.9533942,0.28652176,-0.38884136,-0.3718037,1.7637441,-4.7498784,0.58372754,0.9779764,-0.12120973,0.81971323,0.04526177,0.48195413,-0.638662,-0.009527002,0.7372155,-0.13616332,0.68364507,-0.28998852,-0.86299133,0.98223245,-1.4601629,-0.6053996,0.7040697,-1.7821298
-0.67819023,0.62569976,0.54973465,-0.3009645,1.2253227,-0.85778266,-0.36298767,-11.087589,0.72386444,0.14065823,-0.39292008,0.33159083,-1.312272,-0.3567441,-0.28678647,-0.44043186,-0.9181898,-0.638451,0.10702354,-0.5612549,0.5836889,0.2233242,1.0026404,-0.110701,0.53788906,-0.27688956,0.65424603,-0.2007801,0.400851,-0.2334611,0.30198395,-0.24629211,-0.70520675,-0.36525136,-1.4195843,-1.0336642,-0.20069775,-0.117184095,0.050663013,0.62443006,1.4493277,0.040855337,0.15955155,0.17863001,-0.5805279
-0.0954573,-1.4441469,0.06618156,-1.38671,2.154499,-0.28009108,0.05625056,-0.6992824,0.94537574,0.31098187,0.3395212,-0.23760122,-0.45012164,-0.74713534,0.56488013,-0.3686548,-0.45543677,0.36202985,0.13910832,0.7033181,0.13536425,-0.031338967,1.8180134,-1.572446,-1.8661915,-0.16798592,-0.86036354,0.9168218,0.15399857,-0.64776736,1.2086871,0.41620797,0.17131723,-0.54150504,-1.6614891,-0.051088437,-0.7984596,-1.3513606,-0.053193856,-1.0300295,-0.100355774,-1.1084789,-1.8994753,0.09786591,1.1270765
-0.45198992,-0.8839236,0.08771929,-1.2422574,0.17736472,-0.5211056,-0.38990128,-0.80859905,0.04228432,0.10877012,0.29299316,0.045895506,-0.2788326,0.30060536,-0.54281825,5.1507063,0.37978363,-1.3278219,-0.888497,-0.46616063,-0.17942607,4.5941057,-0.29917562,0.30106026,0.0033456974,2.8490477,-1.8719056,-1.0062246,0.2542677,0.20928882,0.4890979,0.89586735,0.72196144,0.5654694,-0.11711206,0.6657137,-0.45546654,-0.49811342,4.741434,-0.5247578,5.668228,0.81590754,3.1214457,1.2377472,0.24104857
-0.1730307,0.2535911,0.38303843,-0.19848019,0.52205944,-0.0009537097,-0.16920196,0.07861021,-0.11259155,2.4612215,-0.45243052,0.028982703,-0.05798427,0.13707514,-0.093467675,1.5144055,0.12374082,-0.087060586,0.3021783,0.03851721,0.03364739,0.33418763,0.03841625,-0.39749274,0.13049617,-0.18655553,-0.27391818,-0.51079315,0.0032471947,-0.05431064,-0.44458628,-0.502199,0.26651132,0.023054658,-0.0035528075,-0.24145487,-0.002116944,0.077868454,-1.2005479,0.10293129,0.48592603,0.029077027,-2.841878,-0.0096263625,0.12431614
-1.2644466,-0.050512742,0.9406479,-0.28748062,-2.062927,0.20410775,0.0533341,0.3857855,-0.44997117,0.1291632,-0.2796339,-0.5198714,-0.04178185,0.31390363,1.2748976,-1.0427842,-0.8526283,-3.3329148,-1.4279628,-0.90901184,-0.032848943,0.060424462,1.3857459,0.9408763,-1.3098469,-0.23321635,-0.34277543,-0.9838808,-0.9610749,-0.20144574,-0.34069785,0.22203313,0.83728415,0.3152978,-0.6946141,-0.348461,-0.067970134,0.36109337,0.51104313,-0.79558754,-0.5316599,0.28796422,0.34061217,0.34124172,0.9118858
-0.68941987,-0.15857165,-0.21545275,0.31685266,0.3108162,1.784043,-0.8244025,0.37354514,0.037752725,-0.0248079,1.1967468,-1.0160509,-0.8737015,0.19086331,0.33222255,-1.8874332,-1.2179523,0.1300407,-0.02763462,0.056135513,0.68075764,0.9400222,-1.5998323,-0.6617361,-0.62864035,0.35238013,0.30360973,1.6930014,0.6020541,0.10847344,-2.126113,-0.26622656,1.1268603,0.119442254,0.3366415,-0.4675109,0.042348355,0.024383746,-1.1402246,0.92440337,-1.929924,-0.252052,0.9613833,-0.22545189,-0.95592195
-0.43504202,0.5048276,-0.9890364,0.67142427,1.6418798,1.4692862,2.831566,0.4127331,0.5599781,0.049075354,0.10273422,-0.2729389,-1.4109889,0.40025097,-0.9685224,-0.47697675,-1.9400424,2.2967906,-0.2544935,-0.21209612,-0.100010864,0.43813437,0.3536327,-0.48091364,0.1887474,1.2850231,-0.31747144,0.3951329,0.768928,-0.9292849,-0.08603144,-0.0895667,0.8734937,-3.4491813,-0.0962435,0.34802788,0.43170416,-0.1106176,-0.9772656,3.874726,1.3498238,0.6105677,-2.4359753,-0.50069606,-1.2017967
-0.27767283,-0.28818205,-0.15867856,0.9763773,1.4958578,-0.57483786,-1.3874274,-0.20222157,-0.08516743,0.08229795,0.3940319,-0.05050434,-1.2915331,-1.0789605,0.111562036,0.5169745,-0.05477002,0.1851648,-0.018390993,0.14691806,0.28018335,-0.011419555,-0.3546893,0.07530555,0.02839824,-0.14958602,-0.145832,0.052907586,0.14227325,-5.475801,0.65158993,-0.55376923,-0.45613492,-4.0247326,0.1291072,0.7105367,0.21263067,0.47597837,-0.32694972,0.08160286,1.24198,0.08645971,-0.71463037,0.217661,-0.23744088
-0.8288811,-0.20282611,-0.17370449,0.9180541,1.8917102,-0.23197341,-3.0015604,0.07857355,-0.41118768,-0.021363588,0.29626226,0.91778976,-0.8942798,-0.116043255,0.9710913,0.69535685,-0.096275836,-0.5928658,-0.36764613,0.4476351,-1.8177091,-1.1673923,-0.2795433,-0.32094046,0.12132856,-0.76216006,-1.8829672,0.09401896,0.012915297,-0.20948927,0.27749792,0.4777187,-0.49219236,-0.87214833,0.40343663,1.4274793,-0.3803127,0.19045664,-0.34057432,1.1102538,0.7354912,-0.16245957,-0.24329633,1.0550478,-0.8957633
