0,1,2,3,4,5,6,7,8,9,10,11,12,13,14,15,16,17,18,19,20,21,22,23,24,25,26,27,28,29,30,31,32
0.031798262,-1.2690247,-1.5809469,-0.2016514,0.26425302,-1.3684694,-0.71741855,-1.2081598,0.18099388,0.44626614,-0.4404052,-1.5331272,-0.81025606,-1.1810179,0.31181166,1.5178137,0.4278888,0.4545808,-0.68695706,-0.5513732,0.28137398,-1.6240075,-0.2220379,-0.90713316,0.33004823,-1.071728,-0.7500906,-0.17250033,-1.4547162,-0.87499833,-2.566007,0.8665531,0.08786163
-1.1370493,0.27808627,0.9799856,-0.14070328,-0.039875936,-1.8743622,0.52857864,0.06456046,-0.14550033,-0.60974437,-0.16041972,1.4847836,0.15536812,0.47721273,0.25641364,0.35304043,-0.015618753,-0.2327172,-0.531185,-0.5537581,-0.6980354,0.58122545,-0.007767453,-0.14430667,-0.27073833,0.039146457,0.4757301,0.080739036,-2.1057682,0.2064996,-0.5473449,0.58602595,0.74532557
-0.14797057,-0.07735186,1.9146539,-0.26697984,0.38102877,0.0023899423,0.23973402,0.18495221,-1.0232526,0.7208461,0.23756072,-0.020697584,-0.7930555,0.2164594,-0.04101128,0.21212249,0.18246503,1.2818455,-0.01609695,-0.27171838,0.88203216,-0.083038695,0.53098184,-0.22760667,0.08500185,-0.68651146,-1.7278591,0.404744,1.0249206,0.26702935,-1.2221696,1.1491665,0.21583368
-0.24721284,0.1135496,0.08377345,0.4033093,0.22874747,-0.005942744,0.4009375,-0.92497903,-0.07600569,0.17239581,0.016894817,-0.008880036,0.3732104,-0.15512812,0.24103384,-0.08125499,-0.372154,0.13959213,0.20856471,-0.18780911,-0.21658146,-0.34809205,-0.37319133,0.3136484,0.05387653,-0.27917686,0.12305637,-0.46999586,0.343213,-0.7154005,-0.3927366,0.68840253,0.040494993
-0.3122062,-0.25610515,0.6384201,-0.15719052,0.60700107,0.47122395,0.12079823,-0.47121915,-0.94622904,0.7254488,0.06337177,-0.2710646,0.25884303,-0.1135204,0.20106152,-0.4327665,-0.19382095,0.3094801,-0.75676346,-0.21056716,0.16596763,-0.6551196,-0.82551795,0.6633487,0.06962425,-0.32201716,-0.8259811,-0.2207028,0.0790367,0.10747149,0.2325806,-0.50689614,-0.33315596
-1.0993435,-0.06273425,-0.10191673,-0.26978472,0.2346505,0.18466456,0.16166589,0.34635806,-0.45188698,1.4893911,-0.4238059,-0.3122595,-0.63304734,-0.20725965,-0.48112297,-0.05857025,0.13672356,0.24585573,-0.03527629,-0.092624314,-0.9647986,0.09447193,0.24075317,-0.5534917,0.06744082,-0.23137282,-1.5988858,0.39687672,0.84539366,0.6026166,0.015345304,0.28665978,0.11267654
-0.093798235,0.04416368,-0.38898644,-0.4669775,0.77773345,-0.3996925,0.78226346,-0.5762428,-0.043669693,-0.33770874,-0.015002472,-0.45004094,-0.48168656,0.8230373,-0.179038,-0.5790884,-0.71080184,0.5068828,1.4635559,-0.09766093,0.36851585,0.08125583,0.3779396,-1.265736,0.052391943,-0.048083514,-0.8569081,-0.20228563,0.34568495,-1.7150325,-0.10294908,0.16301697,0.6284748
1.1130252,0.104312494,0.42269716,-0.0072222026,1.2439702,-0.8870259,-0.22265014,-0.63401914,-0.6272322,0.5844536,-0.31446314,0.66423094,1.3039691,0.64378166,0.71100515,-0.13166969,0.18878567,-0.2343201,0.48640898,-0.08373045,0.91068786,0.015646659,0.13960622,1.1680955,0.3331459,-0.91612196,-0.41677597,-0.16735522,-0.6414467,-0.2850482,1.1080328,0.34837395,0.65261906
-0.5327064,-0.9007545,0.13905165,-2.377854,-0.06479525,-0.08075224,-0.034381647,-0.2743962,1.0741681,-0.21024175,-0.40008536,0.22144878,-0.43764699,1.4127622,0.06433999,0.3399452,0.50648785,-0.0010040113,-0.9098533,0.63121855,0.22612907,1.196859,1.4987484,0.06261509,0.06418638,-0.325864,0.34038728,0.75803375,-0.35916907,1.286898,0.12696113,0.6756926,-0.0970555
0.14375737,-0.05090271,-1.0363455,-0.17866832,-0.40053314,-0.47001076,-0.49916923,-0.36629048,-0.55358994,1.9848529,-0.1899958,-0.9448355,0.845609,0.64192045,1.0189118,0.41110227,0.83681947,0.077577874,-0.062106837,-0.25580475,0.65138686,0.1901474,-0.41329262,-0.5807676,0.18930769,-0.76893514,0.49818492,0.038551304,-0.36483938,0.5406213,-0.6639827,0.5125079,-0.14555742
0.6653256,-0.4306367,-0.46314904,0.21687077,0.4349435,-0.8728694,0.16705362,-0.8210431,0.2790616,-0.6150029,0.025536083,-0.83829844,-0.27135316,-0.05626957,0.09211142,0.23208973,0.5459948,0.10498137,-0.21343672,-0.17602368,0.2289216,0.117489986,-0.2261247,0.5116078,0.27261877,-1.1304705,-0.19274762,-1.127432,-0.10269425,0.008920397,-0.014217443,0.41971388,0.54634553
-0.2386218,-0.8369193,-0.1433644,-0.95966274,-0.55105436,-0.71810794,0.3024668,0.057856176,0.091423415,-0.7224613,0.14948133,0.57334024,-0.02539359,-0.4263468,-0.71704084,0.44772157,0.68682694,-0.8603861,-0.031996742,-1.0349152,0.059683613,-0.6326726,-0.5926512,0.72262067,0.12328733,-0.022842571,0.1379186,-0.2502389,-0.6206777,0.3654139,-0.96607715,-0.052223608,-0.1640681
0.050077178,-0.16415884,0.09332963,0.006930764,-0.8185286,-0.4189437,-0.38391328,-0.19332978,-0.90438586,-0.074408524,-0.30101645,-0.079604834,-0.26576,-0.041710466,-0.3427983,-0.1859945,0.028411623,0.53701055,0.23132978,-0.47077233,-0.019259086,-0.8168377,-1.0496972,-0.24309003,0.19561179,-0.17580627,0.9089098,-0.57477087,0.49530366,-0.1589531,0.13881615,0.3121871,0.021052929
1.5441366,-0.043319955,0.0015712741,-0.22711195,0.47551212,0.8706414,-0.64456576,-0.2604772,-0.29681763,-0.1687106,-0.480031,1.337125,1.2047514,0.44049624,0.5493784,0.07816945,-0.8143499,-0.008300937,0.8949591,-0.2741873,0.086321205,0.53381705,-0.93598264,1.0646688,-0.18372484,-0.7211507,-0.45283478,-0.73928493,-1.0363548,0.26104808,1.8128368,0.3023655,0.08565415
0.9847486,-0.033742934,-0.33548847,-0.32023472,-0.9808002,-1.8934366,-1.0120473,-0.3369569,-0.6205108,-1.1536922,-0.34399903,0.8274877,0.62214947,0.39035496,-0.43533552,-0.44139838,0.70307547,-0.9410458,-0.32940218,-0.09761623,1.1818154,0.58512485,0.37726596,0.45533478,0.11401781,-0.49197116,0.422357,-0.44341597,-0.97390115,-0.325944,-2.0194054,-0.069002114,0.51376855
0.079497464,-0.06873103,-0.05317219,0.16663358,-0.12644435,-0.011771992,-0.09574321,0.14613117,0.12232188,-0.2219835,0.4032214,0.19075406,-0.1591519,0.22542433,-0.006861708,-0.3856678,-0.53645825,-0.16881013,0.40688902,-2.4543586,0.29438835,0.55196995,0.62523264,-0.8618576,-0.37275636,0.14123154,-0.21701963,0.14544265,-0.08946054,0.60043013,0.21328144,-1.4627167,0.07343893
-0.11516358,0.07286837,-0.14804004,-0.38745406,0.11527592,-0.08813185,-0.52958816,1.0623227,-0.12944005,-0.017741561,0.48163766,0.25065798,0.31900278,1.2984103,-0.04116055,-0.18834707,-0.49935317,-0.05456997,0.24145325,-8.428916,0.050802153,1.7481424,0.12748456,-1.3776594,-1.0561132,0.6624546,-0.59682095,-0.3076524,-0.31331727,1.463589,0.13560747,-1.7870195,0.11074185
-2.628755,-0.0012021881,1.1114242,0.10863226,-0.17838758,-1.0445609,-0.104809225,-0.123403564,0.19464198,-0.442571,1.3339407,-0.018120144,-1.0999247,0.15347923,-0.80015105,0.5845036,0.104455255,1.088042,-0.24343054,0.051584825,-0.5032737,-0.09936283,-0.072949596,-0.5414723,0.24873666,0.07662963,-0.07547185,-0.005243985,-0.74108326,-0.40506333,-2.065085,0.09286684,-0.30983377
-0.038602687,0.020376563,-0.027782027,-0.010641599,0.02324365,0.19952682,0.186575,0.1960137,-0.027342316,0.59377694,-0.09747098,0.58567655,-0.081216164,-0.82780087,0.2953362,-0.19962339,-0.019782338,-0.47143567,-0.35554695,-0.417619,-0.05818799,0.14127041,-0.047168434,0.48911798,-0.04947235,-0.19908288,-0.29065275,-0.8105257,0.19538839,0.15038303,-0.078437775,-0.11701037,0.0201437
-2.364922,-1.0460542,-1.0533414,-0.049599335,0.65530497,0.5331126,-0.8782022,0.032891173,-0.6357554,-1.7379953,-0.18334088,-0.67174655,-0.4431443,0.8362401,0.06886435,0.4933635,-0.17490458,0.34827018,-0.47173062,-0.12555628,-2.5311213,0.45163634,-0.7310987,0.8561354,0.17950442,-0.33616504,-1.2814462,-0.27282894,1.1617876,0.34921983,-0.13750574,-0.15219069,0.21138883
0.1805853,-0.6832462,0.3988915,-0.43701577,-0.8670338,0.118399024,0.0038456323,-0.37569496,-0.1499448,-0.15613933,-0.26291874,0.28230476,-0.8794911,-0.089674965,0.5582139,-0.27840948,0.5107435,0.51992804,-0.09738925,-0.0786521,-0.6008589,0.44563043,-0.79964995,-1.1752253,0.41936663,-0.0043353504,-0.063000165,-1.0796824,0.013500857,0.3067031,0.117511235,-0.48390496,0.04526007
1.260051,-0.7802138,-1.5148567,-0.74442,0.24016516,0.01057224,-0.4536299,-0.5711789,-0.91927254,-0.34755707,0.43442392,-0.9583673,0.26100877,0.09124847,0.4460541,0.60638624,-0.5148443,0.4552735,0.39419618,-0.017731456,-0.22704646,-0.5212039,-0.55232114,-0.6636437,-0.16944595,-0.101152875,-0.039541636,-0.107973576,-0.6583328,0.1612564,-1.7229071,0.17782514,0.5406051
-1.8672669,-1.0185357,-0.36173412,-1.0602449,1.1008558,-0.16449893,-0.0672447,0.15746874,0.1439989,-1.3722242,-0.40371612,0.43384475,-0.801566,1.8159164,-0.13253842,0.7535058,0.2733056,-0.24958,-0.76391083,-0.30370414,-1.2583526,0.7280892,0.38958064,1.0846336,-0.2896278,0.11376732,0.052368514,0.24840824,-0.66965455,0.19290587,0.39724323,-0.47827005,0.17977567
0.016099326,-0.47786674,0.3944607,-1.0125294,0.117998935,-0.3898437,-0.23890096,0.076648645,0.5602482,-0.73354924,1.486767,-0.12563397,0.40539384,4.3401923,-0.45678315,0.781304,0.013051796,0.15772364,0.19746442,0.11924159,-0.0021850024,2.4708622,1.3200215,0.22859187,-0.097988844,-0.06379098,-0.08361583,0.062263913,-0.76453835,0.84429973,0.3652617,0.5149718,-0.30274323
-1.0647261,-1.8077832,-0.3357655,-1.5786568,0.25261042,-0.35270423,-0.13131621,-0.6410094,1.1188318,0.36340225,2.451592,0.16446896,0.029246125,3.7390134,0.20179278,0.1773801,0.7553848,0.64237726,0.3862572,0.1217421,-0.28017867,2.4581795,1.2182606,0.41005856,0.105136275,-1.5524313,-0.35008776,0.050696444,-0.19106288,1.7851545,-0.168602,0.15057336,0.5483656
-1.2290939,0.53908885,-0.47459182,0.12433501,-0.8598862,-0.052574936,-0.49356225,0.30924043,0.2684043,-0.61845684,-0.3638909,0.25685644,0.42584133,0.2141248,0.3505066,-0.78112817,-0.59647673,0.35492864,0.19888875,-0.277643,0.29655254,-0.16161165,-0.5229614,0.8371895,-0.23311992,-0.3694889,0.19244783,-0.089752905,-0.31512818,-0.6871997,0.17424734,-0.059958637,-0.51356673
0.08794261,-0.23478796,0.047479883,-0.20702331,0.2503157,0.25144407,0.101807155,-0.059904102,0.15376118,0.12737444,-0.9620831,-0.097829774,-0.26603186,-0.19267121,0.15197839,-0.046276033,-0.028337069,-0.25632587,-0.5234725,-0.91289824,-0.2855162,-0.16968873,-0.7112124,-0.67381585,-0.25858217,0.03726489,-0.27245092,0.29931915,0.112980075,-0.2576373,-0.3005638,-0.6723046,-0.5375634
0.3213082,0.19601199,-0.65636134,0.44483852,0.5397558,0.078989565,0.16076376,-0.0332404,-0.052934807,0.060091376,-0.091014415,-0.39469263,-0.23860055,-0.28751007,0.107706726,0.07501268,-0.44291246,0.25544184,-0.16656527,0.06485349,-0.32382372,-0.10183821,0.3436962,0.79455864,-0.12188574,-0.28384554,-0.37228984,-0.24353582,0.42396393,-0.35955015,-0.48028466,0.82038945,0.22088031
-0.6105869,0.319551,0.20172292,0.19435395,-0.7196857,-0.55067617,-0.42387208,-1.8322086,0.04803484,-1.0650645,1.0036719,-0.03738751,0.5897368,0.8624207,0.80660594,0.30192232,0.6479221,-0.59814936,-0.79509777,-0.12144872,-0.5435836,0.3021281,-0.21117288,-0.15193534,-0.24511027,-1.446041,0.2310133,-0.4467474,-0.47725084,0.47481042,-0.08887982,-0.14405335,0.40672264
0.6720145,-0.13900505,0.10739963,-0.4200523,0.041264176,0.0059012817,0.36021277,-0.21201518,-0.94641143,-0.5137319,0.0023128446,0.5236351,-0.004073159,0.18549478,0.36454982,0.8635343,0.48485395,-0.06769767,0.07613084,-0.37895325,-0.05066215,-0.71393496,-0.9758156,0.23523301,0.042801175,-0.07157479,-0.015878268,0.19787171,0.027406685,0.051129542,-0.36064273,-0.27198467,0.10738309
0.12994888,0.7204335,0.1802378,1.1708921,0.36215287,-0.46279967,0.3724607,0.22129145,-0.55729026,-0.3657382,0.22070244,-0.093434624,0.031234981,-0.09014182,-0.22499739,0.09629719,-1.1112734,0.114155784,0.30968937,-1.4396229,-0.38319388,-0.08714532,0.82875097,0.6237409,-0.38137153,-0.33928186,-0.47550955,-2.9797976,-0.9197276,0.59900004,0.10085045,0.09598547,0.08827203
-0.21965712,0.009442595,-0.04718809,-0.120330706,-0.12156742,0.09099973,0.09751294,0.1860115,-0.568056,-0.6795213,-0.7655237,-0.010233864,-0.117486596,-0.018889196,-0.2553008,-0.43376195,-0.43066812,-0.74528897,1.1665846,0.07654055,-0.0074673723,0.16330442,-0.025255052,-0.20229217,0.28150353,-0.25056744,0.37732518,-0.4548126,-0.19539212,-0.08143873,0.1815763,-0.115941636,0.27972412
-0.97832644,0.40877306,0.5599456,-1.0796565,0.54691863,0.23515914,0.1383189,-0.3967442,0.89704156,0.6185651,1.1202953,0.38994548,-0.6633012,4.5529604,0.117965564,-0.3383993,0.11980987,-0.070720546,0.4674858,-0.007479282,-0.16096489,3.5701506,1.6227702,0.3080053,0.17177016,-0.93888026,0.09805633,0.34490523,0.4486015,1.3739643,-0.22405908,0.6123641,0.83575106
1.6620843,-0.29855642,-1.2873926,-0.1941401,0.6391719,0.5988069,-1.1970356,-0.06877498,0.079950176,-0.3985745,-0.24254395,-1.7584968,0.19318631,0.6028211,-0.06500241,-0.31691337,-0.31133282,-0.18332584,0.3653426,-0.047176503,0.9451684,0.30834225,0.056724787,1.1780587,0.17956868,-0.94192284,-0.2673766,0.26297623,-0.1552055,0.514128,0.61197203,-0.48667714,0.20966317
0.40585956,-0.26652443,-0.36973533,0.19040616,-0.2320831,-0.061562363,-0.018987188,0.12480064,0.3183386,0.27411178,0.85091716,-0.22790428,-0.2737071,1.9998307,0.09879116,-0.13432083,0.61261046,0.19174722,0.37504795,0.19682026,-0.6016086,1.6692837,1.1303415,-0.21292885,0.16491097,-0.60094315,-0.18091375,-0.43987453,0.21469568,1.0739366,0.09449037,-0.08005709,1.8803866
-0.2035562,-0.7302566,-0.038182817,-0.6679358,-0.39358675,0.15471984,-0.45768404,-0.32980642,-0.32889956,0.17151707,-0.29329672,-0.30380988,-0.2317619,-0.46298894,-0.0022010268,0.44600087,0.2987096,-0.28061846,0.5686072,-0.4389366,0.25158224,-2.2054143,-1.6034564,0.14691901,0.1082514,-0.539895,0.36976868,-0.10538694,0.6415191,-0.9961016,-0.042720184,-0.2614353,-0.2213245
-0.09754715,-0.09514948,0.037879083,-0.5163407,0.2386034,0.0004919515,0.113318205,-0.0068360753,0.28464514,0.09341562,-0.0983013,0.13923045,0.09734883,-0.44060627,0.039665,-0.017236196,-0.030682784,-0.25956655,-0.073275976,-0.2972568,0.26704174,-0.13040736,0.07575121,-0.3808391,0.15786992,0.28822842,-0.093367815,0.26308745,-0.45003307,-0.22024691,0.105040185,-0.7071483,0.10582397
0.00088564167,-0.0398288,-0.259566,0.0615701,1.700657,0.069330566,-0.19264133,-0.052224018,-0.133337,1.0446738,0.81346786,-0.29428297,-0.8746581,0.25392148,0.27995187,0.44746205,0.023405109,1.2697973,-0.4181168,-0.086296454,-1.5656167,-0.18529972,-0.29142183,1.2862915,0.30264056,-0.6150163,-0.021804307,-1.3992853,0.3743206,0.39184684,-0.11768722,1.2578446,-0.39854312
0.24298953,-0.107099615,-0.2099544,-0.26408315,-0.20812203,-0.4833476,-0.68163246,0.14549726,0.21900454,-0.4087112,0.026693465,-0.43558377,0.5322374,0.3995527,-0.11382082,0.31615004,-0.32124043,-0.27472252,0.07148286,-0.64145446,0.01678388,-0.025381463,-0.60946864,-0.8511012,0.106480606,0.021330368,-0.14527139,-0.58718884,-0.88955396,-0.34799767,-0.04506017,-0.20819637,-0.222544
0.18767874,0.8008271,0.18524393,0.31527907,0.28391102,-0.2400859,-0.23724534,-0.47286743,1.5338864,-0.27726358,0.46310574,-0.3895305,-0.34858733,0.928008,-0.5345137,-0.43837517,0.81611824,-0.21371973,-0.10791041,-1.7672771,0.37641242,0.4852092,0.9849779,0.7135606,-0.0009058323,-1.3322606,-0.47700724,-1.0648619,-0.08057179,0.46549976,-0.9870812,-0.22255078,0.6964564
-0.21406694,0.28114823,0.29702902,0.5540012,0.43421167,-0.2689572,0.17300451,-0.8118077,-0.09734356,-0.27742654,0.027110828,0.35304648,-0.11112964,0.5291768,-0.31960946,0.47918692,-0.115681075,0.38502228,0.25089324,0.13106458,-0.4901351,0.46006027,0.23870373,0.28364572,-0.1265162,-0.6494078,0.22211692,-0.46201065,0.31532186,0.2830692,0.0581756,1.2275126,0.05814384
0.41445214,-0.66858095,-1.292803,-1.0073593,0.2819828,0.4456062,-0.045359757,-1.0093676,0.83333504,-0.8294007,1.8535448,0.055748407,0.48337445,3.369605,0.5256265,0.116023734,0.36674473,-0.48014134,0.07944009,0.073669314,0.048499838,2.7831495,1.3040608,0.43349323,0.15120557,-1.0770416,0.04591923,0.086724415,-0.5976125,1.7985731,-0.05303783,0.1388851,0.58580256
-0.42337054,-0.3821708,-0.4817247,-0.34706056,1.0332049,0.46397865,-0.22275603,-1.4595063,-0.8429138,0.49373218,-0.16673672,0.9892654,-0.22981474,-1.036338,0.31830844,0.34252423,-0.14994028,0.40313366,-0.9547535,-0.23579027,-0.39027286,-1.8915507,-0.63556683,0.9654339,0.14794187,-1.7510154,-0.44162056,-1.1763088,-0.20625708,-0.8005884,0.080671854,0.76767814,0.7032462
