0,1,2,3,4,5,6,7,8,9,10,11,12,13,14,15,16,17,18,19,20,21,22,23,24,25,26,27,28,29,30,31,32,33,34,35,36,37,38,39,40,41,42
-0.14887457,-0.3445812,0.26325133,-0.41200328,-0.8518472,0.09887714,-0.6056257,-0.22861466,-0.16757864,0.5161472,0.23791341,0.20703495,0.7454269,-0.33349502,-0.19438903,0.020244507,-0.07249808,0.015455404,0.5526213,-0.44882768,-0.1404298,-0.62245667,-0.10840801,-0.28734833,-0.4987686,0.58347934,-0.32507542,-1.4193547,0.43728235,-0.25797302,-0.17331654,-0.8487398,0.33549222,-1.112154,-0.3210536,-0.36613822,0.023202246,-1.4003907,-0.41546434,-0.28716713,-0.43246332,-1.07382,0.836875
-0.2983492,0.17252733,0.07707626,-0.41538864,-0.16775607,0.07742038,0.16936167,0.08412063,-0.4197675,0.042050127,-0.30560496,0.32143936,-0.4913503,0.1405209,0.1492919,-0.71038806,0.025149666,0.18859378,-0.06292841,-0.08514269,-0.115508035,-0.20333499,0.08935082,-0.02512152,-1.2276103,-0.24217911,-0.4293375,0.003278326,-0.4012139,-0.25327456,-0.2980605,-0.16946924,-0.69983196,-0.09366161,-0.27452397,-0.0870762,-0.50377315,-0.02429989,0.10792994,0.46490642,0.054239903,-0.7491534,-0.034805275
0.5824824,0.087010175,-0.19179438,1.1257585,1.314863,-0.20266527,-0.31991673,-0.08717409,-3.0872352,0.5599732,-0.299142,0.53145105,0.7868918,0.4318493,0.0073767733,-0.027660728,-0.42954645,0.42591962,-0.03545075,0.058695413,-0.13834104,0.36784193,0.9177394,0.65536505,0.44495788,0.11885213,0.5257816,0.04264961,-0.023740968,0.63134515,0.45624444,0.92905915,2.2666805,-0.0207226,0.5572709,0.15505455,-1.3002543,-0.16436855,0.27964717,0.096352376,-0.7487299,1.0992306,0.068624884
-0.53195596,1.2291188,-1.3549179,-0.113213755,-0.16618204,-0.71529824,0.19288547,-0.06761548,-0.47087538,0.30748102,0.09149895,-0.3499364,-0.30227673,-1.1164974,0.9538918,-0.33000273,-0.44951966,1.6523802,0.24772993,-0.86231375,0.6863356,-1.4591599,0.7217056,-0.86921,-1.2197986,-0.24170063,-0.07332329,-0.12234514,0.27828792,0.30800673,-2.8537438,0.13847665,-0.57845676,-0.16525872,0.11774713,-1.0468944,-0.021812687,-0.40468562,-0.3539595,0.4887086,0.31784227,-0.65354997,0.23992802
0.03424505,0.21494505,-0.76980805,-0.26918244,-0.91333085,-1.3163775,-0.032932412,-0.23014459,-0.0055374685,-0.03536089,-0.336903,0.53820515,-0.2999517,-0.28111574,-0.49007913,-0.50578535,0.27796707,-0.25684488,-0.045246422,-0.5049632,0.37464815,-1.0742751,0.17938039,-0.1136579,-0.049211573,0.16174267,0.5232836,-0.14113496,0.44997987,0.013775214,-0.16211309,-0.047229663,-1.2658218,-0.07926209,0.015048578,-0.31172234,-0.73245424,0.2708577,-0.7395584,0.48599398,0.14300199,-0.3854965,0.25774503
0.24497828,0.012689992,0.06847018,-0.4814137,-0.89059454,0.75977,-0.431835,0.69714236,-0.7324065,0.26606664,0.43360794,0.42474464,-1.6410974,0.013727327,0.7341542,0.03254113,-0.2011124,0.0901052,0.031062433,-0.5754449,0.06662405,0.23491523,-0.014388486,0.45043156,-0.7694939,-0.46426308,-1.5962118,0.45638007,0.108389,0.5398881,0.29437503,-0.21408674,0.81833977,-0.97917926,-0.12323495,-0.18684842,-1.5262929,-0.31032073,-0.5300056,-1.7551657,-0.37887838,0.7410842,2.0027442
0.1498294,-0.06281987,0.03452201,0.3583724,0.20986366,0.06277223,-0.47423014,0.085785955,-0.070506305,0.022814667,-0.52613217,0.1358064,0.18695189,0.1970858,-0.14782588,-0.19866793,-0.008345464,0.06928865,-0.17378,-0.037095543,-0.078327425,0.109882064,-0.09174358,-0.022593126,-0.010401989,-0.018059844,-0.28053138,0.5605199,-0.21373345,-0.10472973,0.17769678,0.02134933,0.062375735,0.0785255,0.020221196,-0.49370408,-1.0399696,0.26322863,-0.23994532,-0.1763874,0.6700029,0.12654774,-0.28624055
-0.66129017,0.5832636,-0.14173982,-0.14747736,-0.65518457,-0.06838211,0.40291247,0.24179861,-0.4401022,-0.018635595,0.12698127,0.106370054,-0.19591095,0.05103919,0.60426813,-0.77518284,-0.57597953,0.07640025,0.04798129,0.21210192,0.51000035,-0.38072142,0.8129471,-0.064363845,-2.0587282,-0.16978228,-0.47454405,0.10590302,-0.03615124,-0.6627135,-0.1705281,-0.58658206,0.07522153,-0.05113013,0.21462463,-0.63500345,0.00850372,-0.6212349,-0.1742225,0.49754092,0.132368,-1.4921378,0.27474356
-0.41044366,0.20789021,0.09042857,-0.19696748,0.18805742,0.11563443,0.015558198,-0.36652234,0.025150193,-0.30743384,-0.7037744,-0.6189202,0.1372234,0.14028306,0.32165393,0.020474818,-0.022960283,0.029605886,-0.31241363,0.09192005,-0.08365758,0.08458447,-0.107751206,-0.1666624,0.17242292,-0.24015474,-0.023199951,-0.019223513,-0.030008664,0.27642363,0.13749939,0.22237524,0.18713462,0.04306659,0.05685533,-0.61514413,0.029853322,-0.13139644,0.058233317,1.6080511,-0.10658837,-0.09016664,0.1124347
-0.43725064,0.2904174,-0.7959945,0.104314946,-0.21381934,-0.8367713,0.1654012,0.28024727,0.14652838,0.18929003,0.019479217,-0.41983825,-0.7682457,-0.17983076,0.23833288,-0.25453198,0.20628928,-1.212996,0.5745914,-1.0079352,0.1274804,0.70751107,-0.33576784,-1.6478399,0.3035316,0.3144754,0.30958512,0.04503851,0.44561356,0.53021896,-0.6540235,0.24079852,-1.2922566,0.18927035,-0.16628712,-0.076399885,0.08170752,-0.027274096,-0.47137552,-0.99519837,0.11937534,-0.21900325,-0.55998325
0.086482085,0.68203676,-0.26006508,0.7028976,0.2926834,-0.2541169,1.0831316,0.37602198,0.10624907,-0.3473785,1.7092246,-3.0938017,-0.5246758,0.0265833,-0.3323848,-0.5240443,0.011169129,0.0012882346,-0.5903083,-0.1616557,0.9025962,0.32242113,-0.99572873,-0.60461134,-0.92234457,0.009339152,-1.1612343,-1.2871937,-0.048091814,-0.80387235,0.12716614,-0.16793714,0.15074995,-0.50864244,1.9578478,0.23725241,-2.8034804,-0.65756446,-0.094054885,-0.68750614,-0.7251306,-0.4089597,0.14425772
0.5668878,0.62254316,0.5043347,-0.57713705,0.3841359,0.076934285,0.027412707,0.24828893,-0.07487451,1.1432054,-0.51450604,-0.29322714,-0.1331957,0.89755344,0.23853971,-0.43608037,-0.13661367,-1.1658373,1.4723996,0.24676014,-0.6120643,0.8848286,0.10036119,0.95100963,-0.31487694,1.1466378,-0.60779077,0.17158477,0.008845013,-0.40397283,-0.35213134,0.17109159,1.1579096,0.47065675,-0.81026506,1.0015076,-1.0448551,-0.8965958,0.24327472,-1.3312469,-0.518494,0.9140533,-0.44023386
0.5232734,0.051913276,-0.042574562,0.33355194,-0.35375458,0.105814464,0.1518008,-0.38540593,0.050083034,-0.31368652,1.19972,-0.18153219,-0.6926225,-0.105775036,0.14886838,0.042575456,0.22330989,-0.10888539,0.01775649,0.20133062,-0.46167636,-0.04445542,0.019135436,0.034698356,-0.71172,-0.14478867,-0.35273358,-0.38453117,0.23087023,-0.3914982,0.18526195,0.012853125,0.1891182,-0.20928276,0.69998866,0.8429144,-0.65866554,-0.79021364,-0.13732865,0.37816632,-0.69877523,-0.38193527,2.154027
-0.19327863,-0.19535868,0.01784298,0.12960318,0.0028413446,-0.061811704,0.0707183,0.124851845,-0.97858906,-0.15961583,0.3011454,-0.1016849,0.2633896,0.07584383,0.058067553,-0.27477935,-1.7504772,0.06544375,-0.01784571,-0.047462307,-0.35018143,-0.08593807,-0.16125745,-0.2031303,-0.6913595,-0.04462824,-0.037306637,-0.02918168,-0.09094551,-0.01912452,-0.01808071,0.020335546,0.28036425,-0.08053488,0.049948197,-0.06964193,-0.029231148,0.05688504,-0.10252899,0.02080742,-0.08383899,-0.18983655,0.06706212
-0.646551,1.56199,-0.23979986,-0.47206646,0.2288757,0.0316821,0.8054362,-0.11222634,-0.31911337,0.28017038,0.46092376,-0.8544923,0.5424503,-0.1261545,-1.0604066,-0.28467217,-1.5458418,1.4885164,-0.22131827,-0.45871326,0.6989134,0.46360663,1.0512134,-0.058217917,-1.8400843,0.090015575,0.12694976,-0.853694,0.45664763,0.09400182,-0.48701578,-0.3463208,1.215158,0.031039009,0.78205824,0.5602227,-0.37580463,0.13200907,-0.20549877,0.6230608,-1.6235449,-0.59343994,0.7331941
0.6939224,0.034813434,0.26208133,0.1667705,0.17018336,-0.04386321,0.6835355,0.014308234,-0.72151935,-0.30965158,0.017172422,-0.39977115,-0.19280583,-0.27313814,-0.28248724,-0.68749976,-0.2829739,-0.020962384,0.2855275,0.38662046,0.37473366,0.19573767,0.09056285,-0.49440724,-1.3141769,0.2992116,-0.013474983,-0.51799583,0.08775889,-0.22851455,0.09515634,0.03561996,-0.65209955,-0.40271354,-1.3613942,0.44878498,0.49889398,0.1838189,-0.15728025,-0.7686048,-0.4931642,-0.8692212,-0.17605121
1.2897855,0.28032103,0.28288776,1.6344174,-0.2807666,-0.41180274,0.20266691,-0.1783279,-0.20840916,0.8207332,1.2897696,0.31208116,0.5427306,0.20091227,0.2035474,-0.3376407,-1.2358006,-0.5928221,0.65898347,0.63760096,0.9905379,0.42282864,0.2091463,1.4163998,1.7090837,1.1603467,0.28390792,-0.35246772,1.5304945,1.5458108,0.33345395,1.1526961,1.9070853,-0.11841748,1.2114093,0.66054404,0.45164663,0.337293,0.24218531,-0.20235631,-0.050203662,1.5377762,1.9113775
-0.032728244,0.4486465,0.28812832,-0.2757989,-0.061410572,0.17130932,-0.09443688,-0.17005135,-0.7043048,0.36348674,-0.8854176,-0.29753444,-0.55373454,0.33041894,-0.75854087,-0.9753621,-0.112004094,0.18825877,0.3202938,-0.03216999,-0.051649686,0.37527698,-0.29188573,1.0175879,-1.9654025,-0.031125141,-1.0728242,-0.120060556,-0.2496577,-0.10429225,-0.32212517,-0.25624108,0.032470334,0.11925182,-0.36046118,-0.15673761,-0.63199097,0.72282344,0.010707456,-0.8879652,0.3935996,0.17805368,-0.51723254
1.4867464,0.5310209,0.33321175,0.31838173,0.5070535,0.15530485,-0.0019949374,-0.3481833,-0.013052218,0.021929633,0.082852416,0.488086,-0.07073656,0.10783856,-0.32517385,0.65094703,-1.4645423,0.53835446,-0.4837373,0.26934043,0.22056101,0.6626833,0.085039556,-0.08597098,-0.058026645,0.5498467,-0.20664133,-0.011595509,0.2036847,0.4727785,0.12708803,0.29405215,-0.36493933,-0.5709613,0.649179,0.716032,0.28326926,0.16754106,0.37989935,0.7424971,-0.0045069996,0.32763553,0.099777184
-0.15786816,-0.41070363,0.09187129,-0.32566488,-0.27173886,0.12921627,-0.12149518,-0.9254817,-2.238212,0.47369686,0.33112705,0.5238682,-0.090671904,-0.25314006,-0.096339345,0.74439067,-0.57597363,0.46214414,0.96631825,0.25854245,0.07637657,-0.20840955,-0.26385877,-1.2031382,0.64873475,-0.040782567,-0.08471818,0.18782836,1.211127,0.21584807,0.12010627,-0.5793672,-0.8747926,-0.23866607,-0.3137726,0.007673515,-0.117136255,-0.8675235,0.29859668,-1.3040448,-1.0148613,0.6166988,0.9187936
-0.20557997,0.29533967,0.39423177,-1.3969065,-1.6416867,-0.50205296,0.46965432,-0.0062263487,-0.0014901464,0.019942421,0.55641204,0.36230743,-0.7406182,-1.3660254,0.5481357,-1.0326184,-2.963652,0.25386047,0.27870834,0.17430602,0.6668719,-1.1564851,0.10022391,-0.46614885,0.15108636,-1.4290107,0.6825564,0.17476581,0.29265383,0.3679384,-3.7506726,-0.47754613,-1.0544775,-0.4397877,0.73031276,0.7409421,-0.35183188,-0.3667204,1.3621848,3.7419221,0.37302402,-0.048539713,-0.3862557
0.048673306,-0.051434726,-0.26173446,-0.080862135,-0.2925994,-0.018799651,0.32005727,0.29485503,-0.08256457,-0.61702937,0.030785982,-0.030956073,0.35555896,0.100323,0.4237474,0.20574299,-3.0068946,-0.22579809,-0.1687649,0.16578832,0.1793103,0.07183416,-0.008279498,0.29996985,-0.16519932,-0.174622,-0.16790304,0.31748807,0.5136956,-0.2331051,-0.09231464,-0.25887677,0.4433443,0.11629328,-0.6628909,0.048795704,0.14929245,0.33042574,-0.19102223,1.0239462,-0.16556507,0.12396565,-1.0401965
-0.081976004,0.09168866,-0.10178115,0.017985923,0.024429174,-0.008460148,0.1052935,-0.092407435,0.0023025265,0.017563954,-0.10865604,-0.19637768,-0.0020824573,-0.017180914,-0.11998987,-0.015320593,0.00026563808,-0.16100357,0.033422373,-0.023189235,-0.1925437,0.10513061,0.14700466,-0.07249326,0.1480346,-0.048781928,-0.057912365,-0.014588126,0.05473961,0.009403378,0.013008313,-0.033899587,-0.05473579,-0.11645272,-0.021040589,0.12078526,0.027422296,0.19348387,0.05381312,0.10787794,-0.018834751,-0.055023532,-0.17271696
1.0034972,1.2518678,0.3075597,1.5816311,1.4624879,0.21420775,-1.3078369,-1.9758679,-0.010480515,0.9018655,1.0742134,1.1404017,1.2482656,0.48144275,-1.9223257,0.82747865,-1.4574257,1.647682,2.0185986,0.98733693,1.2647313,0.8935745,0.49028897,0.241991,0.97703034,1.254011,0.03298068,0.16172178,1.638708,1.4794346,-1.1564441,1.0253319,0.36809504,1.1622187,0.8792116,0.4597562,-0.8643802,-1.1958092,1.7727907,0.94376534,0.97550285,0.5766337,-1.0294418
-0.20890932,0.1305522,-0.19850665,0.04933243,0.10113156,-0.03764539,0.04339347,-0.08285876,0.0014712127,-0.028693268,-0.0061104693,-0.059748743,-0.19710658,0.06082313,-0.06291021,-0.04489379,0.0067561315,-0.21730465,-0.07494723,0.012636877,0.2603507,0.13828674,0.18796535,-0.026960298,-0.05492416,-0.15120035,-0.04363726,0.052464113,0.35080233,-0.054436125,0.049319208,0.16538319,-0.067407854,-0.27622974,0.003058542,0.10474626,0.040725276,0.16014928,-0.0043966793,0.10612012,-0.090391584,0.10869589,-0.14658675
-0.080579236,-0.120058514,-0.038986895,0.025571568,-0.012832976,-0.079999544,0.19763856,-0.09610896,0.009570764,-0.25329167,-0.05053931,0.02789874,0.010583675,-0.015303665,-0.09110977,-0.29069936,-1.953936,-0.06992019,-0.22766821,-0.046753533,-0.055067375,-0.1323069,0.17453109,-0.26398236,0.20347525,0.005494568,-0.02616349,-0.009085639,-0.0642515,0.04782098,-0.0275572,-0.12954669,-0.16335271,-0.0816413,-0.034029238,-0.019032238,0.0029840278,0.05919437,-0.06290776,0.17983,-0.04769522,-0.026819404,-0.1335656
0.62880784,0.11690575,0.097192384,-0.06684621,-0.021414703,0.023379568,-0.032835975,-0.015181462,-1.8066558,0.31945354,0.8768453,0.19866739,-0.18880697,0.058579262,-0.2620277,0.22852525,-3.0931885,0.15352494,0.6323208,-0.15932208,0.11692709,-0.4870266,-0.3911344,0.33239245,0.3690635,-0.14075713,0.045581054,-0.2990937,0.47125512,-0.0019973125,-0.04250919,-0.079574116,0.58233964,-0.18559696,0.0122450655,0.22538704,-0.11322095,0.4465314,0.7791819,0.51129514,-0.2925003,0.35922775,0.49893054
0.6911031,0.532956,0.06400645,-0.23674142,-0.076788954,-0.6069469,1.1814874,-0.10945456,0.2735413,0.83095527,0.025460158,1.9451337,1.0489992,0.4716228,-0.5108937,-0.5132906,-1.5938479,-0.7200014,0.77046543,1.0869954,0.5254515,0.18567015,0.7475827,0.11506938,0.03158955,-0.5249252,0.7891909,0.1293781,0.9544711,0.8316634,0.65184224,0.08892363,0.21241637,-1.1560427,1.537887,0.42072755,-0.34545922,-1.4945726,2.4528365,-0.105258666,0.14527236,1.2826821,1.1360593
0.64931303,-0.62061954,0.47220355,0.19865666,-0.05137776,-1.5342416,-0.37304035,-0.1876044,-0.9328789,-0.015417043,0.038606122,0.760888,0.6651458,-0.15400514,0.36317137,-0.31186986,-2.128332,0.30136752,0.96934605,-1.3376019,-0.30528483,-0.25139615,-0.06077753,-0.14876957,-0.019715495,1.2910662,-0.61245936,0.13703074,-0.014489484,-0.6065844,-0.123803645,0.14156975,0.22477785,0.083592676,0.93307847,-0.38961652,0.11481586,-0.08229256,0.25313756,-0.2370796,-0.2754105,-0.31701037,0.5246683
0.89031595,0.3855171,-1.3151035,0.42442188,0.8812414,-0.85235304,0.7065736,0.5099206,0.09924794,-0.22760949,0.25949097,0.11252383,1.0807037,-0.0041136653,0.45795247,-0.0986491,0.25090557,0.6456793,0.258223,-1.3850255,-0.24182732,1.4249821,-0.41178036,0.088254414,-0.73282677,-0.67118126,-0.73832476,-0.1596516,0.7228039,-0.6361643,-0.067346014,-0.102509804,0.16791098,0.034892052,1.4658514,1.358425,-1.0203294,0.081283756,-0.17557359,0.24655347,-0.32765502,-0.31130826,0.27496454
-0.60836834,0.39644322,-0.0278424,-1.0098585,-0.48587635,0.013119876,-0.7159804,-0.20577182,0.08753561,0.22080249,0.095840774,0.48346096,-0.737297,-1.0404404,0.37328398,-0.1724762,-2.294354,0.36673263,-0.29129866,-0.068505585,0.005828506,-0.07815512,-0.20949817,0.18205467,0.029692702,0.11687415,-0.6310593,-0.45323253,0.200814,-0.07258164,-0.14068332,-0.26136395,-1.2745906,-0.43958393,-0.31138167,0.05896365,-0.18053128,-0.17828955,-0.45742655,0.04077221,-0.51290613,0.4059836,0.4017188
0.76176965,-0.49746245,0.32435247,-0.9640089,-1.3758562,0.07202144,0.105466925,0.089076184,0.51317185,0.42027983,0.14254569,-0.33687583,-0.0191312,-0.6132299,0.08263113,-0.9361618,-0.6139383,0.12504432,0.18395478,0.015841933,0.7519051,-0.8246498,0.17452405,-0.29097137,0.10691197,-0.3455241,-0.57652307,0.439186,0.39233857,-0.70808953,-0.20551634,0.076482736,0.018553542,-0.08646652,0.014465739,-1.1099237,0.002634117,0.18770032,0.4911087,-0.567163,0.21862997,0.10315093,-0.43489206
0.99907583,0.34391764,-2.229895,-0.09539082,-1.3643522,-0.70869905,0.5914853,-0.029973052,0.1489033,0.56637996,1.5473682,0.44052002,-0.17535155,0.23000352,0.48103204,-0.72110194,0.29986992,0.029804869,0.027117059,-3.5709019,0.3579283,1.2958937,0.38168445,-1.6383317,-0.22477508,-0.40730384,-1.2788512,0.4217557,1.6964382,0.5900623,-0.15663499,-0.43659416,0.09691109,0.5716963,0.30713373,1.2987705,-0.12928772,1.0400368,1.0489699,1.3656434,-0.4244041,-2.2293036,-1.167956
0.58120733,-0.19384286,-0.16784336,0.07241656,0.43424258,0.010800982,-0.17487878,0.6712555,-0.3312659,0.41828322,0.28547,0.27400914,0.8473944,0.22643177,-0.5154654,0.20848581,-0.30386612,-0.22463316,-0.5049651,-0.9289146,0.7846314,0.71320224,0.38142267,0.36115563,0.7622764,0.6373588,0.6824035,-0.513876,-0.29456648,0.1905533,-0.028872898,-0.28632718,-0.867635,0.8857657,0.269495,-0.93727833,0.24642405,1.2084582,0.37782502,0.3744012,-0.14731444,0.34217247,-0.392642
0.043231923,0.099699445,-0.16726305,-0.49058238,-0.20718214,-0.10198077,0.1919618,0.030523717,-0.113182634,-0.10672683,0.34214914,-0.26297382,-0.40909562,-0.2603234,0.434643,0.032410998,-0.47854313,0.16147758,-0.19607066,-0.1548713,0.117702834,0.539745,0.47758684,0.00033584362,-1.8761562,0.3222469,-0.0076818457,-0.6400303,0.15973654,-0.8104098,-0.14829123,-0.2830868,0.30168188,-0.34099245,2.218807,0.61909837,-0.09436544,-0.23894174,-0.26918566,0.41230115,-2.2766304,0.032734774,0.43329668
1.6464074,0.1602667,-0.45209882,0.46017238,-1.0519406,-0.17567886,0.6122958,0.28716022,-0.5544921,0.51387435,2.248932,2.0324464,-0.42290434,0.34368533,0.8719817,-1.5297353,-0.5188973,0.7004223,0.7153439,-0.053397857,-0.2666914,-0.95192814,1.0134474,-0.11313224,0.6533341,0.4252853,1.041708,0.77318925,2.4556632,-1.3912027,-0.03846546,-0.64423364,-0.0075840694,0.607589,0.5890205,-1.317681,0.5743744,0.19150488,-0.6604523,-0.4740877,1.1842644,0.066110544,0.4660499
-0.8611844,0.48236498,0.8155353,-0.5662159,-1.0978115,0.6641852,1.0326052,0.11273797,-0.3820389,0.43514973,-0.014982576,-0.20318645,-0.29578382,-0.7420244,-0.10271199,-0.70434415,-0.050599907,1.2873651,0.92144716,0.38320988,-0.107082084,-0.20867178,0.6524218,-0.6784102,-0.9719009,-0.9214285,-0.35907933,0.23889796,-0.15735127,-0.94178015,-0.2270913,-0.31059304,-0.5618862,0.50800747,0.02486966,-1.3674158,-0.69833434,0.35972145,-0.49938175,0.35166287,0.44966733,-0.3315381,0.8113329
0.015060571,-0.0008560057,-0.75087875,-0.43310282,-0.3468318,0.12907554,0.053832345,0.14394504,-0.17605704,0.32315376,-0.07511326,-0.049472954,-0.09127491,0.011392328,0.041897003,-0.23507157,0.07831035,-0.45648727,-0.047896635,-0.29743332,0.31574798,0.14078075,-1.2936598,-0.56475616,0.9061916,0.07054533,-0.02384347,0.20701729,0.28403765,-0.34248066,-0.032839175,0.24037239,-1.5146041,-0.03325545,-0.91247076,0.18257193,0.040785026,-0.13446228,-0.30041724,0.46514365,0.17077067,0.0899355,-0.25878048
0.17920107,-1.2722397,0.3630613,-0.18267578,0.20196317,0.655687,0.8359201,-0.046494417,0.04169477,0.12118856,0.29529235,0.19780485,0.14734474,-0.31787756,0.6438093,0.0735803,-0.020866679,-0.64630026,0.36052844,0.2711265,0.17027834,-0.27588677,-0.065857284,-0.08362949,-1.173035,-0.41661206,0.3192672,-1.002034,1.2855192,-0.017489543,0.09646652,-0.24521707,0.04771685,-0.7170033,0.08298516,0.43360096,-0.11517477,-0.6561917,-0.59734833,0.5400295,1.0635914,-0.37153217,0.11938216
0.10368106,-0.39711806,0.19140176,-0.1583011,-0.44184116,0.20822506,-0.2874201,0.45311484,-0.19721344,-0.27016976,0.72326,0.050096754,-0.23401496,-0.38469204,0.64880264,-0.29184672,-2.9650056,-0.19166799,0.25109798,0.32727492,0.09733929,-0.17332685,-0.08469332,0.50442594,1.0725684,0.27459067,-0.38353974,-0.018990044,0.641504,-0.6947472,-0.41867325,-0.088462286,0.18757106,0.010938216,-1.3103324,-1.0968202,-0.20214577,-0.295626,-0.7243946,-0.43600225,0.25318754,0.06698241,-0.2749038
-0.26721093,-0.6065298,-0.54398656,0.25955144,0.13798732,-0.77039516,-0.20995922,-0.11184009,-0.25289893,-0.66546106,0.21957205,-0.31811556,0.033373903,0.054961387,0.00026602435,-1.0657539,-2.872737,-0.30485415,-0.0732337,-0.18336304,-0.2214167,0.36407772,-0.12329765,0.106653266,0.24567015,0.03773065,-0.5728641,0.3856552,0.14548376,0.29698867,0.013303122,0.037030134,0.019968972,0.22676463,-0.12146825,-0.33708987,-0.2078367,0.04310299,-0.16961479,0.35076493,0.16436484,-0.6819582,-0.5464973
0.33094954,0.081579626,-0.0017846801,0.8410308,-0.52135754,0.119668886,0.71899277,0.53793144,-0.361484,0.123569384,0.6993615,0.16434692,-0.5199766,0.0917071,0.9187276,0.16631305,0.30303168,0.13603759,0.35910547,0.44001752,-0.30064064,0.56351054,0.62334555,-0.2574505,-0.67691123,0.23154956,-0.07772335,-0.35465065,1.2065948,-0.10437855,-0.17782408,0.12539741,0.101329826,-0.18207781,0.032532956,1.1299888,-0.0017511945,-0.21246606,-4.9138966e-05,0.40792036,0.115690164,-0.025259612,0.39914164
0.516162,-0.052619677,0.06631225,0.03355346,-0.13379598,0.101576366,-0.8574142,-0.47528708,-0.1287135,-0.19932476,1.265171,0.104902774,-0.1406358,0.06532068,0.1827129,-0.1520114,-0.007545407,-0.28028324,-0.11313905,0.07390723,0.04386442,-0.034269635,0.14870308,0.25546262,0.27145946,0.35974059,-0.27115875,-0.29986197,-0.5953648,0.14449264,-0.03601158,-0.14332609,0.00235617,0.060709495,-1.1836238,0.093287736,0.13697457,0.02711439,0.05286839,1.0356822,0.279908,0.76229745,-0.024403248
2.9252312,-0.079124525,0.5128466,0.82794714,-0.32964787,-0.16404419,0.086600915,0.008096596,0.42831954,1.0421189,2.2150486,1.3184636,0.7699212,0.40412217,0.5107683,-1.3047658,-0.14639853,-0.34863526,1.1849931,0.74427205,1.6293523,0.40615514,0.3764572,1.0185446,1.9084102,1.1360779,-0.25265753,0.22498634,1.8095922,1.7075919,0.7827585,0.9068587,1.759597,0.2614677,1.1597977,0.72073585,0.38961086,-1.0321809,0.62151814,0.85580367,0.090289205,1.3834958,3.155135
0.20496051,-0.39652476,-0.1295674,-0.267354,-0.15581398,0.27835596,-0.24925415,0.3848249,0.019571833,0.20772666,1.1729746,-0.02543169,-0.18351048,-0.20804738,0.52884835,0.18832578,-0.28049883,-0.19385046,-0.20401105,-0.12118662,0.21701375,-0.00652454,0.29881498,-0.14129244,0.5105375,0.1304675,0.74738187,-0.66757786,0.6878332,0.14339477,-0.24006993,0.012868424,0.021929214,-0.8650849,-0.8908796,-0.22014032,-0.14086244,-0.03735488,-0.61306643,0.7323973,-1.3067544,-0.407089,1.148847
0.76682425,0.020530468,-0.6850167,0.12284524,-0.31186143,-1.0877149,0.036376055,-0.14115782,0.18294618,-0.57742363,-0.071878426,0.55294377,-0.2973095,-0.108829215,-0.41181988,-0.2742389,0.16404575,-1.1457249,-0.0127345,-1.5980699,0.625403,-0.51626766,-0.09138835,-0.19864953,-0.058623876,0.7698171,0.42641774,-0.13808635,0.698852,-0.19921952,-0.04741025,-0.23809384,-1.2335833,-0.21839978,0.20469606,-0.4299372,-0.07227458,-0.8921038,-0.5352551,0.6206065,-0.1456041,-0.6288763,-0.31153852
-0.50505704,0.58371127,-0.05175311,-0.6213059,-0.11360347,-0.09749399,0.57111937,-0.13091342,0.12560208,0.50441146,0.0006906714,-1.4396077,-0.55335546,-0.23055796,-0.6209069,-0.63558185,-0.04570315,-0.3607567,0.6745734,0.02275574,0.28142545,-0.12908271,0.16389662,-1.570838,-0.21713012,0.27555883,-0.1420776,0.33714652,0.66652495,-0.8480694,-0.22774607,0.82653713,-1.1412731,0.071717754,0.27109382,0.11017729,-0.6555406,-0.46962067,0.21318468,-1.9261043,0.33128002,-0.94416994,0.60677254
-0.92664385,0.65806115,-0.7933872,0.18429817,-0.5805067,-0.7423952,0.7089384,-0.59861064,0.077501334,0.21755584,-0.02116099,0.45842263,0.1253737,-0.42570335,-0.43202475,-0.4517414,0.19842288,0.46427077,-0.35194048,-0.9265592,0.5271394,-0.5265565,0.2019376,-1.1435682,-1.0555786,-1.1021203,-0.6276453,-0.2792859,0.18941782,0.30044654,-0.44765392,-0.3613491,-1.8967444,1.0738851,-0.17400222,0.37492257,-0.8197273,0.25886375,0.2545208,0.69660276,0.1318031,-0.008097302,0.021925999
0.33568677,-0.03259087,0.033920866,-0.091319226,-0.20044316,-0.17923865,0.42050022,0.023740532,0.035266217,-0.3847849,-0.4253896,0.2671037,-0.17889091,-0.45112354,-0.21990028,-0.7939996,-2.1122656,-0.35279533,0.12114302,-0.102129236,-0.06330571,-0.31709158,0.07277852,-0.14231259,-0.4059253,0.05484758,0.04569428,0.14145097,0.36987853,0.37949103,-0.09195762,0.02041814,-1.1329588,-0.17956036,0.10209794,-0.19427097,-0.10541809,0.33358225,0.30484164,0.09730958,-0.05811618,-0.9466668,-0.6997258
-0.41918817,0.63724416,-1.4343354,-0.49134943,-0.2245566,-0.08206729,0.22541454,-0.10536137,-0.0053972425,0.1726974,0.31213722,0.015296482,-0.64458114,-0.8323799,0.21691996,-0.5893014,-1.8755226,0.09552048,-0.43649697,-0.39477062,0.20077513,0.009064002,0.1351907,0.025280524,-0.7802575,0.42665488,-0.15255317,0.45981652,0.10171352,0.545868,-0.4868428,-0.14796045,-0.22869734,-0.3285647,-2.1530252,-0.33827993,-0.14348951,-0.16290726,0.21348053,-0.97397023,-0.6439352,0.2672117,0.086817116
-0.3139052,-0.035007477,-0.013781968,-0.50982475,-0.04171721,0.14302146,0.10083108,-0.050420836,0.06788486,-0.20837057,1.4160836,-0.085170954,-0.08344708,-0.07807039,-0.020797601,0.0079324795,-0.026788505,0.035378285,-0.5268346,-0.023907445,-0.13952066,-0.00894096,0.07086121,-0.069049686,-0.16019846,-0.16137575,0.03812655,-0.9114036,1.3328153,-0.049424738,-0.2871732,-0.25392672,0.030827286,-0.016216528,0.0804245,0.079366595,0.64578086,1.4988827,-0.1946975,0.39706287,-0.9253082,-0.08124197,0.69285685
0.36158386,-0.5066441,0.30078813,-0.6783347,-0.2593543,0.16794075,0.12573992,0.06995965,0.07571825,0.15692571,-0.35503036,-0.41169962,0.22327714,0.13031562,0.3415397,-0.43451744,-0.56679916,0.2626325,-0.6270319,-0.14707796,0.33449256,-0.28916997,-0.48908627,-0.6940812,-0.2584702,-0.9462415,-0.59190583,-0.20182551,-0.3353024,-0.3553986,0.31406754,0.2693934,-0.17437984,0.3095935,1.0365511,-0.2608,0.36264953,-0.6826595,-0.36209556,-0.32992512,-2.6723905,-1.0771397,0.278093
0.8300858,-1.090742,-0.8160383,0.28732842,-1.7060597,-0.5669776,0.1067678,-2.1125526,0.07183547,0.019399567,0.6818189,-0.34286216,-1.8456923,-0.12021614,1.1490285,-0.11265681,-0.19605772,0.49311253,-0.24337353,-0.05436733,1.0863223,0.4891913,0.13530357,0.42585552,0.73300207,-0.32732055,-0.40746164,-0.7450832,2.3417737,-0.8792445,-0.8290753,-0.5312774,-0.28702426,0.20000884,1.6630865,-1.2469131,0.032065794,-0.37389994,-2.521777,1.5978459,0.64642006,-1.9429463,2.9491155
0.05630615,0.014603659,-0.043273102,-0.06583308,0.030308966,0.026974972,0.09618768,-0.049411234,-0.00058268657,0.0651203,-0.05105357,-0.059544325,-0.06097638,0.026353177,-0.2770989,-0.0071130013,-0.005959391,-0.08521263,-0.06876518,-0.06987885,-0.047200672,0.055920694,0.15240404,-0.08263683,0.12664892,0.04297847,-0.07856389,-0.0043587075,-0.109285526,0.028877856,0.0011445801,0.024341812,-0.029803198,-0.05476983,-0.022865623,0.053984992,0.0077284505,0.17315377,0.019498387,-0.06435912,-0.011619528,-0.023780644,-0.10269527
-0.620758,0.02940887,-0.2870247,-0.694613,0.7325318,-0.4083399,0.39652202,-0.60895574,-2.540039,0.99422073,0.8999528,-0.2596013,-0.0509764,-0.9641751,0.46188053,-0.08252475,0.081920035,0.23181824,-0.6139983,-0.15172026,-0.08223836,0.113737665,0.27225494,0.2647308,-0.3589566,0.21610883,-0.24246237,-0.18756145,0.7351512,0.53648525,-1.1531767,0.10648518,-0.20511377,-0.52110416,1.1401258,-0.16416726,-1.16878,0.03199526,0.15263382,3.0127797,0.38685486,0.9441596,0.5160919
-0.013868327,0.11033565,0.012211203,0.2772026,-0.40800118,0.0018325624,0.32184917,0.004141786,-0.008250661,0.22559325,0.37453082,0.019361915,-0.30888265,0.2781684,0.078673564,-1.0752352,-7.3070116,-0.048762094,-0.2997165,-0.022779029,0.27944282,-0.06404021,-0.13129343,-0.13793159,0.23524109,0.09930923,-0.52415884,-0.15548547,0.17498384,0.05819959,-0.28530678,0.41451848,-0.5508474,0.026297066,-0.123030275,0.03331623,-0.13532181,0.36521044,-0.11120867,0.51687795,-0.21238106,-0.1356769,0.9263261
1.7178714,-0.028979244,0.15310402,0.12334827,-1.1529675,-1.0792572,1.0577446,0.5230686,-0.2025711,0.42071956,1.8838489,-0.12827475,-0.9813789,0.37724188,0.069793254,-0.43237603,-4.398061,-0.6300945,-0.5866494,-0.7166869,0.59735525,0.31159037,0.9275095,-0.29293123,-0.5317728,-0.79282737,0.20331776,0.66640425,1.2244523,0.036190774,0.10837847,0.13966104,0.39939114,0.5342796,0.6531526,0.0045544766,0.46426606,0.97183424,-0.40380302,-0.35670704,0.4405059,-0.7599859,3.448061
0.35890776,0.5984832,-0.6160226,-0.022776928,0.28682268,-0.42998338,0.8034746,0.7187444,-0.40581945,0.09713903,0.4834789,-0.024194902,0.18690707,-0.7217364,-0.067707695,-1.8649849,-6.3488383,0.813288,0.7419267,-0.117077805,1.5357497,-0.56137437,1.2662245,1.5436158,-0.4340333,-1.1442976,0.39788833,0.034332667,0.8775801,0.13324471,-0.36639297,0.23547295,-1.0808454,0.3739821,-0.33058625,-0.4733468,0.31745136,-0.54881865,0.78888196,-0.09337186,-0.7571945,-1.6943358,-0.33808336
-0.8232856,-0.93471014,-0.099466436,0.059059322,-0.5140947,-0.23363316,-0.013426044,-0.7273021,-5.618018,-0.6090629,-0.05750742,-0.07902762,-0.17090482,-1.0199882,0.5550435,-0.3429734,-1.3026199,0.7885052,0.02295982,-0.17067683,0.46035478,-0.26446128,-0.0991577,0.5202984,2.5042484,-0.26197916,-0.15494058,0.11362837,0.95111454,0.08264199,-5.902769,0.0024462435,2.6713135,-0.94787735,2.395845,-0.6350215,-0.46352425,-0.24759205,-0.25701317,2.169884,-0.089866966,2.6840947,0.4735886
1.8236699,0.91950196,0.34684262,-2.7473824,-1.556702,-0.16506588,1.4437182,0.8997459,-0.047500923,0.5665842,0.6756394,-0.550212,0.075739816,-1.1294962,0.01119455,-0.29534185,0.30993488,-1.3004284,-0.081096254,0.28836873,1.5823294,-1.08665,-0.47506815,0.021121034,-1.320338,0.41977477,-1.6349828,-0.040187024,-0.34524083,-0.25526753,0.051552165,-0.16536482,0.21110678,0.32188562,0.60093445,2.6898496,-0.89263237,-1.2372451,-0.63798344,1.6614892,0.8082364,0.6884498,0.7042018
0.58050597,-0.79773986,0.1746396,-0.536125,-0.42283735,0.24739496,-0.22627534,-0.1908138,-1.9875267,0.15605952,1.1415955,1.2044919,0.1277818,-1.3824874,-0.7751088,0.5392316,-0.7931098,0.22677033,-0.014932134,0.16149884,-0.58947587,-0.33206433,-0.2617569,0.096587315,1.4984174,-0.3376296,-0.06988246,-0.5289281,1.1289159,0.07074971,0.055773802,0.09324366,-0.5390097,-1.051413,0.45022452,-0.30600277,-0.20094597,0.6947533,0.167354,-0.2858742,0.20955238,1.2645893,0.7228173
-0.5010474,0.2300691,-0.39057666,-0.6903827,0.14433715,-0.9119879,0.24342544,-0.10163919,0.015486072,-0.27056456,0.76912606,-0.12944849,0.0102819605,0.1625022,0.1737191,-0.7099375,-0.44743812,0.41799554,-0.8332761,-0.69377583,0.43974048,-0.69967127,0.1921233,0.17840654,-0.120668046,-0.4549106,-1.1460501,-0.080711834,0.30647537,-0.3919011,-0.01635,0.7942052,-1.2194984,0.08690483,-0.123351246,0.27851,-0.5594052,-0.08023516,0.11361699,0.67150897,0.2206335,0.37943804,0.25695276
